#define IMAGE_H 32
#define IMAGE_W 32
#define KERNEL_H 3
#define KERNEL_W 3

#define CONV_1_IN_CHANNELS 1
#define CONV_1_OUT_CHANNELS 16
float conv_1_weight[CONV_1_OUT_CHANNELS][CONV_1_IN_CHANNELS][KERNEL_H][KERNEL_W] = { 3.1675498485565186,2.6940701007843018,2.056083917617798,-4.063589096069336,-4.873301029205322,-4.157855033874512,0.5198625922203064,2.9222264289855957,1.8550803661346436,-0.568774402141571,0.3451889455318451,1.4603544473648071,-0.5336340665817261,1.3606196641921997,0.6221796274185181,0.35021427273750305,0.4888337552547455,-1.3865472078323364,-1.9105068445205688,0.14456120133399963,1.5955809354782104,-3.030735492706299,1.4332083463668823,0.5810144543647766,-1.4756066799163818,0.7910419702529907,1.8285189867019653,-0.6967182159423828,-6.574068069458008,2.5267386436462402,7.224043369293213,-4.7523274421691895,1.5727126598358154,1.1548666954040527,-0.3294730484485626,-0.5663471817970276,1.9949028491973877,2.1449897289276123,-2.744854211807251,3.1851422786712646,-1.5389057397842407,-2.138296365737915,1.6246039867401123,-2.7298266887664795,-0.01620257832109928,-0.5563403964042664,0.46645310521125793,1.6891791820526123,1.810540795326233,-3.019285202026367,-4.92570686340332,-0.7608920335769653,8.646814346313477,-3.392681121826172,-4.541241645812988,1.8404719829559326,2.5755248069763184,-2.364330291748047,-1.7538843154907227,0.21507196128368378,6.128633975982666,0.028944572433829308,-2.1229758262634277,-0.19593393802642822,-0.2525670528411865,-0.10443337261676788,0.515015721321106,-0.10677565634250641,-0.35234707593917847,2.672679901123047,-0.8590576648712158,0.906596302986145,2.1271259784698486,1.3601536750793457,0.8664427399635315,-0.7918868660926819,0.4582720994949341,1.5739290714263916,-3.0974295139312744,-0.896669864654541,-2.97920823097229,-4.489982604980469,3.2371411323547363,0.85368412733078,0.5012823343276978,5.523811340332031,-3.2092745304107666,-0.3719044625759125,1.5153671503067017,-4.067941188812256,-1.2458134889602661,-1.113594889640808,-0.45271560549736023,1.3423041105270386,7.084244251251221,-0.4969976544380188,0.7885630130767822,-7.388934135437012,1.3774667978286743,-0.765412449836731,-1.8797945976257324,-2.2242977619171143,-0.3114195466041565,0.8064399361610413,0.9871776700019836,1.1923202276229858,1.5089179277420044,1.2019476890563965,-1.4124977588653564,2.5292434692382812,1.5391403436660767,-3.1299936771392822,-1.5238118171691895,2.847935914993286,0.33100685477256775,-2.5178377628326416,1.2729262113571167,3.3891685009002686,0.06626243144273758,-0.8492579460144043,2.0864474773406982,-8.399592399597168,0.11351040005683899,-1.6759109497070312,-0.505380392074585,4.223626136779785,1.9568575620651245,-2.272554397583008,-1.8392516374588013,-0.2585541307926178,0.5311174392700195,-3.262803792953491,0.9045354723930359,0.7645521759986877,-0.10322597622871399,2.338317394256592,-7.44996976852417,0.39697372913360596,-3.7332019805908203,-0.45582619309425354,6.164363861083984,0.2760069668292999,3.5662195682525635,-1.7391973733901978 };
float conv_1_bias[CONV_1_OUT_CHANNELS] = { -0.04713449627161026,-0.8985658884048462,-0.016734663397073746,0.04863891005516052,0.0642404705286026,-0.06575965881347656,-0.012833775952458382,-1.411303997039795,0.7782758474349976,0.13941916823387146,0.023269901052117348,-0.030077502131462097,-0.02005123719573021,0.3746585547924042,1.300444483757019,0.07371792197227478 };

#define CONV_2_IN_CHANNELS 16
#define CONV_2_OUT_CHANNELS 24
float conv_2_weight[CONV_2_OUT_CHANNELS][CONV_2_IN_CHANNELS][KERNEL_H][KERNEL_W] = { 0.015209970064461231,0.043289367109537125,0.006010133773088455,0.0458349771797657,0.053963854908943176,0.03664300590753555,0.005227174609899521,0.018865492194890976,-0.003908041398972273,0.055785004049539566,-0.0385056734085083,-0.10693832486867905,0.06876528263092041,-0.07192715257406235,-0.090899258852005,-0.007153146434575319,-0.08318493515253067,-0.06600246578454971,-0.007063551805913448,-0.140268936753273,-0.19879722595214844,-0.00045564339961856604,-0.20478667318820953,-0.2157127857208252,-0.03245602175593376,-0.19355832040309906,-0.10488127917051315,-0.025847697630524635,-0.028402620926499367,-0.008969536982476711,0.03181997314095497,-0.02380029484629631,-0.027130240574479103,-0.013197878375649452,-0.09211500734090805,-0.039178185164928436,-0.0017182443989440799,-0.031426750123500824,0.003476168494671583,0.0324840247631073,-0.0015873925294727087,-0.03562318906188011,0.030999433249235153,0.008245548233389854,0.03147297352552414,0.011629530228674412,0.0005016651120968163,0.011655771173536777,0.012393339537084103,-0.043945375829935074,-0.015554908663034439,-0.01322170440107584,-0.05026363208889961,0.017001081258058548,-0.0372927300632,0.041785500943660736,0.03685438632965088,-0.039551377296447754,0.05501250550150871,0.019849473610520363,-0.032400984317064285,0.019339006394147873,-0.0055749667808413506,0.1153603196144104,-0.002681180601939559,-0.05488547310233116,0.10815136879682541,0.011776795610785484,-0.019293460994958878,0.04224280267953873,-0.005924726836383343,-0.07001685351133347,-0.020313158631324768,0.003978779539465904,-0.012613831087946892,0.0006501357420347631,-0.023314835503697395,-0.0073006609454751015,0.010179456323385239,-0.012670435942709446,0.024683907628059387,0.08354257047176361,-0.022885708138346672,-0.062477607280015945,0.1017274335026741,-0.014675475656986237,-0.07004354149103165,0.04403218999505043,-0.027450475841760635,-0.04316731169819832,0.015665795654058456,0.031080195680260658,-0.024413155391812325,0.030367974191904068,0.034926485270261765,0.0160337183624506,-0.041853662580251694,-0.03513547033071518,0.003659851150587201,0.02593209408223629,0.01487057376652956,0.007217229809612036,0.008634302765130997,-0.04713694378733635,-0.048741746693849564,-0.039268504828214645,-0.06305614858865738,-0.05094366893172264,-0.00841597281396389,-0.1620752513408661,-0.15964430570602417,-0.01720363087952137,-0.25296056270599365,-0.15086236596107483,-0.05313726142048836,-0.22795820236206055,-0.09808441251516342,0.06201116740703583,-0.06589473783969879,-0.07132498919963837,0.09278043359518051,-0.038883842527866364,-0.045791145414114,0.017778664827346802,-0.0007409703684970737,0.018230926245450974,-0.052755143493413925,-0.08300234377384186,-0.01751837320625782,-0.06987056881189346,-0.023257482796907425,0.01808493211865425,-0.030937522649765015,0.002143081510439515,0.02602919563651085,0.01297719031572342,-0.01879269815981388,-0.06698789447546005,0.06843122094869614,-0.04481710121035576,-0.06630682200193405,0.026808466762304306,-0.12386123836040497,-0.015502186492085457,0.040435194969177246,-0.05762166157364845,-0.007454665377736092,0.055932238698005676,-0.1028071865439415,-0.022035671398043633,0.041518550366163254,-0.057142000645399094,-0.037110231816768646,0.09343038499355316,0.014338825829327106,-0.014126847498118877,0.048021040856838226,-0.14771151542663574,-0.02624805085361004,0.07211340963840485,-0.07710255682468414,-0.01251235045492649,-0.046624816954135895,-0.07358131557703018,0.009419197216629982,-0.028338130563497543,-0.29034334421157837,-0.004136222414672375,0.022632205858826637,-0.12975561618804932,0.012152815237641335,0.03150303661823273,-0.011676670052111149,0.0035730565432459116,0.008309097960591316,0.02446647547185421,-0.055906638503074646,-0.01789422519505024,0.07191101461648941,-0.004657986108213663,0.09809313714504242,0.05712869390845299,-0.16699600219726562,0.06525944918394089,0.03491523861885071,-0.44362950325012207,0.031942419707775116,-0.013816095888614655,-0.08210146427154541,0.006131444126367569,-0.06387877464294434,-0.1529797464609146,0.00412847800180316,-0.004568728618323803,-0.22738490998744965,0.025642117485404015,0.01613985374569893,-0.07444721460342407,0.017552243545651436,-0.02018238604068756,-0.049023039638996124,0.07204505801200867,-0.056759998202323914,-0.009791571646928787,0.07219726592302322,-0.04069630801677704,0.04444108530879021,-0.01821342296898365,-0.05120420083403587,-0.12642787396907806,0.02811470441520214,-0.005705590825527906,-0.14661148190498352,0.06477142125368118,0.056507088243961334,0.012563010677695274,0.027061637490987778,-0.07371781021356583,0.051223836839199066,0.023532314226031303,-0.024018369615077972,0.06502969563007355,0.022972749546170235,0.009052298031747341,0.013165229931473732,0.0558643639087677,0.05949705094099045,-0.12115582078695297,0.06596699357032776,-0.09587174654006958,-0.11906270682811737,0.026602482423186302,-0.00984058529138565,0.003649438265711069,-0.006756141781806946,-0.04494035243988037,-0.05436946824193001,0.046920046210289,-0.11802735179662704,-0.15482378005981445,0.03832585737109184,-0.09931187331676483,-0.007173806428909302,0.013114869594573975,-0.035601481795310974,0.01134178414940834,0.04522710666060448,0.023524818941950798,-0.06152597814798355,0.013959953561425209,0.04635893553495407,-0.05026793107390404,-0.009049779735505581,-0.1282067745923996,0.05627598986029625,-0.0013308748602867126,-0.28725799918174744,0.0038537930231541395,0.004721321631222963,-0.029038334265351295,-0.0461198091506958,-0.031043149530887604,0.06870553642511368,0.023865560069680214,-0.021247150376439095,-0.017552049830555916,0.02813965454697609,-0.021111106500029564,-0.0516589991748333,0.09558951109647751,0.028646521270275116,0.05097341537475586,-0.06990865617990494,-0.043722331523895264,0.09234520047903061,-0.12856468558311462,0.00023616108228452504,0.09437348693609238,-0.1399860382080078,0.03086945042014122,0.00346814701333642,-0.04905041679739952,-0.025387343019247055,-0.10813996195793152,0.009648977778851986,-0.059672627598047256,-0.08753791451454163,0.05307365953922272,-0.005285593681037426,-0.07328268140554428,-0.16741681098937988,0.06339746713638306,-0.02912900038063526,-0.14992976188659668,0.03583475947380066,0.030121730640530586,-0.06937461346387863,0.053150393068790436,0.030561234802007675,-0.07087992876768112,0.08143216371536255,0.09394849091768265,-0.07112623751163483,0.1269209235906601,0.08785393834114075,-0.006843200419098139,0.029210524633526802,0.013922068290412426,-0.022170064970850945,0.028133578598499298,0.031215405091643333,-0.12724004685878754,0.01557962130755186,0.09798671305179596,-0.0695975124835968,-0.039764925837516785,0.014025520533323288,0.016034260392189026,0.02150658704340458,0.022809598594903946,0.030226895585656166,0.04885715991258621,0.0007619524840265512,0.023139536380767822,-0.0385555773973465,0.05635020136833191,0.060871440917253494,-0.01989111118018627,0.061741724610328674,0.06036698445677757,0.032526664435863495,0.0265655480325222,0.0433577224612236,0.0657157450914383,0.06859346479177475,0.031342629343271255,0.004774392116814852,0.0769311934709549,0.009032422676682472,0.03183033689856529,0.035108357667922974,0.0007455970626324415,-0.041728679090738297,-0.0310068242251873,-0.05093523487448692,0.010068226605653763,-0.040712542831897736,-0.029990026727318764,0.023281987756490707,0.021115373820066452,0.010028676129877567,0.1333642303943634,0.0885636955499649,-0.0002613746328279376,0.14733633399009705,0.16988682746887207,0.04010656103491783,0.05991944298148155,0.134245365858078,-0.003172585042193532,0.026035035029053688,-0.08220386505126953,-0.09030909836292267,0.004374030511826277,-0.0017133915098384023,-0.16052372753620148,-0.04185964912176132,-0.0001249633205588907,-0.0854092389345169,-0.027697522193193436,0.009300990030169487,-0.031859684735536575,-0.04880385845899582,0.08312147855758667,-0.03397476673126221,0.003697686828672886,0.09081809222698212,0.01188884861767292,-0.0008736523450352252,-0.1453869789838791,-0.12210085988044739,0.005490029230713844,-0.011870256625115871,-0.15778544545173645,0.024524331092834473,-0.004705793224275112,-0.0532703623175621,-0.012036601081490517,0.08361800014972687,0.004922003950923681,0.04454922676086426,0.07160662859678268,-0.02071290649473667,0.019791772589087486,-0.006546128075569868,0.025991391390562057,0.0493057444691658,-0.030077561736106873,0.009449878707528114,0.038785118609666824,0.05948875471949577,-0.0990651547908783,0.017313525080680847,0.09210556745529175,-0.10259044170379639,0.020900825038552284,-0.07376604527235031,-0.015077713876962662,0.05982242152094841,-0.06620757281780243,-0.013245421461760998,0.04262043908238411,-0.00520310876891017,-0.05038228631019592,-0.06876654177904129,0.0352402999997139,0.041076719760894775,-0.04805953428149223,0.009837430901825428,0.008637851104140282,0.05943556874990463,-0.03964516893029213,0.02280433103442192,-0.05479791387915611,-0.14369399845600128,-0.11196663230657578,-0.02976042591035366,-0.17243994772434235,-0.10231310874223709,0.0476452112197876,-0.10522438585758209,-0.06305883079767227,-0.005389203783124685,-0.03989853337407112,-0.08870495855808258,-0.0894690752029419,-0.016878195106983185,-0.06504075229167938,-0.08088462054729462,-0.00609645526856184,0.03839502111077309,-0.13995221257209778,-0.12288334965705872,-0.043681155890226364,-0.11783261597156525,0.048217542469501495,0.17178042232990265,-0.16322456300258636,0.13569530844688416,0.17537426948547363,0.1171216145157814,0.12916894257068634,0.029052775353193283,0.07558343559503555,0.07444445788860321,0.1821393370628357,-0.021281016990542412,0.050453078001737595,0.216775581240654,-0.026941051706671715,-0.06097787991166115,-0.03641771152615547,-0.12365099042654037,-0.10377968102693558,0.016381360590457916,-0.08800283819437027,-0.08435118198394775,0.07886754721403122,-0.06948667019605637,-0.033068813383579254,0.003812935436144471,-0.057606250047683716,-0.11985938996076584,0.05649906024336815,-0.0528181791305542,-0.22621698677539825,0.004305328708142042,-0.0852869525551796,0.07785391807556152,0.05681353807449341,-0.10506638884544373,0.08664029836654663,0.10196848958730698,-0.1536513864994049,-0.09223219752311707,-0.03639797866344452,0.02576642669737339,0.027814198285341263,0.055467963218688965,0.05040374770760536,0.12088289111852646,0.1352795958518982,0.04631912708282471,0.0832715630531311,0.1031855046749115,-0.16495709121227264,-0.007690462749451399,0.1588323414325714,-0.21693868935108185,-0.0017748749814927578,0.27224212884902954,-0.21109922230243683,-0.02531810849905014,0.19448737800121307,0.029548287391662598,-0.09542476385831833,-0.0892462357878685,0.009506680071353912,0.018259849399328232,0.09862712025642395,0.04086383059620857,0.04614081233739853,0.04462125897407532,-0.11027240753173828,-0.12083451449871063,-0.013960118405520916,-0.22828324139118195,-0.1272750198841095,0.008879098109900951,-0.13024185597896576,-0.04992503300309181,-0.008240882307291031,0.00016727842739783227,-0.0021405916195362806,-0.1103179082274437,-0.0647924467921257,0.015147225931286812,0.036544762551784515,-0.02780669368803501,-0.009093331173062325,-0.02844575047492981,0.016299782320857048,0.049163416028022766,0.11773218959569931,-0.0600258894264698,0.08623948693275452,0.21804805099964142,-0.012555019930005074,-0.059281110763549805,0.04380402714014053,0.07413855940103531,0.1178482249379158,-0.03405177220702171,0.014587590470910072,0.11743218451738358,0.12702496349811554,-0.01966816931962967,0.0968298465013504,0.1862906664609909,-0.011707048863172531,-0.031550243496894836,-0.017374513670802116,-0.09387385100126266,-0.057825345546007156,0.01533849909901619,-0.07135895639657974,-0.08294102549552917,-0.09855048358440399,-0.03766511380672455,-0.1175340786576271,-0.060235679149627686,-0.012391773983836174,-0.11069873720407486,0.02965392731130123,-0.048227064311504364,-0.15584751963615417,-0.07319708913564682,-0.014148707501590252,-0.018526693806052208,-0.04202597215771675,-0.03334975242614746,0.04759295657277107,0.02596084028482437,0.017536990344524384,0.16669495403766632,0.10478677600622177,0.05441926419734955,0.06835979223251343,-0.021743925288319588,-0.006716364063322544,-0.04968198016285896,-0.0029455809853971004,0.08257132768630981,-0.015724102035164833,-0.03154115378856659,-0.2868458330631256,-0.13299666345119476,-0.0001729439100017771,-0.3230910897254944,-0.052324287593364716,0.18055008351802826,0.005706438794732094,0.14392797648906708,0.16500437259674072,-0.09748809039592743,-0.08273481577634811,-0.0766657218337059,-0.18036311864852905,-0.13617028295993805,0.03247189521789551,0.05035680532455444,0.055249180644750595,0.07819002866744995,0.059890687465667725,-0.12724924087524414,0.04163368046283722,0.008071363903582096,-0.10080679506063461,-0.003838296514004469,0.07145582139492035,0.0933166891336441,0.044562626630067825,-0.11264896392822266,-0.168477401137352,-0.0036905123852193356,-0.15876935422420502,-0.2931947410106659,-0.059395547956228256,-0.03946196660399437,0.09159347414970398,0.04058513045310974,-0.17663072049617767,-0.23805291950702667,-0.03819308802485466,0.05600909888744354,-0.0004464391968213022,-0.0722842663526535,0.0834125354886055,0.12417032569646835,0.026031678542494774,0.011952734552323818,-0.10216093063354492,0.07148435711860657,-0.007102672941982746,-0.027166737243533134,0.08397498726844788,0.0769905149936676,0.10463698953390121,0.11383571475744247,-0.39458316564559937,-0.38219472765922546,-0.09722050279378891,0.06261545419692993,-0.0022706310264766216,0.12536999583244324,0.08612201362848282,0.14917699992656708,0.20609867572784424,0.0005980508285574615,-0.10674291849136353,-0.038375988602638245,-0.16153192520141602,-0.25911179184913635,-0.13153532147407532,0.003929502330720425,-0.09387129545211792,-0.11483563482761383,-0.12473256886005402,-0.1394444704055786,0.08659791946411133,-0.21475844085216522,-0.10818855464458466,0.1313983052968979,0.06144800782203674,0.15348796546459198,0.1291823387145996,-0.020638322457671165,-0.05678819492459297,0.053858280181884766,-0.051099538803100586,-0.1612825244665146,-0.004500989336520433,0.04670989513397217,0.10894253849983215,0.04272642731666565,-0.11379124969244003,-0.15130910277366638,-0.008997187949717045,0.006078098434954882,-0.02574095129966736,-0.010564576834440231,0.0452122688293457,0.0765434131026268,0.05235379561781883,-0.12764474749565125,-0.1078995019197464,-0.06239559128880501,-0.26165059208869934,-0.2018667310476303,-0.031224148347973824,0.04341469705104828,-0.05786384642124176,0.00455417949706316,-0.24278095364570618,-0.10626401007175446,0.06010102108120918,-0.22113049030303955,-0.1036880686879158,0.16181306540966034,-0.07604645937681198,0.06413616985082626,0.06822318583726883,0.015561086125671864,-0.036273106932640076,0.03901788964867592,-0.0834377259016037,-0.09797389805316925,0.008459178730845451,0.04761750251054764,0.0099709527567029,0.03719130530953407,-0.11954469233751297,0.023029765114188194,0.048467185348272324,-0.18734236061573029,0.04271063953638077,0.033405620604753494,-0.009216858074069023,0.08941607177257538,0.011009366251528263,-0.132650688290596,-0.04149330034852028,-0.08782672137022018,-0.032183267176151276,0.09360317140817642,0.18625469505786896,-0.014113333076238632,-0.13765621185302734,0.02573583833873272,-0.09236712753772736,-0.08300656825304031,-0.15162518620491028,0.033732831478118896,0.09093136340379715,0.056683894246816635,0.047620974481105804,0.06645756959915161,-0.010397601872682571,0.06667883694171906,0.00017488760931883007,-0.1990155130624771,-0.07980452477931976,0.027548078447580338,0.2506076395511627,-0.029815981164574623,-0.0944242998957634,-0.17874114215373993,-0.045023247599601746,-0.231524258852005,-0.10040833055973053,0.05855879932641983,0.1651821881532669,0.1406608670949936,-0.007392539642751217,0.03457632660865784,-0.04860074445605278,-0.012578528374433517,0.001269365893676877,-0.08456902951002121,-0.052892252802848816,0.10743855684995651,0.12315391004085541,-0.00932672806084156,-0.17989934980869293,-0.0697021558880806,0.08006475120782852,0.004206827376037836,0.07436618208885193,-0.06725030392408371,0.011203096248209476,-0.014541847631335258,0.00944510381668806,-0.06436225026845932,-0.07714110612869263,-0.07983455806970596,0.02704317681491375,-0.21495117247104645,-0.07896559685468674,0.07553929835557938,0.20581196248531342,0.02911592461168766,-0.054420892149209976,0.04866941273212433,0.07334835827350616,0.12618984282016754,0.0051954761147499084,-0.09619510173797607,0.01053500734269619,-0.10730911046266556,-0.08786454796791077,-0.11922068148851395,-0.09647997468709946,-0.08909276127815247,0.19916652143001556,0.24888911843299866,-0.06382019072771072,-0.1924782246351242,0.11248444020748138,-0.03793596103787422,0.035088010132312775,-0.12737096846103668,0.0581083744764328,-0.009637463837862015,-0.1358361840248108,-0.07847794145345688,0.23804864287376404,0.10587340593338013,-0.028744591400027275,-0.09955950081348419,0.10496789962053299,-0.15114673972129822,0.09389510005712509,0.12325047701597214,-0.03410101309418678,-0.13088613748550415,0.07988094538450241,0.015279209241271019,0.10688316822052002,0.09326917678117752,-0.14134931564331055,-0.10533404350280762,-0.07617896795272827,-0.10043075680732727,-0.08347774296998978,-0.08286017924547195,-0.013428306207060814,0.13075418770313263,0.1726670116186142,-0.09585592150688171,-0.01765689253807068,-0.017704637721180916,0.050587382167577744,-0.04861976206302643,0.14019101858139038,0.021932613104581833,0.008389911614358425,-0.17826956510543823,0.11528226733207703,0.2259998470544815,-0.20296357572078705,-0.10729596018791199,0.09653753787279129,0.27260851860046387,-0.042376093566417694,-0.2493150234222412,-0.022080736234784126,-0.09299182146787643,-0.3646928369998932,-0.162699356675148,0.19318757951259613,0.33257564902305603,0.06500687450170517,-0.020726725459098816,-0.03212800994515419,0.08990175276994705,0.0800914391875267,0.03285412862896919,-0.18153493106365204,-0.030105596408247948,0.24056346714496613,0.02969595044851303,-0.08172789216041565,-0.09873408824205399,0.10562832653522491,-0.09921377897262573,-0.06555533409118652,-0.01486834418028593,-0.00837530754506588,-0.01441082265228033,-0.16149915754795074,0.04825734347105026,0.09436899423599243,0.004076806828379631,0.09298139810562134,0.11102371662855148,0.07291707396507263,0.001235077390447259,-0.02782200090587139,-0.054489847272634506,0.033225543797016144,0.1273171603679657,-0.01660125143826008,-0.06442225724458694,-0.13308122754096985,-0.14827023446559906,0.03835805132985115,0.040529508143663406,-0.0644671693444252,-0.0476335734128952,0.023425135761499405,0.14799611270427704,-0.1847410798072815,-0.1963360607624054,0.03334304690361023,0.0023802670184522867,-0.11752546578645706,-0.11481532454490662,0.1028318926692009,0.19211700558662415,0.1419977992773056,-0.02322111278772354,-0.08433668315410614,-0.004710157867521048,0.10503549128770828,0.0900801420211792,-0.021888885647058487,-0.08959344029426575,0.03992109000682831,0.10244019329547882,-0.24596762657165527,-0.2558126449584961,0.021021481603384018,0.12253262847661972,-0.007349110208451748,-0.03196515142917633,-0.0022399218287318945,0.04338068142533302,0.02752344310283661,-0.05806697532534599,-0.1608782857656479,-0.09310850501060486,-0.0182757917791605,0.05343169346451759,-0.15972162783145905,0.03990299254655838,0.1309075951576233,0.16155852377414703,-0.1292630285024643,-0.1857287734746933,-0.24137619137763977,0.032292451709508896,-0.18988756835460663,-0.2264900803565979,-0.03917233645915985,0.011312379501760006,0.10220976173877716,-0.05421661213040352,0.04992837831377983,-0.08445541560649872,-0.005245570093393326,-0.014770708046853542,0.10517344623804092,0.12006298452615738,-0.015899095684289932,0.03960501402616501,-0.035945940762758255,-0.1636417657136917,-0.0725797563791275,0.04406120628118515,-0.0578128844499588,-0.09605149179697037,-0.003260851139202714,0.1644590049982071,0.13484807312488556,-0.052800245583057404,-0.049355123192071915,-0.003606674261391163,-0.09460029006004333,-0.09144037961959839,-0.09620318561792374,0.04760795459151268,0.03330164775252342,0.014785535633563995,0.09073362499475479,0.0353282205760479,-0.012457690201699734,-0.23933587968349457,-0.30686795711517334,-0.3015105128288269,-0.0436081737279892,-0.020279578864574432,-0.111040860414505,-0.05753304436802864,-0.050512947142124176,0.03848812356591225,-0.015692977234721184,0.009291420690715313,-0.00753423199057579,0.03212559223175049,0.015238037332892418,0.08079954981803894,0.11013423651456833,-0.14600341022014618,-0.09790410846471786,0.06939665973186493,0.1873922348022461,-0.10846591740846634,-0.07574602216482162,0.019767431542277336,0.10501796007156372,-0.3377842307090759,-0.22501683235168457,0.027448687702417374,0.15843068063259125,-0.09732867032289505,-0.13201695680618286,0.027851488441228867,0.21696700155735016,0.061396703124046326,0.05494082719087601,-0.02657325565814972,-0.0543660894036293,0.0778934434056282,-0.024412378668785095,-0.14230234920978546,0.016802573576569557,0.12058373540639877,-0.0038252740632742643,-0.12122824043035507,-0.005520753096789122,0.05801036208868027,-0.07278378307819366,0.05571291223168373,-0.0035010301508009434,-0.02402946539223194,-0.029145440086722374,0.11354951560497284,0.07694923877716064,-0.10875377058982849,0.01355973444879055,-0.029720092192292213,0.013902691192924976,0.05076661333441734,-0.04725983366370201,0.0031886205542832613,-0.007928794249892235,-0.0031798509880900383,-0.15545795857906342,0.1484644114971161,-0.11198312789201736,0.013796237297356129,-0.0025877978187054396,-0.06924241036176682,0.048593539744615555,-0.04562493786215782,-0.13964369893074036,-0.05784257501363754,0.15497583150863647,-0.07175849378108978,0.18668556213378906,-0.1184147298336029,0.09616744518280029,-0.07528169453144073,-0.06121775880455971,-0.0181726086884737,0.03871937468647957,0.054839856922626495,0.04826142638921738,-0.13184843957424164,0.010755936615169048,-0.13956378400325775,-0.07842987030744553,0.05148140713572502,-0.049910396337509155,0.16954895853996277,-0.1325404942035675,0.1281014382839203,-0.1525280475616455,-0.1220378652215004,-0.06009145453572273,-0.03457401320338249,0.06089862436056137,-0.05438702926039696,-0.05664714425802231,0.00422747852280736,-0.0737062618136406,0.07435488700866699,0.06810677796602249,-0.049450457096099854,0.028661832213401794,0.031138580292463303,-0.015749190002679825,-0.09612245857715607,-0.012870503589510918,-0.0844118669629097,-0.025468118488788605,-0.11785488575696945,-0.060805611312389374,0.026560747995972633,-0.015135953202843666,-0.08831887692213058,0.10168516635894775,0.017137929797172546,-0.036353129893541336,0.07921985536813736,-0.048322346061468124,0.011161856353282928,-0.028283454477787018,0.054339367896318436,0.03684814274311066,-0.12826569378376007,0.08700121194124222,-0.06420694291591644,-0.20533037185668945,0.08421960473060608,-0.21000808477401733,0.07815880328416824,-0.004405594430863857,-0.11065459996461868,0.06951158493757248,-0.1515093445777893,-0.04591690003871918,-0.13865764439105988,0.06248285248875618,-0.048109572380781174,-0.05840544402599335,0.061451833695173264,-0.10533629357814789,-0.03297054022550583,-0.04504187032580376,-0.10510421544313431,0.11105670779943466,0.0581158883869648,0.00995549000799656,0.0583285391330719,-0.02770204097032547,-0.2604142427444458,0.02485574595630169,0.025765065103769302,-0.003605656558647752,0.005232010502368212,-0.0742885023355484,0.05889615789055824,-0.06867320835590363,0.01076279953122139,-0.030912764370441437,0.045364346355199814,0.004598075523972511,-0.057401277124881744,-0.0007779549341648817,0.02293216809630394,-0.030430680140852928,-0.04879682511091232,0.09512003511190414,0.005359492264688015,0.18927091360092163,0.041745204478502274,0.205840602517128,0.04332641512155533,-0.1553032547235489,0.08796040713787079,-0.15123337507247925,-0.009551230818033218,-0.07736695557832718,-0.015084386803209782,0.03612644970417023,-0.23639310896396637,0.07160203903913498,0.043597571551799774,-0.051228225231170654,0.024708664044737816,0.0366109199821949,-0.060951199382543564,-0.1177452951669693,-0.05285736173391342,0.03888361528515816,0.059034716337919235,0.020626364275813103,0.024603702127933502,-0.007777255494147539,0.04312077909708023,-0.003861276200041175,0.025129912421107292,0.06760701537132263,0.01406579278409481,0.05623524636030197,0.13984665274620056,-0.029049083590507507,-0.0072044129483401775,0.09098640084266663,0.03392975404858589,-0.0009684819960966706,0.007228765171021223,0.04048267379403114,0.04305049031972885,0.0019978638738393784,0.009948480874300003,0.0059946030378341675,0.007556131109595299,-0.026186568662524223,-0.0658099353313446,-0.13150882720947266,0.03679034486413002,-0.002230247249826789,-0.08804983645677567,0.04491736739873886,-0.0020602403674274683,-0.10952036082744598,-0.008733127266168594,-0.12697650492191315,-0.0882214680314064,0.007361888885498047,0.015354243107140064,-0.017088012769818306,0.015071435831487179,-0.01812714897096157,-0.06167197227478027,0.012118975631892681,-0.09494445472955704,-0.04683726280927658,0.03752272203564644,-0.12021225690841675,-0.08492549508810043,0.081083744764328,-0.006805327720940113,-0.0030611411202698946,-0.001734173740260303,-0.07310277968645096,-0.051096100360155106,0.02497810125350952,-0.02743040770292282,-0.06768884509801865,0.03730844706296921,-0.00023583525035064667,-0.027031555771827698,-0.00035281997406855226,-4.836288280785084e-05,0.04516132175922394,0.01833171769976616,0.02604767307639122,0.04838404804468155,0.02378215081989765,-0.002730482490733266,0.030056430026888847,-0.10193152725696564,-0.21297238767147064,-0.12488307803869247,0.083313949406147,0.0192362479865551,-0.01736188493669033,0.0696912333369255,0.03973370045423508,0.04989976808428764,0.008821748197078705,-0.08678224682807922,-0.07211994379758835,0.018253566697239876,0.06067435070872307,0.018637515604496002,0.004163824487477541,-0.07775363326072693,0.02507396601140499,0.0026947474107146263,-0.17014384269714355,-0.21058715879917145,0.08699024468660355,0.019610155373811722,0.033579982817173004,0.03840355575084686,0.002737708855420351,-0.02493678405880928,0.06575621664524078,0.051991481333971024,0.04840162768959999,0.026728244498372078,0.036786776036024094,0.06931586563587189,-0.01797083206474781,-0.049349285662174225,0.009475251659750938,-0.030914854258298874,-0.07973010838031769,-0.08204817771911621,0.05785039812326431,0.03191382810473442,-0.033706046640872955,0.05278818681836128,0.050768543034791946,0.05402611568570137,-0.01826331578195095,-0.048308975994586945,-0.007393975742161274,-0.03172745928168297,-0.012158425524830818,0.07156024873256683,0.0067524234764277935,-0.012890800833702087,0.058662593364715576,-0.06524552404880524,-0.1049877405166626,-0.1339002251625061,-0.0823337584733963,-0.1486530900001526,-0.1175881177186966,-0.01747027412056923,-0.05896741896867752,-0.0486520491540432,0.00011948795872740448,-0.023032594472169876,-0.010230496525764465,-0.016973845660686493,0.015972459688782692,0.008840483613312244,-0.0188165120780468,-0.0364791601896286,0.013682635501027107,0.02181457355618477,-0.04780005291104317,-0.060000088065862656,-0.12729792296886444,-0.20729073882102966,-0.08229871839284897,-0.10430856049060822,-0.12594833970069885,-0.10122939944267273,0.20183664560317993,0.2810981273651123,0.17651541531085968,0.011464366689324379,0.005689436104148626,0.0650641918182373,-0.1044248640537262,-0.04785635322332382,-0.03457918390631676,0.011816306971013546,0.02263261377811432,0.02272249199450016,0.0653795450925827,0.01936555840075016,0.018092455342411995,0.07192517817020416,0.10987938195466995,0.02028874307870865,0.0019958734046667814,0.010996565222740173,0.053494926542043686,-0.11678460240364075,-0.16675890982151031,-0.06356443464756012,-0.05666974186897278,-0.08962760120630264,-0.03605448827147484,0.06377261132001877,0.04900742694735527,0.07292739301919937,0.06443949788808823,0.1101590022444725,0.06544675678014755,0.015867600217461586,0.0777917131781578,0.053057312965393066,-0.13161712884902954,-0.052808601409196854,0.0059546236880123615,-0.08596242964267731,-0.09596757590770721,-0.04576980322599411,0.07007230818271637,0.03128747269511223,0.014084112830460072,-0.13381779193878174,-0.16455471515655518,-0.07582702487707138,-0.1266154944896698,-0.2387382835149765,-0.17877142131328583,-0.03979294374585152,-0.10552894324064255,-0.12797434628009796,0.06864490360021591,0.07015127688646317,0.05660305917263031,-0.11907251924276352,-0.22724111378192902,-0.20308102667331696,-0.0611807219684124,-0.044703058898448944,-0.04698280617594719,0.0043019456788897514,-0.003218628466129303,-0.024633929133415222,-0.03230682387948036,-0.07808195799589157,-0.02636357955634594,0.04355514049530029,-0.045933883637189865,-0.037365835160017014,-0.002592879580333829,-0.013323267921805382,-0.035871472209692,-0.027650557458400726,-0.06241036579012871,-0.006974206306040287,-0.049753833562135696,-0.0499606654047966,0.02205595187842846,0.035877641290426254,0.011483904905617237,0.04226525500416756,-0.1335969865322113,-0.2190254032611847,-0.16818292438983917,-0.05285263434052467,-0.16633400321006775,-0.10415826737880707,-0.061918552964925766,-0.05283243581652641,-0.02537580393254757,-0.20134957134723663,-0.2535240650177002,-0.2855825424194336,-0.14484044909477234,-0.17915001511573792,-0.19082826375961304,0.08017728477716446,0.08939698338508606,0.10923850536346436,0.06593022495508194,0.09723228216171265,0.10634981095790863,0.07689398527145386,0.06436680257320404,-0.02892649546265602,0.0539376437664032,-0.02161361649632454,-0.06769753992557526,-0.0001031006031553261,-0.048498984426259995,-0.019681144505739212,0.009000007063150406,0.0052325110882520676,-0.01792069338262081,-0.13491171598434448,-0.13989569246768951,-0.07110151648521423,-0.11650986224412918,-0.16280359029769897,-0.07988252490758896,0.010950716212391853,-0.00426562549546361,-0.035888466984033585,0.035839177668094635,0.01562461256980896,-0.05354953184723854,-0.019925937056541443,-0.062172506004571915,-0.07830116897821426,-0.005298307631164789,-0.06929132342338562,-0.06920582056045532,0.1462719440460205,0.14774490892887115,0.02414306066930294,0.12695758044719696,0.14094191789627075,0.07207444310188293,0.14616906642913818,0.09201361984014511,0.0537368468940258,0.06004602089524269,0.12287125736474991,0.05535535141825676,-0.017217397689819336,-0.021043827757239342,-0.004028458148241043,-0.17556136846542358,-0.1400974839925766,-0.022809898480772972,-0.019498586654663086,-0.0725259780883789,-0.019441697746515274,-0.14672215282917023,-0.18938785791397095,-0.029212187975645065,-0.21363161504268646,-0.3552410304546356,-0.13391704857349396,0.004473809618502855,0.01837627962231636,0.06176421791315079,-0.06843961775302887,-0.0038036906626075506,0.0382150299847126,-0.060224469751119614,-0.057153116911649704,0.010359571315348148,-0.04107708856463432,-0.017672868445515633,0.028621984645724297,-0.20068956911563873,-0.21119415760040283,-0.04228171706199646,-0.17747613787651062,-0.3288544714450836,-0.1471252590417862,-0.09753196686506271,-0.016498861834406853,0.020356589928269386,-0.171246737241745,-0.14111025631427765,0.016957953572273254,-0.10435175895690918,-0.0602264404296875,0.03290960565209389,0.037561025470495224,0.10345469415187836,0.02280561439692974,0.03759435564279556,0.18567289412021637,0.11479666829109192,-0.10328745096921921,-0.020006487146019936,0.051524121314287186,-0.038990627974271774,0.12266326695680618,0.11650276184082031,-0.1449514925479889,-0.14206865429878235,-0.007181176915764809,-0.12044268101453781,-0.006594029255211353,-0.05062731355428696,0.12278576195240021,0.14705204963684082,0.03717608004808426,0.09970364719629288,0.14600805938243866,0.008652483113110065,-0.056018464267253876,-0.016460735350847244,0.08498827368021011,-0.023102423176169395,0.08318879455327988,0.12250129133462906,-0.10537540912628174,-0.06404805183410645,0.061785709112882614,-0.07969804108142853,-0.2071993499994278,-0.024906199425458908,0.061053499579429626,0.08186837285757065,0.017493218183517456,0.09940756857395172,0.07079505920410156,0.01943923532962799,0.08157148212194443,0.12146487832069397,0.09220266342163086,-0.01723058521747589,0.05179678648710251,-0.005869664251804352,-0.023378856480121613,-0.002184617333114147,-0.06587972491979599,0.046474162489175797,-0.007561630569398403,-0.11287172883749008,0.05010931193828583,0.07700933516025543,0.047198329120874405,-0.02797026000916958,-0.02609127014875412,0.0445345938205719,-0.29587164521217346,-0.2371845692396164,-0.002816291293129325,-0.04922166466712952,-0.014250229112803936,0.01113608293235302,-0.07919661700725555,-0.04653505980968475,0.02629201114177704,0.019539890810847282,-0.002165676560252905,0.04274273291230202,-0.05230436474084854,-0.030964212492108345,-0.04209896922111511,-0.010239142924547195,-0.02481744810938835,0.025446610525250435,-0.026075312867760658,-0.026109736412763596,0.011430734768509865,-0.043202854692935944,-0.010808765888214111,0.018953220918774605,-0.03335202857851982,0.06445151567459106,0.046506304293870926,-0.013335734605789185,-0.0824051946401596,-0.0009366099257022142,-0.050002433359622955,-0.014676583930850029,0.047598302364349365,-0.029648302122950554,0.015386312268674374,0.02546159364283085,0.007047009654343128,-0.006773022003471851,0.023427587002515793,-0.13996325433254242,-0.10113279521465302,-0.01875668577849865,-0.09233453869819641,-0.134799987077713,-0.05812268331646919,0.01462074276059866,-0.13662204146385193,-0.13365651667118073,0.03365815058350563,0.04673387482762337,0.06018824875354767,-0.04289108142256737,0.05296066030859947,0.015429005026817322,0.001112931058742106,0.035967856645584106,-0.015596313402056694,0.08535711467266083,0.12881065905094147,-0.008627205155789852,0.14313866198062897,0.18088750541210175,0.049700912088155746,0.04866024851799011,0.12215520441532135,0.1350601464509964,-0.16690099239349365,-0.1617135852575302,-0.017233652994036674,-0.06035767123103142,-0.19528524577617645,-0.171273335814476,0.0651673674583435,-0.11014916002750397,-0.21992355585098267,0.12077031284570694,-0.006448422092944384,-0.062059588730335236,0.09059592336416245,0.14029857516288757,0.05927564576268196,0.03896486759185791,0.10912329703569412,0.09087102860212326,0.09449528157711029,0.10485541075468063,-0.059559233486652374,0.006603916175663471,0.05084570124745369,0.10535341501235962,-0.11935131996870041,0.050765108317136765,0.10470719635486603,0.06797296553850174,-0.012035784311592579,-0.049510691314935684,0.10759846121072769,0.0749390721321106,0.005031213629990816,-0.05568249151110649,-0.09054078161716461,-0.056648969650268555,0.05882420763373375,0.13945402204990387,0.10095828026533127,-0.049926966428756714,0.1919405460357666,0.19540683925151825,-0.06594637036323547,-0.0020393056329339743,0.1423647403717041,-0.03851212188601494,0.01612379588186741,0.09958072006702423,-0.011043061502277851,-0.15385118126869202,-0.029449794441461563,0.16552141308784485,-0.12821616232395172,-0.12804967164993286,-0.0284718107432127,-0.00354795646853745,-0.003543665399774909,-0.019879374653100967,-0.070235475897789,-0.014453914016485214,-0.014506185427308083,0.11108658462762833,0.04165986552834511,0.028084484860301018,-0.012198555283248425,0.03912001848220825,0.06774722039699554,0.037952639162540436,0.03134450688958168,0.07543283700942993,0.014209278859198093,0.011382446624338627,0.08168933540582657,0.1421974003314972,0.03872764855623245,0.0034353621304035187,0.17138180136680603,0.07253299653530121,0.007118047680705786,0.08185309171676636,0.0658433809876442,-0.07915914803743362,0.012515529058873653,0.09432129561901093,0.024470672011375427,-0.004984540399163961,-0.007976970635354519,0.04599744826555252,0.0015074789989739656,-0.046450790017843246,0.1314808428287506,0.0976799726486206,-0.06707001477479935,0.23162154853343964,0.2219185084104538,-0.017871715128421783,0.06825108081102371,0.2180360108613968,0.09622202068567276,-0.05199894681572914,0.014437921345233917,-0.019158171489834785,-0.027577515691518784,-0.021548783406615257,-0.0269286148250103,0.05888183042407036,0.022119449451565742,-0.07544071972370148,0.06414411962032318,0.03707188367843628,0.04007452353835106,0.0684538185596466,0.056492701172828674,0.04756009206175804,0.0279821939766407,0.07638633251190186,-0.0037048410158604383,0.0637272372841835,0.06610462069511414,0.060316555202007294,-0.029704704880714417,0.015891186892986298,0.049762923270463943,-0.007551956921815872,0.02858402580022812,0.010375342331826687,-0.01442683208733797,-0.1289367973804474,-0.08486763387918472,-0.13942211866378784,-0.0474076122045517,0.011608763597905636,-0.012068711221218109,0.040972623974084854,0.07268102467060089,0.03204071521759033,0.028769582509994507,-0.0878397598862648,-0.18076778948307037,-0.42407163977622986,-0.36450138688087463,-0.18762561678886414,-0.097904734313488,-0.0072012729942798615,0.06807620078325272,0.1681084781885147,0.08954811841249466,0.01653813198208809,-0.0060799908824265,-0.18785715103149414,-0.07985088974237442,-0.10982675105333328,0.030748961493372917,0.0073785195127129555,-0.1339268684387207,-0.1278430074453354,-0.3420775234699249,-0.2723912298679352,-0.0425393171608448,0.004420772194862366,0.03818196430802345,-0.0019950331188738346,0.0014330081176012754,-0.029169296845793724,-0.05082261934876442,-0.16257824003696442,-0.16538430750370026,-0.06036143749952316,-0.0030378689989447594,0.08682757616043091,0.03690948709845543,-0.05563684552907944,-0.046610549092292786,-0.109779492020607,-0.128597229719162,-0.11540185660123825,0.004108216147869825,0.13110119104385376,0.12173832207918167,0.11759935319423676,0.1773863136768341,0.12995941936969757,0.052295610308647156,0.10062895715236664,0.01539225596934557,-0.03778770938515663,0.0650639757514,0.05785519257187843,0.011924671940505505,0.07070997357368469,0.10084878653287888,0.05232495442032814,-0.03544173389673233,-0.05650153011083603,-0.09983475506305695,-0.04950610175728798,-0.019890032708644867,0.0020995247177779675,0.07406648248434067,0.07474534213542938,0.06820603460073471,-0.06692809611558914,-0.12107743322849274,-0.10112821310758591,0.08364322036504745,0.10276347398757935,-0.014101922512054443,0.05229368433356285,0.05858999118208885,0.02079918049275875,-0.05471830815076828,0.05681401491165161,0.008596787229180336,0.13164421916007996,0.14775249361991882,0.14676283299922943,-0.049006592482328415,-0.11408884823322296,-0.10670148581266403,-0.2395121157169342,-0.28832539916038513,-0.14329518377780914,-0.11087282747030258,-0.07626361399888992,0.02279949001967907,-0.030660679563879967,0.07649561762809753,0.07697510719299316,-0.0245856661349535,0.18241046369075775,0.08629874885082245,0.08469977974891663,0.09670383483171463,-0.03762413188815117,0.04254183545708656,0.08663661777973175,0.12379571050405502,0.006951694842427969,-0.044537778943777084,0.004593112971633673,-0.08779855817556381,-0.03817721828818321,0.02169569581747055,0.023069290444254875,4.979199366061948e-05,0.051423534750938416,-0.08538878709077835,0.1522873044013977,0.14101122319698334,0.12336789071559906,0.1683359295129776,0.08891703188419342,-0.11617442220449448,-0.036171723157167435,0.035365331918001175,-0.6751570701599121,-0.5217693448066711,0.01837966777384281,-0.16272123157978058,-0.13428714871406555,-0.014898588880896568,0.05414321646094322,0.02831389382481575,0.0027849823236465454,-0.031729474663734436,-0.045318637043237686,0.003520434023812413,0.026417579501867294,0.02471904642879963,0.048072583973407745,0.18092849850654602,0.11596081405878067,0.02681564912199974,0.04197504743933678,-0.06258169561624527,-0.05298260971903801,0.026483731344342232,-0.03503325209021568,-0.1075390875339508,0.08017698675394058,0.06620693951845169,0.056308433413505554,-0.14740535616874695,-0.21231204271316528,-0.07762457430362701,-0.11072413623332977,-0.10980876535177231,-0.09039628505706787,-0.04065471887588501,-0.004376399330794811,-0.007787802722305059,-0.11659277230501175,-0.03356388956308365,0.024123670533299446,0.08760035037994385,0.081377312541008,0.025321826338768005,-0.042980652302503586,0.008648806251585484,0.05581977590918541,-0.07343294471502304,-0.05031869560480118,-0.0023397025652229786,0.0372873954474926,0.000794656400103122,-0.030504727736115456,-0.10533934831619263,-0.060503873974084854,-0.0031058492604643106,-0.2379463165998459,-0.3585132956504822,-0.06131625920534134,-0.0980764701962471,-0.22320939600467682,-0.07676836848258972,-0.04752163961529732,-0.07990125566720963,-0.07289542257785797,0.07348088920116425,-0.07168805599212646,-0.03327370062470436,0.12136805057525635,0.06319647282361984,0.09762705117464066,-0.4239688217639923,-0.2716083228588104,0.07520300149917603,-0.31472957134246826,-0.19528521597385406,0.02554979920387268,-0.01196281611919403,0.08578426390886307,0.08618877083063126,0.011485905386507511,0.0816209465265274,0.017611917108297348,-0.1921137571334839,-0.1586941033601761,-0.02509496919810772,-0.12245460599660873,-0.12953467667102814,-0.013679517433047295,-0.2753963768482208,-0.2250731736421585,0.04913267493247986,-0.4567108750343323,-0.40002667903900146,-0.05071522295475006,-0.12480265647172928,-0.06333553045988083,0.017234928905963898,0.04131356626749039,0.08766228705644608,0.10252804309129715,0.03219694644212723,-0.002185883466154337,0.1313454657793045,-0.020142285153269768,-0.00017090459004975855,0.001226908410899341,0.023086151108145714,0.09982600063085556,0.08717469871044159,-0.01664702408015728,-0.13906799256801605,-0.022772664204239845,-0.01314813643693924,-0.053825221955776215,-0.08937716484069824,0.014911332167685032,0.07048510760068893,0.009776334278285503,-0.16620035469532013,-0.055961817502975464,0.06087373569607735,0.0127584682777524,0.09675795584917068,0.07964665442705154,0.10732965171337128,0.050345007330179214,-0.005540099460631609,-0.12763731181621552,0.0091667165979743,0.03769461065530777,0.007472323719412088,-0.016268838196992874,0.03179642930626869,-0.012042557820677757,0.03807956352829933,-0.00128674297593534,-0.2959357500076294,-0.0847001001238823,0.08360433578491211,-0.23488521575927734,-0.14837516844272614,0.06927336007356644,-0.18650609254837036,-0.1148637980222702,0.03576171025633812,-0.10827464610338211,-0.16736415028572083,0.0055771516636013985,-0.03624241054058075,-0.04463566839694977,0.0169611144810915,-0.04012257605791092,0.021227210760116577,-0.05705581232905388,-0.05840592831373215,-0.03619563579559326,-0.09826591610908508,-0.09879668802022934,-0.08115138858556747,-0.08141405135393143,0.15580295026302338,0.1274181455373764,-0.004877996165305376,0.07363922148942947,0.032350193709135056,-0.0785546526312828,0.02800818905234337,-0.06265345960855484,-0.15749534964561462,0.10433308780193329,0.04906514286994934,0.02413805015385151,0.19887542724609375,0.1385737508535385,-0.007683367468416691,0.1364196091890335,0.1275896281003952,-0.0476212203502655,-0.26406681537628174,-0.16308853030204773,-0.0866096019744873,-0.2848506569862366,-0.3356511890888214,-0.11210107058286667,-0.13753624260425568,-0.23879612982273102,-0.10373672842979431,0.05094417929649353,0.05460970103740692,-0.006654310040175915,0.059346508234739304,0.09658271074295044,-0.08219185471534729,0.052112285047769547,-0.004846263211220503,-0.17125557363033295,0.059974055737257004,-0.0312739834189415,-0.02869720384478569,0.09350667148828506,0.09803078323602676,0.021122541278600693,0.06893935799598694,0.07338643819093704,0.03208543732762337,0.11445517092943192,0.06491708755493164,0.004477519541978836,0.01953306794166565,-0.16289861500263214,0.0012072547106072307,0.1745225042104721,0.06420329213142395,-0.07903910428285599,-0.06292153149843216,-0.06487566977739334,-0.061386581510305405,0.013544212095439434,0.0801360234618187,0.029990313574671745,0.03852121904492378,0.1136406809091568,0.13650764524936676,-0.003884373465552926,0.007559019140899181,-0.0840633362531662,-0.06860325485467911,-0.08700469881296158,-0.12243365496397018,-0.028610629960894585,-0.1512783020734787,-0.11855556815862656,-0.12876616418361664,-0.08607883751392365,-0.06941817700862885,-0.062227677553892136,-0.0680905133485794,-0.04708066210150719,-0.10419362783432007,-0.05592678487300873,-0.0750102773308754,-0.2657258212566376,-0.032184816896915436,0.07791919261217117,-0.15127503871917725,-0.004099998623132706,0.07470677047967911,0.07207288593053818,0.04344530403614044,0.04754943400621414,0.12087812274694443,0.15310469269752502,-0.015665272250771523,0.11771368235349655,0.08862598240375519,-0.01065867394208908,0.037290144711732864,0.024559764191508293,-0.07882785052061081,-0.01736113242805004,-0.0672861710190773,-0.09362194687128067,-0.03744900971651077,-0.20479454100131989,-0.09586236625909805,-0.03411523625254631,-0.15311041474342346,-0.08977120369672775,0.1633729338645935,0.09967294335365295,0.01779564842581749,0.14948676526546478,0.10644101351499557,-0.002019209321588278,0.07731249928474426,0.1466892957687378,0.040001917630434036,-0.017027130350470543,-0.02974344976246357,-0.05936800688505173,-0.11753534525632858,-0.1345294564962387,-0.08215189725160599,-0.13477425277233124,-0.2404751181602478,-0.07295963913202286,-0.021392997354269028,0.00215643341653049,0.02421986684203148,-0.09519462287425995,-0.04165903851389885,0.043009836226701736,-0.08731882274150848,-0.019018756225705147,-0.020264115184545517,0.03475525975227356,-0.07601731270551682,0.04150562360882759,0.021974967792630196,-0.10457401722669601,0.02423129975795746,-0.04658985510468483,0.001229082583449781,-0.001322317635640502,-0.00298116123303771,0.02757786028087139,-0.0006010239012539387,-0.309476763010025,0.06303247064352036,0.03450823947787285,-0.17349426448345184,0.0511176735162735,0.06710051745176315,-0.013148537836968899,0.035374339669942856,0.06725267320871353,0.013646106235682964,-0.03577065467834473,0.024254119023680687,0.04036629945039749,0.04175722226500511,-0.1455003321170807,0.04014978185296059,-0.115252286195755,-0.03316570073366165,0.05586615204811096,-0.18386319279670715,-0.03450328856706619,0.01201970037072897,-0.05491958558559418,0.00385316857136786,-0.06561582535505295,-0.13755202293395996,0.04130403324961662,-0.014018142595887184,-0.33448293805122375,0.051997110247612,0.013076161965727806,-0.1632118970155716,-0.031499024480581284,-0.003880607895553112,0.0033203447237610817,0.010220013558864594,-0.02765515074133873,0.07818952947854996,-0.03803110867738724,-0.0784110501408577,0.053162943571805954,-0.012584587559103966,0.025664420798420906,-0.015917601063847542,-0.01978154107928276,-0.03714650869369507,-0.08441227674484253,-0.0758901908993721,-0.007814476266503334,0.06282082945108414,-0.061568912118673325,-0.038668058812618256,0.07875121384859085,-0.002843206049874425,-0.0146510424092412,0.07685349881649017,0.025746775791049004,0.052488140761852264,-0.024043599143624306,-0.017780734226107597,0.05288618430495262,-0.12919941544532776,0.009133676998317242,0.08020199090242386,-0.16311931610107422,-0.003577413270249963,-0.07625503093004227,-0.003934706095606089,0.008147137239575386,-0.031071292236447334,-0.039271965622901917,-0.0033105500042438507,-0.14248667657375336,-0.07476232945919037,-0.03013860061764717,-0.08649951964616776,-0.12016706168651581,0.022911468520760536,0.05828676000237465,-0.07970421761274338,-0.02450401894748211,0.07392355054616928,-0.09016390144824982,0.006262217182666063,0.04901158809661865,-0.10243719816207886,0.024944975972175598,-0.12435435503721237,0.07582969218492508,0.03837955743074417,-0.37146586179733276,0.026400482282042503,0.06491967290639877,-0.11730504035949707,0.027026241645216942,0.034405872225761414,0.13770943880081177,-0.09426514804363251,-0.07957258820533752,0.06944170594215393,0.018513603135943413,-0.0752679631114006,-0.052820686250925064,0.1239006295800209,-0.02419983223080635,0.05494914948940277,-0.12196295708417892,0.01744447462260723,0.09798751771450043,-0.11779152601957321,-0.042880576103925705,0.16766074299812317,-0.11854636669158936,-0.06086881831288338,0.06484280526638031,-0.10510049015283585,0.005186290945857763,0.045877229422330856,-0.05646802857518196,0.012380299158394337,-0.09426429867744446,0.10925571620464325,0.0011799325002357364,-0.1295740306377411,-0.03313359618186951,-0.006438134238123894,-0.04682325944304466,-0.05162641778588295,-0.002098351251333952,-0.04564704746007919,0.014329210855066776,0.003720830660313368,-0.020982911810278893,0.05528280511498451,0.03257729485630989,-0.009848104789853096,0.20370690524578094,0.06500976532697678,-0.05384063720703125,0.04947469383478165,0.039528988301754,-0.03150256350636482,0.008507853373885155,0.04887299984693527,0.04725548252463341,0.09792587161064148,0.07966530323028564,-0.013067514635622501,-0.030161164700984955,0.047153010964393616,-0.025452805683016777,-0.08636082708835602,-0.06340670585632324,-0.06952676177024841,-0.13768276572227478,-0.09769206494092941,-0.06325407326221466,-0.32888931035995483,-0.13014912605285645,0.05245860666036606,0.10893797874450684,0.07793306559324265,0.14477282762527466,0.30108171701431274,0.09942194074392319,0.1274963617324829,0.09786461293697357,-0.03619983792304993,-0.006811072118580341,-0.10362289845943451,-0.09775039553642273,-0.11123225837945938,-0.19053272902965546,-0.1411118507385254,-0.27798306941986084,-0.2918296754360199,-0.10900958627462387,-0.09623308479785919,-0.0980924591422081,-0.0444476492702961,-0.013622094877064228,-0.040920644998550415,-0.006638241931796074,-0.027629034593701363,-0.09051243215799332,-0.059809911996126175,-0.1088375598192215,-0.07904483377933502,-0.08270824700593948,-0.020497705787420273,-0.02531227096915245,0.10048659890890121,-0.08790551871061325,-0.11268556118011475,-0.00040454789996147156,-0.019666040316224098,-0.1224912628531456,-0.11926651000976562,0.11491505056619644,-0.019759345799684525,-0.08738119900226593,0.1175762340426445,0.0005838180659338832,-0.02357092872262001,0.04881170019507408,0.12967832386493683,0.07003769278526306,0.19824190437793732,0.2717253267765045,0.07682500034570694,0.09076644480228424,0.11082236468791962,-0.012979106977581978,-0.09660179167985916,-0.060978617519140244,0.00930104497820139,-0.07768555730581284,-0.033151865005493164,0.030592627823352814,-0.015112189576029778,-0.027608806267380714,-0.042811620980501175,0.03855006769299507,0.04729155823588371,0.013209455646574497,-0.004350258037447929,0.01675841584801674,-0.04461173340678215,-0.1397993117570877,-0.08349835872650146,-0.06733851879835129,-0.013431222178041935,-0.13690225780010223,-0.15802541375160217,-0.05404333025217056,-0.0904020294547081,-0.14681413769721985,-0.12257421016693115,-0.10666700452566147,-0.06003331020474434,0.05618489161133766,0.20545697212219238,0.10959875583648682,0.29237693548202515,0.43375882506370544,0.21316803991794586,0.18747413158416748,0.28021663427352905,-0.021798094734549522,0.05060579255223274,-0.009858693927526474,-0.00915003102272749,0.148591548204422,0.0652974545955658,0.04860112443566322,0.05621804669499397,-0.038262028247117996,-0.024448979645967484,-0.020098498091101646,0.09523465484380722,0.08514750003814697,0.16721211373806,0.2754839360713959,0.13099758327007294,0.10756983608007431,0.19843360781669617,0.05295747518539429,0.26324760913848877,0.14573155343532562,-0.019192062318325043,0.14147904515266418,0.14925608038902283,-0.08084745705127716,-0.09354346245527267,-0.03807428479194641,-0.1000293418765068,-0.10536576062440872,-0.1415213942527771,-0.09413162618875504,-0.03458625450730324,-0.06060955300927162,-0.12300555408000946,0.07025895267724991,0.009859821759164333,-0.014562581665813923,0.030283192172646523,0.0124709727242589,0.0015311233000829816,0.04175838455557823,0.13745266199111938,0.055185411125421524,-0.04767397418618202,-0.13578708469867706,-0.019703850150108337,0.03506223484873772,0.09491914510726929,0.04292299970984459,0.17853999137878418,0.08220022171735764,0.02313336916267872,-0.0832303985953331,-0.20130233466625214,-0.09216763824224472,-0.016842151060700417,-0.06174684315919876,-0.043677497655153275,-0.062002379447221756,-0.06007344648241997,-0.023051181808114052,-0.06648875027894974,0.047119952738285065,0.04805796965956688,0.07541774958372116,-0.018734337761998177,-0.013660586439073086,-0.0701669380068779,-0.10284692049026489,-0.03577136993408203,-0.0661858320236206,-0.1150837168097496,-0.06205195188522339,0.10431626439094543,0.001394570805132389,-0.01645355485379696,0.09012605249881744,0.13306809961795807,0.04512052237987518,-0.0447361059486866,-0.042162977159023285,-0.06561442464590073,-0.11929796636104584,-0.12071917206048965,-0.12029287964105606,-0.07201462984085083,-0.17619755864143372,-0.0936790183186531,-0.05430923402309418,-0.16229692101478577,-0.07775773108005524,0.26091888546943665,0.19618907570838928,0.05077572166919708,-0.22473737597465515,-0.17470186948776245,-0.15404120087623596,0.05997383967041969,-0.0022857177536934614,-0.08355898410081863,0.12150842696428299,0.05480915680527687,0.10568667948246002,0.1310230791568756,0.07526549696922302,0.015482720918953419,-0.14776882529258728,-0.03243660554289818,0.05458669364452362,0.1644199639558792,0.12507735192775726,-0.022887084633111954,-0.13603509962558746,-0.10412653535604477,-0.051379915326833725,0.00904522929340601,-0.016359342262148857,-0.08298422396183014,-0.048194918781518936,-0.01238312292844057,-0.0029481223318725824,0.25439128279685974,0.15623146295547485,0.08924117684364319,0.2869424819946289,0.24446257948875427,-0.06763528287410736,0.06485264748334885,0.038257647305727005,-0.020122725516557693,-0.048734813928604126,0.07175048440694809,0.022291716188192368,-0.003615611931309104,-0.23374517261981964,-0.06390406936407089,0.09629824757575989,-0.019595496356487274,0.09554962813854218,-0.06596024334430695,0.08324562013149261,0.006560319568961859,-0.1632554978132248,0.047484125941991806,0.1150679811835289,0.03316695988178253,0.02847197651863098,0.069573312997818,0.1771560162305832,0.07268624007701874,0.023118672892451286,-0.17814664542675018,0.0037462019827216864,0.011977298185229301,0.08550805598497391,-0.0316118523478508,0.0031893530394881964,0.13615429401397705,0.05911736935377121,-0.028743378818035126,-0.11439348012208939,-0.014222545549273491,-0.03980569541454315,-0.02167459763586521,0.014179373160004616,0.04953009635210037,0.11560803651809692,0.013766482472419739,-0.06103094294667244,0.09003288298845291,0.03164013847708702,-0.054965972900390625,0.11977295577526093,0.04230285435914993,0.10414684563875198,0.06663280725479126,-0.06177286058664322,-0.022052815183997154,0.0016970878932625055,-0.08409444242715836,0.021822461858391762,-0.20467044413089752,-0.26934170722961426,-0.15202021598815918,-0.255764365196228,-0.2800931930541992,-0.16361354291439056,-0.1788109838962555,-0.15592703223228455,-0.0831417441368103,0.06919081509113312,0.1508701890707016,0.09157948195934296,0.08742125332355499,0.2573712468147278,0.14282311499118805,0.033406175673007965,0.18408679962158203,0.13697674870491028,-0.05524441972374916,-0.17363859713077545,-0.15700383484363556,-0.09352156519889832,-0.27457189559936523,-0.19364793598651886,-0.07033171504735947,-0.11206774413585663,-0.0639040544629097,0.09719616919755936,0.14303189516067505,0.05776411294937134,0.07451234757900238,0.23186179995536804,0.21005426347255707,0.046645522117614746,0.17010322213172913,0.11048007756471634,0.1326412409543991,0.21194036304950714,0.08601365983486176,0.11861850321292877,0.3426610231399536,0.20660746097564697,0.1063891351222992,0.2507745027542114,0.15790283679962158,0.0032518941443413496,-0.06770449876785278,0.08371315151453018,-0.104539655148983,-0.016613975167274475,0.005182493943721056,-0.2271517962217331,-0.01370382308959961,-0.043434567749500275,0.04711618646979332,0.15069419145584106,0.09174038469791412,0.043062180280685425,0.15939415991306305,0.06820512562990189,0.1193978488445282,0.10002648085355759,-0.0006276600761339068,-0.13673536479473114,-0.21738462150096893,-0.12200319766998291,-0.188603013753891,-0.2522341012954712,-0.17932982742786407,-0.14867082238197327,-0.1480029970407486,-0.09662771224975586,0.02501668594777584,0.10618828237056732,0.10677436739206314,0.11313687264919281,0.07328925281763077,0.02240993082523346,0.07664384692907333,-0.007660573814064264,-0.05205926299095154,0.004397461656481028,0.10704321414232254,0.14772097766399384,0.05020783096551895,0.06471964716911316,0.1213683933019638,-0.048983048647642136,0.033033326268196106,0.034177638590335846,0.03814347833395004,0.12208722531795502,0.13427984714508057,0.06545588374137878,0.20988249778747559,0.19130432605743408,0.023106468841433525,0.12252714484930038,0.12905006110668182,-0.17096799612045288,-0.2785145938396454,-0.2422061413526535,-0.29621440172195435,-0.5267589688301086,-0.39375925064086914,-0.17384673655033112,-0.32885149121284485,-0.17451728880405426,0.03657951578497887,0.01244114339351654,0.04535790532827377,-0.0387464314699173,-0.040593989193439484,0.026909498497843742,-0.046282969415187836,-0.05210818722844124,0.0094162467867136,-0.10379891097545624,-0.20185670256614685,-0.08474662154912949,-0.14541059732437134,-0.2226761281490326,-0.1645226925611496,-0.06570107489824295,-0.10330864042043686,-0.11222313344478607,-0.01020911056548357,0.11152050644159317,0.08785288780927658,0.03742776811122894,0.26106321811676025,0.1371501386165619,-0.019164837896823883,0.07732756435871124,0.07425814867019653,-0.034503791481256485,-0.03729745373129845,0.007447578478604555,0.03362146392464638,0.05084000900387764,-0.01749807596206665,0.059572890400886536,0.0876675546169281,-0.049338292330503464,-0.08345390111207962,-0.19377413392066956,-0.14287588000297546,0.08219794183969498,-0.11330465972423553,-0.10275368392467499,0.039348650723695755,-0.08726359903812408,-0.1440136432647705,-0.0690588429570198,-0.2392071932554245,-0.2701146602630615,-0.10183486342430115,-0.1083911806344986,0.0381581075489521,-0.059701260179281235,-0.11432967334985733,-0.004845758434385061,0.03442695364356041,-0.09279623627662659,-0.2242402881383896,0.12347641587257385,-0.1497407853603363,-0.15547633171081543,0.14577746391296387,-0.058180779218673706,-0.15083059668540955,-0.1215725839138031,-0.1954505741596222,-0.031897395849227905,-0.10084185749292374,-0.026316823437809944,0.07873164117336273,-0.15882986783981323,-0.16791121661663055,0.0349133238196373,-0.04499764367938042,-0.07340937852859497,-0.00043301176629029214,-0.096485935151577,-0.016423560678958893,0.06824017316102982,-0.025284945964813232,-0.09438075870275497,-0.03047841787338257,-0.14214180409908295,-0.18119138479232788,-0.13499724864959717,0.03777749091386795,0.09528084844350815,0.12264605611562729,0.0418824702501297,-0.010514434427022934,-0.058475811034440994,-0.021021967753767967,0.05788291245698929,0.13470205664634705,-0.010641854256391525,0.11972175538539886,0.10818136483430862,-0.006188840605318546,0.011552942916750908,0.04586594179272652,-0.001399714034050703,-0.08705025166273117,-0.11580296605825424,0.15093697607517242,-0.03664270043373108,-0.1758822798728943,0.1340567022562027,0.04421209171414375,-0.13126474618911743,-0.1387423723936081,-0.08507654070854187,-0.01839582249522209,-0.022937403991818428,0.13242359459400177,0.07477452605962753,-0.02335704304277897,-0.03947575017809868,-0.011172279715538025,-0.028751298785209656,0.06172903999686241,0.03783112391829491,0.10224948078393936,0.18106424808502197,0.15343157947063446,0.05986517295241356,0.06413764506578445,0.05698149651288986,-0.2012268453836441,-0.270378053188324,-0.06736183166503906,-0.1873757243156433,-0.2583930492401123,-0.05764400213956833,-0.0904025062918663,-0.051282450556755066,0.01779787428677082,0.012561365030705929,0.0155947832390666,0.042644012719392776,0.16235359013080597,0.05823750048875809,-0.12177955359220505,0.14974544942378998,0.007852611131966114,-0.07933349162340164,0.04680201783776283,0.01448445487767458,0.08722557872533798,-0.06207355856895447,-0.05770029500126839,-0.019782155752182007,-0.020475197583436966,-0.06510268151760101,-0.007409978657960892,-0.09405485540628433,0.02940998412668705,0.09487227350473404,0.16925542056560516,0.13567553460597992,-0.005755697377026081,0.12674197554588318,0.13352225720882416,-0.033360935747623444,0.055505964905023575,0.025822466239333153,-0.00421772850677371,0.05549022555351257,0.0759061649441719,-0.01599244773387909,0.026062006130814552,0.056169427931308746,0.0156494602560997,0.0730200856924057,0.0759369507431984,0.10729271173477173,0.04407411068677902,0.09537246823310852,0.10309028625488281,0.028035029768943787,0.1125204935669899,0.1450149267911911,0.030316079035401344,0.021841049194335938,0.013309985399246216,0.003023973200470209,0.03063693828880787,0.015916092321276665,0.015440353192389011,0.05493750795722008,0.038411568850278854,0.020867660641670227,0.07234539091587067,0.035809554159641266,0.035245440900325775,0.05168967694044113,0.058726463466882706,0.10012930631637573,0.08417452871799469,0.052214596420526505,0.12761878967285156,0.08260606974363327,0.02715267799794674,0.08364638686180115,0.0667840838432312,-0.0010436701122671366,0.02590767666697502,0.08181446045637131,0.01911207288503647,0.043545693159103394,0.026901384815573692,0.017639562487602234,0.07461369782686234,0.027516920119524002,0.01311455387622118,0.06316158920526505,0.0646800622344017,-0.008942405693233013,0.03762686625123024,0.023390550166368484,-0.036571066826581955,0.004877356346696615,0.052076905965805054,0.047940198332071304,0.01729799434542656,0.0950290784239769,0.043384112417697906,0.03234260529279709,-0.017886588349938393,0.03620908036828041,0.007364256773144007,0.034423451870679855,0.010302193462848663,0.0697638988494873,0.02351796068251133,0.07768082618713379,-0.01263390202075243,-0.009466017596423626,-0.017929965630173683,0.017009511590003967,-0.02282453328371048,-0.0560307577252388,-0.022419258952140808,-0.09842320531606674,-0.10700611025094986,0.05922624096274376,0.036820828914642334,0.02484625205397606,0.07247656583786011,0.09003869444131851,0.07442080974578857,0.05759068578481674,0.09395147860050201,0.07551119476556778,0.059276971966028214,0.12344850599765778,0.05772402510046959,0.07735025137662888,0.09940215945243835,0.049266230314970016,0.028843145817518234,0.019963549450039864,0.0201382078230381,-0.052183981984853745,-0.06903794407844543,-0.02609366737306118,-0.007603983860462904,-0.03282054141163826,-0.023289646953344345,0.04334493726491928,0.03307301923632622,-0.04064714536070824,0.0576479509472847,0.03485877066850662,0.042077455669641495,0.009711145423352718,0.028429826721549034,-0.012649217620491982,0.0013177602086216211,0.027774807065725327,0.027344033122062683,0.015680184587836266,0.017396369948983192,0.0351727269589901,0.020326761528849602,0.046361662447452545,-0.008019587025046349,-0.02265811339020729,0.009306434541940689,0.010745224542915821,-0.0672684907913208,-0.026125481352210045,0.0394100621342659,-0.07514912635087967,-0.06339387595653534,-0.02418946661055088,-0.1038728803396225,-0.04453931376338005,-0.025237111374735832,0.002158930990844965,0.013868522830307484,0.01593073271214962,0.0477098785340786,0.056322094053030014,0.04567636176943779,0.0658564493060112,0.09659284353256226,0.03725676238536835,0.011505275033414364,0.045024387538433075,-0.00922681950032711,-0.047663457691669464,-0.18384666740894318,-0.10933370888233185,-0.06209373101592064,-0.05497172847390175,0.010056515224277973,0.031308576464653015,0.02772672288119793,0.029504884034395218,0.05822383984923363,-0.0023676943965256214,0.03349294140934944,-0.04047127440571785,-0.016281308606266975,-0.05090078338980675,-0.035672374069690704,0.07538944482803345,0.06549310684204102,0.033865608274936676,0.02732846699655056,-0.18072742223739624,-0.003970182500779629,0.009116790257394314,0.04159203916788101,-0.03610319271683693,-0.010311152786016464,-0.026810260489583015,0.040190160274505615,-0.06733524054288864,-0.10502658039331436,-0.03874349594116211,-0.1107402890920639,0.027209391817450523,0.06531915068626404,-0.017166446894407272,-0.0976485013961792,-0.03756614029407501,0.00904492661356926,-0.08361795544624329,-0.0014701267937198281,0.1104474887251854,0.05615556240081787,-0.0010378494625911117,-0.10249990224838257,-0.05862044915556908,-0.13620270788669586,-0.0959567278623581,-0.06501356512308121,-0.05674130842089653,0.09088263660669327,0.04946327209472656,0.017784925177693367,0.03523588553071022,0.02323020249605179,0.04311985522508621,0.008090670220553875,-0.062138110399246216,0.005853460635989904,-0.06495533883571625,0.032078538089990616,0.03481575474143028,0.04715347662568092,0.032028328627347946,0.055529993027448654,0.01213830802589655,-0.03454584255814552,0.038811832666397095,-0.05001765862107277,0.0269895289093256,0.03044796548783779,-0.007454053498804569,-0.06504495441913605,-0.028723936527967453,-0.05278370529413223,0.055224984884262085,0.031903527677059174,0.011286599561572075,0.0530056394636631,0.03944903612136841,-0.0022052479907870293,-0.07450670003890991,-0.05848349258303642,0.07911350578069687,-0.07672057300806046,-0.03220609575510025,0.012730265036225319,-0.016263697296380997,-0.04300703853368759,-0.14308497309684753,-0.05267183855175972,-0.00865408405661583,-0.021805129945278168,0.03921273723244667,-0.01554823201149702,-0.06590992957353592,-0.004676896147429943,0.053156446665525436,0.07703530043363571,0.07741864025592804,0.07666552066802979,0.04588760808110237,-0.02385816164314747,-0.07127755880355835,-0.1636069416999817,-0.04442399740219116,-0.017234912142157555,0.047586191445589066,-0.02514071948826313,-0.0033741735387593508,-0.0667135939002037,-0.024349702522158623,-0.003438737243413925,0.02212551049888134,0.007918327115476131,0.045633699744939804,0.1036224439740181,-0.09697336703538895,0.01492308173328638,-0.2984151542186737,0.014476701617240906,-0.04914620891213417,-0.02281484380364418,0.07688676565885544,0.039965927600860596,0.004652475006878376,0.00501635717228055,0.03535597026348114,-0.12240537256002426,-0.03391651809215546,-0.10955138504505157,0.1038312166929245,0.0822337344288826,0.05065760761499405,0.02909342385828495,-0.055254433304071426,0.05817669257521629,0.06883536279201508,-0.1348416805267334,-0.07393379509449005,-0.2062051147222519,0.14131775498390198,0.0013152961619198322,0.025824083015322685,-0.00556807080283761,0.006389218382537365,0.1207330971956253,0.10719102621078491,0.03801567852497101,0.2360948622226715,0.16749830543994904,-0.000782230868935585,-0.03810398653149605,-0.07096587121486664,-0.009747223928570747,-0.014441701583564281,-0.06288508325815201,-0.03943735361099243,0.039505716413259506,-0.005543013568967581,0.04375295341014862,-0.04596354067325592,-0.05166885256767273,-0.08176643401384354,-0.10062333196401596,-0.0544334352016449,-0.026341058313846588,0.06133154034614563,0.058134760707616806,0.00893437396734953,-0.03324887156486511,-0.04734676703810692,-0.09784340113401413,-0.0577269084751606,0.06975893676280975,0.02956901490688324,0.11068514734506607,0.052424825727939606,-0.05146629735827446,-0.03076990693807602,-0.0159382876008749,-0.019668836146593094,-0.010426798835396767,0.006987681612372398,0.07086779922246933,-0.02140985243022442,-0.092967689037323,-0.10568507015705109,-0.04104473441839218,0.0005747507093474269,0.025413429364562035,0.1117393895983696,0.008768734522163868,0.0042810565792024136,-0.07764861732721329,-0.08269040286540985,-0.01896671950817108,0.045763954520225525,0.07546594738960266,0.0012304773554205894,0.08706668019294739,0.04858012869954109,-0.07029689103364944,0.12534977495670319,0.0772932916879654,-0.015506841242313385,-0.10030905157327652,-0.16274289786815643,-0.04918574541807175,0.0004782690084539354,0.08622004836797714,-0.12224376201629639,-0.10076376795768738,-0.08658691495656967,-0.007434050086885691,-0.022550225257873535,0.10579048097133636,0.11284429579973221,0.22675836086273193,0.2352195382118225,-0.07913713157176971,-0.1003267914056778,-0.12627431750297546,0.004272428806871176,0.013684230856597424,-0.018081236630678177,0.035360537469387054,0.032132528722286224,0.06993676722049713,0.01884934864938259,0.05888952687382698,0.028321484103798866,0.026494929566979408,0.0097773727029562,0.02170056290924549,0.013657827861607075,0.18236398696899414,0.10826954990625381,-0.06076456606388092,-0.1822381615638733,-0.10256146639585495,0.056200966238975525,0.04650615528225899,0.00828859955072403,-0.013327836990356445,-0.12652486562728882,-0.03190860152244568,0.032199349254369736,0.11932512372732162,0.12911175191402435,0.009077432565391064,-0.04040966555476189,-0.07246937602758408,-0.0891963392496109,-0.023495329543948174,-0.008306354284286499,-0.003776291850954294,0.06025677174329758,0.011752059683203697,0.03890741616487503,-0.04424154385924339,-0.033433496952056885,0.04357873648405075,0.0013808876974508166,0.037696342915296555,0.015986576676368713,0.09097546339035034,0.003432868979871273,-0.048909470438957214,-0.0032571537885814905,0.015475116670131683,-0.08589060604572296,0.010678843595087528,0.03580242767930031,0.1954963505268097,0.1932811141014099,0.04514233022928238,0.015644259750843048,0.07779968529939651,0.02127983048558235,0.02618168294429779,0.0035101145040243864,0.03692248836159706,0.10406512022018433,0.13111712038516998,0.037526506930589676,0.02548752911388874,-0.1127656102180481,-0.024225987493991852,-0.03535551577806473,-0.15408813953399658,-0.04950622841715813,-0.04762880504131317,-0.08090277016162872,-0.028733015060424805,0.032210566103458405,-0.02944514900445938,0.03776862844824791,-0.03981315344572067,-0.0964338406920433,0.08403103053569794,-0.06092214956879616,-0.13552404940128326,-0.015639740973711014,-0.04733315482735634,-0.03625985234975815,0.016736073419451714,-0.057128261774778366,-0.065824493765831,0.025928117334842682,-0.0735953077673912,-0.07492505759000778,0.03137514740228653,-0.004292305093258619,0.05601886287331581,0.08560758084058762,-0.030805667862296104,0.12184391170740128,0.1499570608139038,-0.07579540461301804,0.09572701901197433,0.1252506524324417,0.08793758600950241,0.09281550347805023,0.12255608290433884,0.06423933058977127,0.03403735160827637,0.028520777821540833,0.038608044385910034,0.028332989662885666,0.03036109171807766,0.028951209038496017,0.0982770323753357,0.07530654966831207,0.034755170345306396,0.1650722771883011,0.09740744531154633,0.05019112676382065,0.09272699058055878,0.045439641922712326,-0.043902888894081116,-0.007310648448765278,0.016593167558312416,-0.09652246534824371,-0.04648303613066673,-0.0021383557468652725,-0.037444353103637695,-0.030949829146265984,0.016131119802594185,0.06355425715446472,0.050045281648635864,-0.034826457500457764,-0.005614685360342264,-0.0175703726708889,-0.036785196512937546,-0.0789576843380928,-0.10388628393411636,-0.08970250189304352,-0.012352212332189083,-0.05024886131286621,0.01584981568157673,-0.03390469402074814,-0.05363792926073074,0.04203285276889801,-0.014103478752076626,-0.042659662663936615,0.0810379683971405,-0.022190067917108536,0.0840032771229744,0.06194660812616348,-0.005567802581936121,0.02790706977248192,0.06861100345849991,-0.06418902426958084,0.012040662579238415,0.03056448884308338,-0.02009100280702114,-0.1267503798007965,-0.03703955560922623,-0.023764800280332565,-0.05434901639819145,0.018634017556905746,-0.03992128744721413,0.00145586091093719,0.026136839762330055,-0.07202041149139404,-0.1570730358362198,-0.015059533528983593,-0.11174462735652924,-0.23810066282749176,-0.01366592850536108,-0.10930163413286209,-0.13436420261859894,-0.002581979613751173,0.03268394619226456,0.09365536272525787,0.04024660959839821,0.0423906035721302,0.08993997424840927,0.07311807572841644,-0.03259795531630516,0.009345847181975842,0.06888136267662048,-0.07867948710918427,-0.08055495470762253,-0.0030316472984850407,-0.06344524770975113,-0.037695493549108505,0.02398919314146042,-0.05338574945926666,0.006912578362971544,0.04517965763807297,-0.04513316601514816,0.061674755066633224,-0.014336081221699715,0.03520606830716133,0.17968077957630157,0.05978579819202423,0.04914509877562523,0.1273193210363388,0.06282951682806015,-0.08265603333711624,-0.10708414763212204,-0.0029431325383484364,-0.16287153959274292,-0.09236288070678711,-0.00560093903914094,-0.14160549640655518,-0.0715828388929367,0.02667279914021492 };
float conv_2_bias[CONV_2_OUT_CHANNELS] = { 0.9943885803222656,0.28801101446151733,0.30705222487449646,-0.13282319903373718,0.7904553413391113,-0.13565200567245483,0.2492002546787262,0.051052361726760864,0.519650936126709,1.4113906621932983,0.3671463131904602,-1.0143585205078125,-0.04399073123931885,1.0366243124008179,0.6485456824302673,0.36596187949180603,-0.11957960575819016,-0.3083772361278534,0.2646743059158325,0.23434394598007202,-0.9284107685089111,0.18837793171405792,-0.4590245187282562,0.2950008511543274 };

#define CONV_3_IN_CHANNELS 24
#define CONV_3_OUT_CHANNELS 32
float conv_3_weight[CONV_3_OUT_CHANNELS][CONV_3_IN_CHANNELS][KERNEL_H][KERNEL_W] = { -0.012802965007722378,-0.07369570434093475,0.06467030942440033,0.011390875093638897,0.06026475876569748,-0.005311150103807449,-0.0657680481672287,0.09365573525428772,0.05967719480395317,-0.22279444336891174,-0.33720824122428894,0.004336387384682894,-0.18136800825595856,-0.3100123405456543,-0.07959907501935959,0.05773536115884781,-0.06714589148759842,0.010737381875514984,-0.01629987172782421,0.008087129332125187,0.04936075955629349,-0.09255611896514893,-0.1641053557395935,0.07739005982875824,-0.09095598757266998,-0.12296052277088165,0.07455155998468399,-0.1539880335330963,-0.15571768581867218,0.04028502479195595,-0.23901036381721497,-0.2066323161125183,0.006038647145032883,-0.05688026174902916,-0.022091690450906754,0.005059253424406052,-0.09459534287452698,-0.08890940994024277,-0.05072423070669174,-0.0858856588602066,-0.14363697171211243,-0.17641663551330566,0.14506757259368896,0.07752502709627151,-0.03294912353157997,0.26086798310279846,0.258961945772171,0.022855231538414955,0.14259986579418182,0.18858462572097778,0.15143351256847382,-0.2484091967344284,-0.19920533895492554,-0.012591804377734661,0.22472317516803741,0.30282142758369446,0.19381184875965118,0.04386606812477112,0.11166656017303467,0.21695905923843384,-0.16599588096141815,-0.208734929561615,-0.061312925070524216,-0.031604185700416565,0.037916626781225204,-0.059737686067819595,0.04069158807396889,-0.04430440068244934,-0.03642110154032707,-0.04861035197973251,0.060276154428720474,0.027674522250890732,0.2936893105506897,0.3233475387096405,0.20111124217510223,-0.12503387033939362,-0.13294123113155365,-0.015485846437513828,-0.16106092929840088,-0.12900476157665253,-0.015636373311281204,-0.14439795911312103,-0.22649681568145752,-0.05938244238495827,0.08952950686216354,-0.029398007318377495,-0.010022416710853577,0.027957716956734657,0.1286018192768097,0.07729624956846237,0.10616528987884521,0.16611793637275696,0.11122845858335495,-0.04861913248896599,0.04705790802836418,-0.011257045902311802,-0.09516865015029907,-0.014935730025172234,-0.06892097741365433,0.07787095755338669,0.013399451971054077,-0.146856889128685,-0.19280582666397095,0.18308179080486298,0.10693643987178802,-0.2874792516231537,0.06220693141222,0.09027037769556046,0.004422119818627834,0.047342512756586075,0.05289725586771965,-0.03552081808447838,0.05668848752975464,-0.11008477210998535,-0.1180858314037323,-0.0251565370708704,-0.10182703286409378,0.0021382353734225035,0.08227363228797913,0.13120320439338684,-0.06495009362697601,0.15560291707515717,0.1768261343240738,-0.02777007594704628,-0.08674848079681396,-0.038545213639736176,0.0050095971673727036,-0.0495399534702301,-0.03882407024502754,-0.024498621001839638,0.07857514917850494,0.008461462333798409,-0.09142551571130753,0.006838445086032152,-0.05368800088763237,-0.18653054535388947,-0.18597236275672913,-0.06135307252407074,-0.1186547502875328,-0.19894708693027496,0.1134263128042221,6.050471347407438e-05,-0.0974765345454216,0.13566313683986664,-0.06675409525632858,-0.05923233553767204,-0.055775415152311325,0.003200007602572441,-0.09752310812473297,-0.11090245097875595,0.03465649485588074,-0.07629019021987915,-0.061558935791254044,0.035489585250616074,0.18214592337608337,0.10339261591434479,0.013245819136500359,0.14611971378326416,0.06184089556336403,-0.17922601103782654,-0.2735522389411926,-0.16023747622966766,0.10480300337076187,0.1677924245595932,0.0033144610933959484,-0.07051443308591843,0.1299295425415039,0.11035410314798355,-0.1844804286956787,-0.07580583542585373,0.08824208378791809,-0.04727574437856674,0.02290515974164009,0.06177344173192978,0.031111154705286026,-0.09498650580644608,-0.14460475742816925,0.03475327044725418,-0.1288817822933197,-0.20437312126159668,0.01233858335763216,0.06110100820660591,0.011985095217823982,-0.005716557614505291,0.020460421219468117,0.042969975620508194,0.04018159955739975,0.08614806830883026,-0.09203357994556427,-0.06121259182691574,0.01634298264980316,0.02544424496591091,0.056564513593912125,0.017271636053919792,-0.015748167410492897,-0.029545141384005547,-0.1536789983510971,-0.11795781552791595,0.1687515825033188,0.2702142298221588,0.13305847346782684,-0.26131635904312134,-0.06238139420747757,-0.028607439249753952,-0.12455262988805771,-0.14116385579109192,-0.08145705610513687,-0.03176713362336159,-0.019442953169345856,-0.05892869457602501,-0.0028441280592232943,0.0779009759426117,0.06610160320997238,0.038677386939525604,0.1319451928138733,0.015550835058093071,-0.17661961913108826,-0.2415720373392105,0.045794807374477386,-0.015958460047841072,-0.0478958822786808,0.04227060079574585,0.02994578145444393,-0.20713837444782257,-0.034222085028886795,0.02778502181172371,-0.22154895961284637,-0.0880976989865303,-0.08372997492551804,-0.26904237270355225,-0.05242091789841652,-0.07464442402124405,-0.17563316226005554,0.07924816757440567,-0.20616017282009125,-0.05743195116519928,0.1308346539735794,-0.19136673212051392,-0.10747978091239929,-0.1044672280550003,-0.20583494007587433,-0.1739664375782013,-0.12484138458967209,0.10203894972801208,0.05716441571712494,-0.04442586004734039,0.019872289150953293,-0.09919747710227966,-0.18662172555923462,-0.020812315866351128,-0.14323118329048157,-0.29856330156326294,0.08928240835666656,-0.09394273906946182,-0.019351180642843246,-0.04029209911823273,-0.30757418274879456,-0.5481635332107544,0.0665745958685875,-0.32999858260154724,-0.34346482157707214,0.01640477403998375,0.0005777869373559952,0.04386144503951073,0.010956485755741596,0.2243478149175644,0.11900018155574799,-0.019284486770629883,0.19696234166622162,0.11421240866184235,-0.07556422054767609,0.047747910022735596,0.12124855071306229,-0.04271196201443672,0.11454731971025467,0.11951573938131332,0.080506332218647,0.19860431551933289,0.1864883303642273,-0.010150226764380932,0.022289706394076347,-0.0032966826111078262,0.08225753158330917,0.13097774982452393,0.027264254167675972,-0.00037406320916488767,0.100558340549469,0.06647002696990967,0.25434720516204834,0.0521891713142395,-0.057720743119716644,0.045235369354486465,-0.12232952564954758,-0.13503071665763855,-0.06851372867822647,-0.26479393243789673,-0.3148730397224426,-0.008525613695383072,-0.1379251331090927,-0.13240399956703186,0.20436140894889832,0.09126763045787811,0.02388039603829384,0.08545973151922226,-0.1507900208234787,-0.018038662150502205,0.16502921283245087,-0.12970097362995148,-0.24673748016357422,0.17611348628997803,-0.12937034666538239,-0.1834782361984253,0.1691892147064209,-0.05050410330295563,-0.09343012422323227,-0.1417963206768036,-0.02588534913957119,-0.09323492646217346,-0.09747012704610825,-0.0902709886431694,-0.18925052881240845,0.004791376646608114,-0.03208634629845619,-0.1494847536087036,0.1523161679506302,0.10328719764947891,0.03593280166387558,-0.03853747621178627,-0.19743849337100983,-0.16532385349273682,0.006563558243215084,-0.19146135449409485,-0.12178491055965424,-0.027058053761720657,-0.17043234407901764,-0.14016473293304443,-0.1176745668053627,-0.07688245922327042,-0.03227890282869339,0.052748903632164,0.05834706500172615,-0.039322629570961,-0.06849709153175354,-0.07171527296304703,-0.0018288216087967157,-0.00473378598690033,-0.22880446910858154,-0.2150660753250122,0.12589135766029358,0.018771037459373474,-0.07928164303302765,-0.011699208989739418,-0.031730201095342636,-0.07518062740564346,-0.010480609722435474,-0.1255950927734375,0.0360323041677475,0.01712377928197384,-0.0015377822564914823,0.13058435916900635,0.07287207990884781,0.11070698499679565,-0.12756963074207306,-0.029076725244522095,-0.10538804531097412,-0.18293286859989166,-0.041060954332351685,-0.22294579446315765,0.004213093314319849,-0.09420252591371536,-0.05264081060886383,0.00532920565456152,-0.2496260106563568,-0.11940252035856247,0.13405965268611908,-0.17816320061683655,-0.04572746902704239,0.1328895390033722,-0.06228940561413765,-0.03525356575846672,0.24867218732833862,-0.17351414263248444,-0.1547381430864334,0.07515093684196472,-0.06475681066513062,-0.02321961335837841,-0.15844003856182098,0.029127055779099464,0.08862023800611496,-0.009382706135511398,-0.027529915794730186,0.07407251000404358,-0.07552699744701385,0.09694696962833405,-0.2485540360212326,-0.2075304388999939,-0.06524109840393066,0.1462230533361435,0.13377435505390167,-0.032605648040771484,0.10902906954288483,0.05985604599118233,-0.10384807735681534,0.011282745748758316,0.045464638620615005,0.1545325219631195,0.1432413011789322,-0.10302230715751648,0.07470034807920456,0.1789693385362625,0.09233325719833374,-0.048433057963848114,-0.018599269911646843,0.16485171020030975,-0.14950662851333618,0.014499255456030369,0.1293681561946869,-0.18288476765155792,0.13937553763389587,-0.00235576881095767,-0.04230928048491478,0.16191738843917847,0.1327698975801468,0.02783897891640663,-0.11787910014390945,-0.0460057258605957,0.04181910678744316,-0.201180100440979,-0.10436492413282394,0.19135574996471405,-0.00857729371637106,-0.16787119209766388,0.30657094717025757,0.131117582321167,-0.05500524118542671,0.1314711719751358,0.12067506462335587,-0.0577366016805172,0.15448041260242462,0.14065025746822357,0.03818534314632416,0.18719637393951416,0.08652804046869278,-0.0607193298637867,0.2228693962097168,0.23000505566596985,0.023547016084194183,0.07817243784666061,0.0492815226316452,-0.019108053296804428,-0.1898169070482254,-0.17788192629814148,0.01162648480385542,-0.005032065324485302,-0.05398650839924812,0.052343618124723434,0.018026335164904594,-0.06184236332774162,-0.08217322081327438,-0.07806544005870819,0.02504819445312023,-0.022039838135242462,0.1146717295050621,0.18224982917308807,0.12770035862922668,-0.08534732460975647,-0.03898682817816734,-0.0449114590883255,0.15713153779506683,0.29701244831085205,0.09268325567245483,0.3188855051994324,0.3386954665184021,0.14830775558948517,0.2842133343219757,0.20358127355575562,0.017086844891309738,-0.3121024966239929,-0.2733181416988373,0.015235122293233871,-0.2169124186038971,-0.13249583542346954,-0.0017289281822741032,0.029718080535531044,0.05424235388636589,0.04163258522748947,-0.06141280010342598,-0.17779159545898438,-0.0745033398270607,-0.23008720576763153,-0.17954038083553314,-0.08631918579339981,-0.03646544739603996,0.022002868354320526,0.014636285603046417,-0.018701795488595963,-0.10011546313762665,-0.01585374027490616,0.07671746611595154,0.11643345654010773,0.07341565936803818,0.14448145031929016,0.21096698939800262,0.09503917396068573,-0.22705096006393433,0.0021252960432320833,0.03485897183418274,-0.004508235491812229,0.0029834373854100704,-0.08364126086235046,0.0286452304571867,0.028515104204416275,-0.026212546974420547,0.019665580242872238,-0.13442978262901306,-0.11964879930019379,-0.14674951136112213,-0.3117010295391083,-0.17580321431159973,-0.023485586047172546,-0.06782619655132294,-0.08480677008628845,0.2047535479068756,0.20864640176296234,0.12700986862182617,0.03534338250756264,0.2226560115814209,0.0684291198849678,0.045761097222566605,0.03406210616230965,0.060711223632097244,-0.1691817194223404,-0.18072772026062012,-0.04769061133265495,-0.34188833832740784,-0.3930741250514984,-0.1921597719192505,-0.10183124244213104,-0.14436541497707367,-0.11071759462356567,0.13075368106365204,0.12561237812042236,0.05389392748475075,0.16616329550743103,0.2117363065481186,0.08236394077539444,-0.01857246644794941,0.02520674839615822,-0.05559789761900902,-0.011766744777560234,0.00817287527024746,0.07010739296674728,-0.05591198801994324,-0.28005942702293396,-0.18500196933746338,-0.021946903318166733,-0.1268567144870758,-0.1440514475107193,0.2853180170059204,0.21523556113243103,0.045211583375930786,0.20518054068088531,-0.018934722989797592,-0.23203012347221375,0.04005036875605583,-0.19198955595493317,-0.22454947233200073,0.23129206895828247,0.04448762908577919,-0.029134409502148628,0.2093273550271988,-0.004605934489518404,-0.029945120215415955,0.017400305718183517,-0.04366841912269592,-0.03180619701743126,0.0795183926820755,0.0847664624452591,0.07227426767349243,0.05358317121863365,0.1973886638879776,0.11982298642396927,-0.01280763279646635,0.0962824746966362,0.030696021392941475,-0.04847092181444168,-0.1069067195057869,-0.05552852526307106,-0.09794282168149948,-0.27714410424232483,-0.09389295428991318,-0.010910297743976116,-0.09351516515016556,-0.01432515773922205,-0.03828515112400055,0.017556484788656235,0.02092897519469261,-0.10743992775678635,-0.048124197870492935,0.05361757054924965,-0.012516888789832592,-0.2103341817855835,-0.06848365813493729,0.13209415972232819,0.20121636986732483,0.191376730799675,0.11007288843393326,0.18728651106357574,0.11786798387765884,0.01468826923519373,0.05570496246218681,0.09103265404701233,-0.09809965640306473,-0.11861930042505264,-0.004094970412552357,0.04180891066789627,0.18025067448616028,0.09914133697748184,0.07019969075918198,0.17771364748477936,0.12537336349487305,-0.0594460666179657,-0.13960318267345428,-0.09097584336996078,0.11351640522480011,0.10746699571609497,0.0686604306101799,0.07108239829540253,0.1028405949473381,0.09504494071006775,-0.3389824628829956,-0.280314564704895,-0.060398511588573456,-0.2930208146572113,-0.03531579300761223,0.03587504103779793,-0.07572953402996063,-0.03606032952666283,0.052429910749197006,0.012691755779087543,-0.06350885331630707,-0.06193318963050842,-0.10544414818286896,-0.18702618777751923,-0.09206655621528625,-0.04404567554593086,-0.0164183359593153,0.021424690261483192,-0.006300163920968771,0.0012797514209523797,-0.18108797073364258,-0.12465430796146393,-0.11707606911659241,-0.1822374165058136,-0.09776794165372849,-0.16818878054618835,-0.2248680591583252,-0.20367224514484406,-0.28990164399147034,-0.1640489101409912,-0.1764928251504898,-0.34740591049194336,-0.1030544713139534,-0.10582515597343445,-0.2745278477668762,-0.09615657478570938,-0.03184065967798233,-0.04750526323914528,-0.04730676859617233,-0.16360437870025635,-0.2798318564891815,0.04043116793036461,-0.11852184683084488,-0.28968462347984314,-0.05153680965304375,-0.10750524699687958,-0.060518089681863785,-0.04250098764896393,-0.09579916298389435,0.20021723210811615,0.1544262170791626,-0.006931832991540432,0.07477202266454697,0.1654965728521347,-0.04079277440905571,-0.05697958171367645,0.015691569074988365,-0.09503370523452759,-0.07712631672620773,0.022107476368546486,-0.12990188598632812,-0.09442126750946045,0.11900407075881958,0.034328561276197433,-0.010898283682763577,-0.02910582162439823,-0.04452770948410034,-0.08122996985912323,-0.02979225106537342,-0.04192246496677399,-0.11205026507377625,-0.09598217159509659,0.1030721366405487,0.01944732293486595,0.0505538210272789,-0.08154955506324768,-0.1432325839996338,-0.09730932861566544,-0.09794893115758896,-0.15736785531044006,-0.24332548677921295,0.06459993124008179,-0.02291044406592846,-0.07944818586111069,-0.04504726082086563,-0.24643656611442566,-0.1423850655555725,-0.09107919782400131,-0.3040582239627838,-0.15755954384803772,0.13881820440292358,0.057855863124132156,0.05898601934313774,-0.07943489402532578,0.037497952580451965,0.019800929352641106,-0.13236995041370392,-0.06091373413801193,-0.0939224436879158,0.04983089491724968,-0.0878022238612175,-0.05766860395669937,0.06635153293609619,-0.15884821116924286,-0.22340969741344452,0.06812520325183868,-0.07750041037797928,-0.19781719148159027,-0.0051458473317325115,0.003658609464764595,0.02174357883632183,0.026746919378638268,0.11784521490335464,0.05721413344144821,0.045889511704444885,0.09027141332626343,-0.006356131751090288,0.029719039797782898,-0.07785257697105408,-0.08539001643657684,0.052454788237810135,-0.1489456743001938,-0.09817348420619965,0.08960796892642975,-0.01181796658784151,-0.11091668158769608,-0.02029646560549736,-0.006301197689026594,0.064943827688694,-0.14129231870174408,-0.13878695666790009,-0.16312378644943237,-0.1080721840262413,-0.15562443435192108,-0.17187383770942688,0.16442060470581055,-0.016004912555217743,-0.14974099397659302,0.0068589504808187485,-0.22827553749084473,-0.284218430519104,-0.021411893889307976,-0.2791564464569092,-0.2664119303226471,-0.11506116390228271,-0.023684585466980934,-0.10137400776147842,-0.07078275829553604,-0.04332687705755234,-0.11247913539409637,0.09800165891647339,0.10963097214698792,-0.04803408309817314,0.005929191131144762,-0.10692325979471207,-0.10767726600170135,0.06584548950195312,-0.07386597245931625,-0.13773976266384125,0.05859319120645523,-0.08632411807775497,-0.021662859246134758,0.08224670588970184,0.11797158420085907,-0.12433735281229019,0.08053694665431976,-0.08923925459384918,-0.19390985369682312,-0.059714820235967636,-0.2288692593574524,-0.05209828168153763,-0.0014743065694347024,0.049560897052288055,-0.06105584278702736,-0.04981245845556259,-0.18735523521900177,-0.13788408041000366,-0.07972853630781174,-0.22146227955818176,-0.13874483108520508,0.023387352004647255,0.034018583595752716,-0.05767394229769707,0.06057178974151611,0.07488101720809937,-0.030390193685889244,-0.005162848625332117,0.17931590974330902,-0.09668625146150589,0.09991652518510818,0.03774671256542206,0.04435613006353378,-0.026669947430491447,-0.023699898272752762,0.0007058224291540682,-0.1834215223789215,-0.07117854058742523,-0.060960110276937485,0.04504118859767914,-0.057755421847105026,-0.05903848633170128,0.0995439887046814,0.09546925127506256,0.10847453027963638,0.09777423739433289,0.11585570126771927,0.04005694016814232,0.021467838436365128,-0.07256767153739929,-0.0326475165784359,-0.21560028195381165,-0.2679440975189209,-0.2088065892457962,-0.19045239686965942,-0.2552785575389862,-0.12143858522176743,-0.01757757179439068,-0.05394088476896286,-0.09525056183338165,-0.12560392916202545,-0.2527754306793213,-0.1288614124059677,-0.1406743973493576,-0.18536648154258728,-0.07076667994260788,-0.0386226624250412,-0.18851129710674286,-0.12670178711414337,-0.05084261670708656,-0.2977920174598694,-0.14328311383724213,-0.005849866662174463,-0.18183083832263947,-0.09014174342155457,0.060231782495975494,-0.1295056790113449,-0.04088999330997467,0.16609567403793335,-0.030263423919677734,-0.030731765553355217,0.13857552409172058,-0.03517245501279831,-0.011700252071022987,-0.09227477759122849,-0.1330360323190689,-0.038386259227991104,-0.054828185588121414,-0.17396804690361023,-0.035144079476594925,-0.04019072279334068,-0.07153889536857605,0.03174592927098274,0.04792376980185509,0.020814385265111923,0.008371157571673393,-0.08611713349819183,0.03657087683677673,0.007772898301482201,-0.06906695663928986,0.018954956904053688,0.015557076781988144,0.04510657489299774,-0.10204681754112244,0.022972557693719864,0.057816650718450546,0.05534549802541733,0.006598161067813635,0.07264484465122223,0.11386041343212128,0.07175667583942413,0.04920505732297897,0.018941977992653847,-0.09499558806419373,0.19449453055858612,0.16003605723381042,-0.04352491348981857,0.11556460708379745,0.16467052698135376,-0.008498172275722027,-0.012373415753245354,0.031108200550079346,0.04925282672047615,-0.3709561228752136,-0.20857997238636017,-0.03523925319314003,-0.1557142585515976,-0.08921626210212708,-0.04550233855843544,-0.10559940338134766,-0.10969408601522446,-0.036035146564245224,-0.2577188313007355,-0.31730517745018005,-0.09608292579650879,-0.04536185413599014,-0.16413015127182007,-0.11948786675930023,0.044295523315668106,-0.07993599772453308,0.09078497439622879,-0.16510634124279022,-0.11765013635158539,0.07371820509433746,-0.23608677089214325,-0.1231677383184433,0.13536471128463745,-0.07608462870121002,-0.03839021548628807,-0.05898530036211014,-0.11232897639274597,-0.14652404189109802,-0.07425917685031891,0.06428005546331406,0.08761236071586609,0.02790321409702301,-0.009993198327720165,-0.01342502050101757,0.1021735817193985,-0.078373983502388,-0.09777069836854935,0.08147872239351273,-0.12278710305690765,-0.1513667106628418,0.06990475207567215,0.03429851680994034,0.031578220427036285,-0.006817370653152466,0.0015855561941862106,-0.03909466415643692,-0.1284390538930893,-0.010510418564081192,-0.030120620504021645,-0.16310907900333405,-0.1462581753730774,-0.03445270657539368,0.11786192655563354,-0.2567516565322876,-0.12080992758274078,0.16516253352165222,-0.15812912583351135,-0.22196830809116364,0.05476577952504158,0.003724197158589959,-0.04861601069569588,-0.036203112453222275,-0.03370070829987526,-0.15323683619499207,-0.007878347299993038,-0.044973645359277725,-0.033014632761478424,0.04979882389307022,-0.1272309124469757,-0.21885095536708832,0.1066315621137619,-0.2119014710187912,-0.4284258782863617,0.1229715570807457,-0.1136559322476387,-0.2760615348815918,0.09820055216550827,-0.11615976691246033,-0.12061502784490585,-0.0055588167160749435,-0.08792150020599365,-0.114905945956707,0.004740096628665924,-0.10719233006238937,-0.15410543978214264,-0.1179082915186882,0.009229850023984909,-0.14352069795131683,0.017157642170786858,0.0031179049983620644,-0.2502000331878662,-0.0926869586110115,-0.024240346625447273,-0.11106222867965698,0.00020093584316782653,0.02494930662214756,-0.027926161885261536,0.0739295706152916,-0.030288638547062874,-0.11286989599466324,0.02832002379000187,-0.09508366882801056,-0.19909581542015076,-0.04210636019706726,-0.06793493777513504,-0.09197137504816055,0.06106773018836975,-0.22954462468624115,-0.4126168191432953,-0.07852021604776382,-0.06464280933141708,-0.2577223479747772,-0.03238048776984215,0.011468581855297089,-0.03419993445277214,0.06810254603624344,-0.04638601467013359,-0.05117911100387573,0.061099641025066376,0.18146328628063202,0.005098201800137758,-0.016148841008543968,-0.06250069290399551,-0.08630409091711044,-0.016749754548072815,-0.05842740461230278,-0.2639216482639313,-0.1443205624818802,0.07276987284421921,-0.004288813099265099,-0.09727064520120621,0.009885990992188454,-0.030529506504535675,0.0051411897875368595,0.030714992433786392,0.08677741885185242,0.01964799501001835,0.012839585542678833,0.1585106998682022,0.08670095354318619,-0.008853091858327389,-0.07604528963565826,-0.0031201348174363375,-0.2000703364610672,-0.25024542212486267,-0.16404685378074646,-0.1494137942790985,-0.04707443341612816,0.008522984571754932,-0.13762488961219788,-0.13967500627040863,0.06517945230007172,-0.386029988527298,-0.3158400058746338,-0.005038165953010321,-0.10219120234251022,-0.07027806341648102,0.02354910969734192,0.01956624537706375,0.06755176931619644,0.029894115403294563,-0.1079043298959732,0.0668834000825882,0.02485685609281063,-0.18905417621135712,0.02351769432425499,0.024769753217697144,-0.011305809020996094,-0.032690051943063736,-0.018418461084365845,0.0563858337700367,-0.012911577709019184,0.05193435773253441,0.08332494646310806,0.14602020382881165,0.03909476473927498,-0.021473221480846405,-0.07938994467258453,0.11865957081317902,-0.14168675243854523,-0.22832125425338745,-0.006566097494214773,-0.12450764328241348,-0.11310264468193054,-0.029770376160740852,-0.013033060356974602,-0.03967656195163727,-0.028349757194519043,-0.07523711025714874,-0.11875578761100769,0.062408216297626495,-0.15638479590415955,-0.11421528458595276,0.1106589213013649,0.00444428576156497,-0.053815100342035294,0.09590259939432144,-0.22859570384025574,-0.15554912388324738,-0.013894060626626015,0.012694990262389183,-0.06470557302236557,-0.12617866694927216,0.05835055187344551,0.06504133343696594,-0.06554856896400452,0.026268959045410156,-0.029624152928590775,-0.12700368463993073,0.06899905949831009,-0.024461422115564346,-0.03672773763537407,-0.05816788971424103,-0.1106700450181961,-0.028445642441511154,0.09637822955846786,0.01993636228144169,-0.07350859045982361,0.023773983120918274,0.06093217059969902,-0.040515679866075516,-0.005180718377232552,0.010155556723475456,-0.08619928359985352,0.07073255628347397,0.18806004524230957,0.09353940188884735,0.09258735924959183,0.13384385406970978,0.12930980324745178,0.005057874601334333,-0.010727111250162125,0.048955436795949936,-0.10371701419353485,-0.13763968646526337,-0.17163151502609253,0.08161696791648865,-0.16206824779510498,-0.14185720682144165,-0.027385404333472252,-0.007673269137740135,0.016891954466700554,-0.09236600995063782,0.08791349083185196,0.19593560695648193,0.03801770135760307,-0.04926459491252899,0.09884325414896011,-0.012268616817891598,0.11819320172071457,0.18492363393306732,-0.11774127185344696,0.026530390605330467,0.1306830197572708,0.11075840890407562,0.15383650362491608,0.18190738558769226,