#define IMAGE_H 31
#define IMAGE_W 31
#define KERNEL_H 3
#define KERNEL_W 3

#define CONV_1_IN_CHANNELS 1
#define CONV_1_OUT_CHANNELS 32
float conv_1_weight[CONV_1_OUT_CHANNELS][CONV_1_IN_CHANNELS][KERNEL_H][KERNEL_W] = { -1.4948194026947021,0.16665281355381012,1.0163804292678833,-0.3506273031234741,-1.501492977142334,2.7119500637054443,0.18773524463176727,-2.932310104370117,2.3561160564422607,2.600574016571045,-0.7869435548782349,-0.42337363958358765,0.5525705814361572,-2.1689035892486572,-2.0667355060577393,2.806366443634033,-0.6513891816139221,0.35860902070999146,2.362780809402466,-2.4990382194519043,0.17977572977542877,5.760756492614746,-3.84899640083313,-1.8754606246948242,1.0263240337371826,-2.8185813426971436,1.7245306968688965,-1.3616000413894653,5.392640113830566,0.01364509854465723,7.308674335479736,-3.1342153549194336,-8.16944408416748,-1.0389856100082397,-8.699051856994629,9.795289039611816,4.726863861083984,-3.4901978969573975,-0.9414100646972656,-0.08008259534835815,-9.311689376831055,5.289722442626953,-2.283759593963623,2.5941994190216064,3.3260316848754883,-4.190226078033447,0.0705510750412941,0.14930012822151184,-0.27657321095466614,0.5514379143714905,-0.041965387761592865,-1.063067078590393,-0.40866896510124207,1.4920527935028076,0.39107394218444824,1.1485627889633179,-1.4530901908874512,-1.5466935634613037,3.310471773147583,3.9698009490966797,-1.6950170993804932,-4.828858375549316,0.45263978838920593,-1.9736583232879639,-1.5572361946105957,-2.129563331604004,0.5504983067512512,1.1406105756759644,0.15828262269496918,1.1163479089736938,0.5216067433357239,1.9706016778945923,0.07247548550367355,0.6390307545661926,0.45765042304992676,-5.1353373527526855,-5.478572368621826,-0.8726547956466675,5.309113025665283,4.8051838874816895,0.47672417759895325,0.48696306347846985,-0.3572438657283783,-1.0477176904678345,-1.1521321535110474,1.8413437604904175,-1.3731704950332642,-0.9821588397026062,3.9762861728668213,0.9936325550079346,7.621814250946045,-14.007489204406738,6.2242841720581055,-5.43862771987915,5.6837639808654785,-0.3483722507953644,-2.3241422176361084,8.252418518066406,-5.965822696685791,0.8463655114173889,-3.3670406341552734,3.220404863357544,1.6935815811157227,-6.4577765464782715,3.4360008239746094,5.387855529785156,-6.670291900634766,2.062415599822998,-4.3857269287109375,1.7536383867263794,2.5756423473358154,-2.8890459537506104,0.33897659182548523,2.641040086746216,7.654353618621826,-2.5160789489746094,-5.185303211212158,-4.1935248374938965,-2.838775873184204,8.541984558105469,10.404586791992188,-12.96631145477295,-2.223749876022339,-2.744633197784424,9.957496643066406,-3.8110666275024414,0.34630560874938965,0.1613384634256363,-2.1554877758026123,0.5714446306228638,-0.15941765904426575,-0.9359255433082581,1.1826568841934204,0.15788041055202484,-0.6883329153060913,2.2321767807006836,1.6825900077819824,0.6576533317565918,1.1844059228897095,-0.029788846150040627,-1.5915278196334839,-0.9966902136802673,-0.4960401654243469,-3.0133087635040283,1.1133335828781128,1.1291779279708862,0.4307135343551636,1.12045156955719,0.0156279094517231,0.43530967831611633,-1.1867289543151855,-1.658144235610962,-0.4102201461791992,-0.5954515933990479,-0.5859569311141968,-1.3783215284347534,0.8586438298225403,-1.4564297199249268,-1.4389324188232422,1.1745144128799438,1.9762842655181885,0.5812903642654419,-2.9790291786193848,-4.202193260192871,-1.8952646255493164,3.210202932357788,8.561849594116211,5.615723133087158,-0.35723161697387695,-4.389786243438721,-3.738525629043579,0.9013951420783997,-0.9281665682792664,-0.7109198570251465,-0.16314619779586792,-2.7193140983581543,-0.4602760374546051,0.7128655314445496,-0.2830502986907959,-0.3641514778137207,-0.02297159656882286,1.1999263763427734,-2.6329257488250732,1.0401755571365356,2.3680903911590576,-3.3665883541107178,2.0752882957458496,1.5526446104049683,-2.3331525325775146,-1.710668683052063,-1.0594946146011353,0.8062024712562561,-2.8981151580810547,1.054528832435608,0.5782095789909363,-0.2106308788061142,1.2055957317352295,2.31478214263916,-3.621516704559326,6.1660051345825195,-2.541433334350586,-4.063313007354736,9.073212623596191,-5.356417179107666,-2.863386869430542,5.695783615112305,-2.811495304107666,6.450955390930176,1.6521286964416504,-6.416816234588623,-3.4079036712646484,-8.361413955688477,8.81585693359375,-2.249697685241699,5.541916847229004,-1.9838579893112183,-0.18958187103271484,-1.182084321975708,-1.0522592067718506,0.18273012340068817,-0.4482896029949188,0.8935093283653259,1.46795654296875,0.1875358670949936,1.3193542957305908,0.8435978293418884,0.34782636165618896,0.3653268814086914,0.0003583977813832462,0.826164722442627,-0.7715579271316528,0.7712010741233826,0.3634563386440277,-1.277146339416504,3.8780221939086914,-9.96451473236084,4.651605129241943,0.5401960015296936,11.19748306274414,-10.418901443481445,-4.867699146270752,0.054196882992982864,4.648502349853516,2.485647201538086,3.4319376945495605,3.6293981075286865,-4.4524455070495605,-3.2948317527770996,-1.990450143814087,0.5815482139587402,-0.12756381928920746,-0.3706497251987457,0.8932041525840759,-3.9417755603790283,-1.3490010499954224,3.9266295433044434,2.183155059814453,-0.5923252105712891,-2.6825568675994873,1.8357027769088745,-0.28023913502693176,-0.3983968496322632,0.06932200491428375,0.8901376724243164,-0.44013434648513794,-0.23119567334651947,0.6769752502441406,0.05033007264137268,0.5883970856666565,0.4709670841693878,0.13127824664115906,0.016350284218788147,0.03753981739282608,-0.6451878547668457,-0.8192775845527649,-0.6660286784172058,-0.8131084442138672,-0.7102157473564148,-0.06014039367437363,-1.9550962448120117,2.526125907897949,-0.7650710344314575,-3.036309242248535,1.3669031858444214,1.870081901550293,-3.1842033863067627,1.8084790706634521,1.287010908126831 };
float conv_1_bias[CONV_1_OUT_CHANNELS] = { 0.09148973226547241,0.35324758291244507,-0.06725965440273285,-0.0419391393661499,0.007069386541843414,0.4807933568954468,-0.010748997330665588,0.09182466566562653,-0.10400000214576721,-1.8470253944396973,0.08680230379104614,-0.11021065711975098,-0.06668031215667725,-0.1589391678571701,0.4104716181755066,0.1402745097875595,-0.4827991724014282,-0.06238219141960144,0.005207771435379982,0.48258066177368164,9.626336395740509e-05,-0.042992740869522095,0.11779575049877167,-0.05684252828359604,-0.4773409068584442,-0.8789722919464111,-0.03858966752886772,0.006254352629184723,-0.05105137825012207,-0.8738536238670349,1.1577224731445312,0.000700145959854126 };

#define CONV_2_IN_CHANNELS 32
#define CONV_2_OUT_CHANNELS 64
float conv_2_weight[CONV_2_OUT_CHANNELS][CONV_2_IN_CHANNELS][KERNEL_H][KERNEL_W] = { 0.03673824295401573,0.02788938209414482,-0.03485088422894478,-0.09991858899593353,-0.056931640952825546,0.001214607385918498,-0.2135976105928421,-0.02070228010416031,0.009849057532846928,-0.06869056820869446,-0.07775858789682388,0.06007637083530426,-0.0020337707828730345,0.04209621995687485,0.051997143775224686,0.10655272752046585,0.07442167401313782,-0.04874034598469734,0.023720761761069298,0.022992225363850594,-0.048524390906095505,-0.0022355210967361927,0.002709479769691825,-0.013247841969132423,0.04300941154360771,-0.05024119094014168,0.022205770015716553,0.09512902051210403,-0.0011696330038830638,-0.040828026831150055,-0.09811359643936157,0.03097359649837017,-0.02678769826889038,0.015439966693520546,0.018150564283132553,0.036676350980997086,0.043520573526620865,0.025737959891557693,-0.03988414257764816,0.15191300213336945,-0.17994771897792816,-0.004000545013695955,-0.1509636640548706,0.06506592035293579,0.025710467249155045,0.0148884616792202,-0.005881600081920624,-0.022220822051167488,0.014267319813370705,-0.08755116909742355,0.08562157303094864,-0.1344633847475052,0.035666368901729584,0.06340146064758301,0.07587708532810211,-0.17310532927513123,0.0767710953950882,-0.1558946669101715,0.00328570487909019,0.10398485511541367,-0.045468345284461975,0.11082533001899719,0.019164806231856346,0.05256227031350136,-0.033111266791820526,0.024432506412267685,0.07340621203184128,-0.07646878808736801,0.02539740316569805,-0.04385153204202652,0.040692660957574844,0.04674947261810303,0.04826553910970688,-0.028256690129637718,0.017444735392928123,-0.058710210025310516,-0.09588129073381424,0.0636439397931099,-0.11729259788990021,0.009421661496162415,0.021230343729257584,-0.07999417185783386,-0.07490340620279312,0.03210648149251938,-0.15333469212055206,-0.0862402394413948,-0.00805515144020319,-0.09811903536319733,-0.04389601945877075,-0.1392008364200592,0.0418030209839344,-0.017678646370768547,-0.053971342742443085,-0.05275999382138252,-0.09492015093564987,-0.036635007709264755,-0.04513055831193924,-0.028791503980755806,0.008925058878958225,0.07469473779201508,-0.14849670231342316,0.0023601700086146593,-0.10387302190065384,-0.13961608707904816,0.036316871643066406,-0.21341800689697266,0.006502810399979353,0.005700356792658567,-0.02004900574684143,0.07098701596260071,-0.01528498437255621,0.011218825355172157,0.02297918312251568,-0.015360182151198387,0.0624791756272316,0.008290407247841358,0.024542396888136864,-0.020747480913996696,-0.06778696924448013,0.021541958674788475,-0.10394428670406342,-0.07309398055076599,0.04900643974542618,-0.08126238733530045,0.0041866665706038475,0.0017652494134381413,-0.009026420302689075,-0.032155685126781464,0.005327766295522451,-0.06644342839717865,-0.030797993764281273,0.011554567143321037,-0.012516295537352562,-0.015649743378162384,-0.052692435681819916,-0.07550022006034851,-0.02672787941992283,0.002249057637527585,-0.0017618710407987237,0.02050875313580036,-0.03491152077913284,0.03888869658112526,0.014807912521064281,-0.03697088360786438,0.07510878890752792,0.04180550575256348,0.059592295438051224,0.012635850347578526,0.03006044402718544,0.037608955055475235,-0.04101857170462608,0.0348285473883152,-0.016588984057307243,-0.03392302617430687,-0.054655514657497406,0.055258605629205704,-0.046479396522045135,-0.1312258094549179,0.0005319297779351473,-0.020020348951220512,0.019340604543685913,-0.06373760104179382,0.03203766793012619,0.014742815867066383,0.006284147500991821,-0.006842928938567638,-0.06463087350130081,-0.06582880765199661,-0.04140086844563484,-0.06925644725561142,0.0022986852563917637,-0.05659700185060501,-0.021132631227374077,0.01988952048122883,-0.09166895598173141,0.03627276048064232,-0.013559574261307716,-0.06456688046455383,0.00427301786839962,-0.06680632382631302,-0.031902894377708435,-0.012294541113078594,0.02644363045692444,-0.0012891351943835616,-0.003935371525585651,0.053840894252061844,0.009883965365588665,0.09244846552610397,0.007547405082732439,0.025531725957989693,0.07780925929546356,-0.12049894779920578,0.11833299696445465,-0.06913410127162933,-0.05243479833006859,-0.023291870951652527,-0.02197253331542015,0.0438932403922081,0.009257056750357151,-0.08329137414693832,-0.0003517765726428479,-0.03437249734997749,-0.036981984972953796,0.016712792217731476,-0.003790708724409342,-0.057006169110536575,0.02782542072236538,0.004415599163621664,0.0031937796156853437,-0.018617598339915276,-0.04412465915083885,-0.007721684407442808,-0.02030215598642826,-0.08585687726736069,0.01763497106730938,0.03540375828742981,0.007158433087170124,-0.0582946240901947,-0.02282826229929924,0.08244269341230392,-0.08478374779224396,0.060878925025463104,0.02595960535109043,0.06252330541610718,0.06828514486551285,-0.08643034845590591,0.02365366742014885,-0.013215403072535992,0.03860146179795265,-0.011784780770540237,-0.052376534789800644,-0.01674572564661503,-0.022593526169657707,-0.061645325273275375,0.016198409721255302,-0.049062393605709076,0.019187768921256065,-0.06426896899938583,-0.12777920067310333,0.07947336882352829,-0.0998881459236145,-0.023833515122532845,0.024926530197262764,0.05798402801156044,-0.04702948406338692,0.09423144906759262,-0.0653202012181282,-0.11887538433074951,0.10214517265558243,-0.17813724279403687,0.02271939441561699,0.029968269169330597,0.021829761564731598,-0.05930684506893158,-0.013256221078336239,-0.004315495491027832,-0.1488337516784668,0.023429611697793007,-0.06276415288448334,-0.014453827403485775,0.04727940261363983,0.015205283649265766,0.017638729885220528,-0.028167711570858955,0.01738407090306282,-0.015201804228127003,-0.013082114979624748,0.059526633471250534,-0.0618920736014843,0.02266058512032032,0.03525426611304283,-0.008368061855435371,0.023517891764640808,-0.02622438594698906,0.012481003068387508,0.04023054614663124,0.011107253842055798,0.01538254413753748,0.012642035260796547,0.047637660056352615,0.05580303445458412,-0.0748821273446083,0.0383395180106163,-0.10729561001062393,0.011842438019812107,0.02169724553823471,0.025534456595778465,0.0503443218767643,0.042892858386039734,0.10423094779253006,0.08348415046930313,0.012666652910411358,0.08222615718841553,0.19402819871902466,-0.01022515818476677,0.08478731662034988,0.15118247270584106,-0.0481039434671402,-0.10130923241376877,-0.0506482757627964,-0.05397549644112587,-0.13928183913230896,-0.05322478339076042,-0.07774918526411057,-0.12896786630153656,-0.0719609409570694,-0.048340942710638046,-0.050889451056718826,0.0035869458224624395,-0.1027960330247879,-0.04194663465023041,0.037740062922239304,-0.1137717142701149,-0.03798969089984894,0.005552595015615225,0.00517757935449481,-0.017400233075022697,-0.016563886776566505,-0.02189435251057148,0.0069206589832901955,0.045718610286712646,-0.015286861918866634,0.03722700476646423,0.051463983952999115,-0.03264568746089935,-0.016931282356381416,0.017716269940137863,-0.04756246507167816,0.018378010019659996,0.10214222967624664,-0.011576731689274311,0.023998061195015907,0.0793338194489479,0.015044488944113255,-0.06990430504083633,-0.026689646765589714,-0.06616094708442688,-0.14271768927574158,-0.0319557748734951,-0.09763572365045547,-0.16680006682872772,-0.0373477004468441,-0.023560011759400368,0.00826754979789257,0.013600132428109646,-0.04297278821468353,0.008766788057982922,0.00229560025036335,-0.026468506082892418,-0.022097570821642876,0.005800376180559397,-0.0064767347648739815,0.009212746284902096,0.03380747139453888,-0.013114855624735355,-0.024978909641504288,0.029572777450084686,-0.013651811517775059,-0.005037734284996986,0.022402241826057434,-0.01686878688633442,0.0013392081018537283,0.03753245994448662,-0.04468664154410362,0.01967877522110939,0.034507520496845245,-0.013073628768324852,0.028938720002770424,0.022483376786112785,-0.05488240346312523,0.050169799476861954,0.08302584290504456,-0.1191161721944809,0.06272322684526443,0.07456418871879578,-0.06282181292772293,-0.0071699051186442375,0.051992665976285934,-0.01440978329628706,-0.008581939153373241,0.01019927579909563,-0.05173099413514137,0.00385558744892478,0.044276949018239975,-0.03763056918978691,0.02298315241932869,0.015604070387780666,-0.02413492277264595,-0.008975068107247353,-0.004145358223468065,-0.0775255560874939,-0.02705499716103077,0.043961625546216965,-0.09356918931007385,-0.05544569343328476,0.026564747095108032,-0.0054779439233243465,0.009810463525354862,0.013974200002849102,-0.07069285213947296,-0.01959000527858734,0.04675227403640747,-0.037963539361953735,-0.0035586636513471603,0.03311525657773018,0.0068874722346663475,0.024653738364577293,0.021862102672457695,-0.04199772700667381,0.006365430541336536,0.035473160445690155,-0.03558072820305824,-0.029811246320605278,0.01269673090428114,0.030997391790151596,0.020999306812882423,-0.023619551211595535,0.01230449415743351,0.09839083254337311,-0.01761762984097004,-0.04217775911092758,0.028164783492684364,-0.024150826036930084,0.0076655675657093525,-0.02088165283203125,-0.048510368913412094,-0.02121201530098915,-0.03853236883878708,-0.033687494695186615,-0.0019036870216950774,-0.026978282257914543,-0.01317199319601059,0.006769539322704077,-0.006057008635252714,0.008990905247628689,-0.07792463153600693,-0.028188684955239296,0.030523793771862984,-0.11718191206455231,0.013442730531096458,0.08337122201919556,0.0177778173238039,0.009125643409788609,0.021205462515354156,-0.009190399199724197,-0.07503008097410202,-0.04916165769100189,-0.09252225607633591,-0.09128768742084503,-0.058527763932943344,-0.015900371596217155,-0.013049641624093056,0.015711795538663864,-0.021801389753818512,0.012715263292193413,0.0515814907848835,-0.013707620091736317,0.0008263125200755894,0.035921063274145126,-0.0408475287258625,0.028749356046319008,-0.013761356472969055,-0.1852889508008957,-0.028534281998872757,-0.014361534267663956,-0.10805696249008179,0.043601106852293015,0.02023852802813053,-0.06321213394403458,-0.06814547628164291,0.003335514571517706,-0.08867969363927841,-0.13868170976638794,0.04130316153168678,-0.04923577606678009,-0.08886822313070297,-0.0024296396877616644,0.011609334498643875,0.0005490115145221353,0.01584045961499214,-0.01737258955836296,0.05160832405090332,0.07350259274244308,-0.017164865508675575,0.03507355600595474,0.08548720926046371,-0.04912934452295303,-0.05974987521767616,0.010992861352860928,-0.16599704325199127,-0.10329807549715042,0.05164806917309761,-0.11514429748058319,-0.06850489228963852,0.028968006372451782,0.023967621847987175,0.023607634007930756,-0.021212967112660408,-0.009632319211959839,0.007607925683259964,-0.008567936718463898,-0.02263345941901207,0.01305442862212658,0.018013417720794678,-0.07808452844619751,-0.0220753513276577,0.05537467822432518,-0.11469974368810654,-0.0302372295409441,0.0658084973692894,-0.03577166795730591,-0.02350928634405136,0.04633088782429695,-0.07665318995714188,-0.037849292159080505,0.039257828146219254,-0.1399030238389969,-0.08459112793207169,0.05185779556632042,-0.17804519832134247,-0.11099229753017426,0.03869325667619705,0.0281315129250288,0.03006869927048683,0.00670997379347682,-0.014191987924277782,0.02851618267595768,0.0021844857838004827,-0.017941424623131752,-0.024770459160208702,0.025209810584783554,0.00778682716190815,0.014251245185732841,0.014784757979214191,0.018573522567749023,0.002308378228917718,0.049172982573509216,-0.020886337384581566,0.00046412943629547954,0.03899277001619339,-0.033963363617658615,0.0046099512837827206,-0.011703167110681534,-0.07605687528848648,-0.028880802914500237,0.01907859742641449,-0.08284533768892288,-0.1032954677939415,-0.019723553210496902,-0.0330267995595932,0.050588298588991165,0.039479468017816544,-0.04654490202665329,0.11000340431928635,0.06822279095649719,-0.08253692835569382,0.08600281924009323,0.052679579704999924,-0.0332803949713707,0.03996104747056961,0.037286046892404556,-0.052401088178157806,0.055675286799669266,0.08559441566467285,-0.03538822382688522,0.03171125054359436,0.03714931011199951,0.004423210397362709,0.03582407534122467,0.021354487165808678,-0.0345710813999176,0.07067833095788956,0.08883193880319595,-0.019280020147562027,0.055933963507413864,0.046304717659950256,0.06888444721698761,0.09461844712495804,0.07505962252616882,-0.11607768386602402,-0.19026613235473633,-0.08423518389463425,-0.03621266782283783,-0.030836235731840134,0.020911088213324547,-0.002423037076368928,-0.033135462552309036,-0.08183348178863525,-0.08487183600664139,-0.06579209119081497,-0.025339597836136818,-0.07949560135602951,0.0061877015978097916,0.06052154302597046,0.06424763798713684,0.10223686695098877,0.11755651235580444,-0.013742075301706791,-0.060811612755060196,-0.10813699662685394,0.052719663828611374,0.005508675705641508,-0.03274741396307945,-0.012330371886491776,0.053720954805612564,0.07629810273647308,-0.09371750801801682,-0.07107770442962646,0.017394699156284332,0.021190617233514786,0.022422146052122116,0.02112145721912384,-0.04788606986403465,0.04746805503964424,0.09425289928913116,-0.054244231432676315,-0.04248427599668503,-0.026530662551522255,-0.01043873094022274,0.050079844892024994,0.01429043523967266,-0.19435177743434906,-0.09445670247077942,-0.07087075710296631,-0.009875079616904259,0.0278617050498724,-0.0733465701341629,-0.05110832303762436,-0.09178034216165543,-0.02771933563053608,0.06454729288816452,-0.013366006314754486,-0.12198842316865921,-0.06102995201945305,-0.22267775237560272,-0.19681416451931,-0.04319761320948601,-0.034152161329984665,0.016915416345000267,-0.001644935691729188,0.00794420950114727,0.021346600726246834,0.12514209747314453,0.08440644294023514,0.03663526102900505,0.12615998089313507,-0.011956696398556232,0.027084529399871826,0.02704988792538643,0.010993336327373981,-0.04704074561595917,0.10842260718345642,0.028663013130426407,0.00789728481322527,-0.0029966081492602825,-0.05976807698607445,-0.011609619483351707,0.02561773546040058,0.012735714204609394,-0.03683476522564888,-0.026351086795330048,-0.03460966795682907,-0.02210349030792713,-0.05099526420235634,0.017592519521713257,0.004441399592906237,0.04596367105841637,0.10493485629558563,0.03422340005636215,-0.022231729701161385,-0.034613024443387985,-0.031929291784763336,0.03972318395972252,0.08610044419765472,0.017629140987992287,0.06233645975589752,0.058959685266017914,-0.028118185698986053,-0.024229751899838448,-0.2504062354564667,-0.2690548896789551,-0.052362918853759766,-0.04724915698170662,0.03651833161711693,0.02537516877055168,0.055596448481082916,0.09077274799346924,-0.023274168372154236,0.0029524399433285,0.05427573248744011,0.07818926125764847,0.12366792559623718,0.07272722572088242,0.048420049250125885,0.03465408459305763,-0.04435771331191063,-0.0011169870849698782,-0.12418019771575928,-0.12584450840950012,-0.029704691842198372,-0.056066446006298065,-0.048428960144519806,0.010465043596923351,0.026424648240208626,-0.045804284512996674,0.023898260667920113,-0.15090489387512207,-0.18568621575832367,-0.020718591287732124,-0.061454888433218,0.08200047165155411,-0.055617742240428925,-0.05398833006620407,0.008348707109689713,-0.019681889563798904,0.05281952768564224,0.12132959812879562,0.04406989738345146,0.04990675672888756,0.010252467356622219,-0.019451789557933807,0.002680824603885412,-0.001802503247745335,0.1221560463309288,0.06345703452825546,0.019649285823106766,0.05912720412015915,0.012238364666700363,0.0144889485090971,0.019636735320091248,-0.03132588788866997,-0.07031303644180298,0.17009130120277405,-0.02091061696410179,-0.11114316433668137,0.04515388235449791,-0.07703127712011337,0.07081138342618942,-0.06044992431998253,-0.011952556669712067,-0.014220579527318478,0.057795457541942596,0.03950446471571922,0.027525732293725014,0.026148060336709023,0.011880011297762394,-0.030295420438051224,-0.04835870862007141,-0.07095181941986084,-0.08594392985105515,-0.020782195031642914,-0.12061212956905365,-0.13705773651599884,-0.08247038722038269,-0.06045909225940704,-0.08507995307445526,0.09199021756649017,0.10615716129541397,-0.026168469339609146,-0.13656659424304962,-0.28071510791778564,-0.2261948585510254,-0.06373345851898193,-0.0168802198022604,-0.02614128589630127,-0.06701770424842834,0.011625193990767002,0.07340309023857117,-0.0883912444114685,0.01398539263755083,0.039958637207746506,0.007764345966279507,-0.02726837992668152,-0.09166514873504639,0.06827572733163834,0.09881848841905594,-0.002262706635519862,-0.07702959328889847,-0.26354119181632996,-0.20130935311317444,-0.01926209032535553,-0.03245047107338905,0.0070170131511986256,0.04452840983867645,0.06252840161323547,0.008961709216237068,-0.012842833064496517,-0.029300350695848465,0.03432025387883186,0.019516823813319206,0.010983951389789581,0.013004301115870476,0.02813025750219822,-0.024705937132239342,-0.03459989279508591,0.051190100610256195,-0.006032920908182859,-0.05685980245471001,0.0709649994969368,-0.016083551570773125,-0.03921608626842499,-0.0095925098285079,-0.019355906173586845,-0.026736479252576828,0.01961933635175228,0.023158105090260506,0.035679109394550323,0.04099546745419502,0.07565426826477051,0.04408688470721245,0.022779449820518494,0.015357968397438526,-0.02083255723118782,-0.0209544338285923,-0.11438687145709991,-0.13514253497123718,-0.027681343257427216,-0.025014320388436317,0.012665985152125359,-0.02271726354956627,-0.05878821387887001,-0.08401456475257874,0.01021898165345192,-0.08342211693525314,-0.05935806781053543,-0.03300642594695091,-0.04612421616911888,0.012075863778591156,0.03744208440184593,0.02920455113053322,-0.04399140924215317,0.05294353514909744,-0.09444623440504074,-0.19996246695518494,-0.06571843475103378,-0.26677241921424866,-0.16536465287208557,0.013854652643203735,-0.006077177822589874,-0.013671772554516792,0.0032771537080407143,0.011046011000871658,-0.00908654648810625,0.02619202993810177,0.02462230995297432,-0.0035970164462924004,0.0682574138045311,0.051762960851192474,-0.0013125021941959858,0.02352537214756012,0.0023942517582327127,0.02635032683610916,-0.01585598662495613,0.04027942940592766,0.05140402540564537,0.009434783831238747,0.1103687509894371,0.09209068864583969,-0.07421758025884628,-0.2325189858675003,-0.24205167591571808,-0.02304709330201149,0.037713419646024704,0.07689516991376877,-0.1153334379196167,-0.1765557825565338,0.0027112115640193224,0.019036291167140007,0.009619363583624363,0.01152335200458765,0.06342720985412598,0.09810065478086472,0.08734928071498871,0.023629048839211464,0.09580226987600327,0.07042472809553146,-0.06602641940116882,-0.03176290541887283,0.019840046763420105,-0.05786298215389252,-0.008802960626780987,-0.019837193191051483,-0.07341272383928299,-0.2314620018005371,-0.20283107459545135,0.04859494790434837,0.049680694937705994,0.010783354751765728,0.028602851554751396,0.034222088754177094,0.018189243972301483,-0.08584940433502197,-0.23111388087272644,-0.04895256087183952,-0.05315142869949341,-0.09079629182815552,-0.010283607058227062,-0.007401396054774523,-0.00922349002212286,-0.0209727194160223,-0.13082455098628998,-0.2614828050136566,-0.0206158384680748,-0.009049264714121819,-0.05052381753921509,-0.036369018256664276,0.02337535098195076,0.01700352318584919,-0.015212612226605415,-0.03970104455947876,-0.21815596520900726,-0.24090531468391418,0.05901486799120903,-0.005722368601709604,-0.09411612153053284,0.10695409029722214,0.08758171647787094,0.10151670128107071,0.17527815699577332,0.16937576234340668,0.044100336730480194,0.05743484944105148,0.11490529030561447,0.06312751770019531,0.005614064633846283,0.030900301411747932,0.06018738076090813,0.05572432279586792,-0.06146426871418953,0.019751718267798424,-0.037772756069898605,-0.013756243512034416,-0.030297981575131416,0.034553706645965576,-0.006836058106273413,0.050657451152801514,0.049700964242219925,0.049979351460933685,-0.04086517170071602,0.063705213367939,0.07767854630947113,0.011400035582482815,-0.01631874404847622,0.02083776891231537,0.03989285230636597,0.11812423169612885,-0.0958527997136116,-0.16708026826381683,-0.004072841722518206,0.1795065850019455,0.17257986962795258,-0.03564319387078285,0.07654745131731033,0.12052284926176071,-0.05205979943275452,-0.2052755206823349,-0.0718909353017807,0.02748354896903038,-0.0008279401808977127,0.009179036132991314,0.06733781099319458,0.06404462456703186,-0.007372935768216848,-0.03526207432150841,-0.11877226084470749,-0.06782989203929901,0.04643751680850983,-0.012633648701012135,-0.026039253920316696,0.04937785491347313,0.06700883060693741,0.027869924902915955,0.05486935377120972,-0.09270551055669785,-0.028042880818247795,-0.005016515031456947,0.05027260631322861,0.045497022569179535,-0.005043357610702515,0.030367190018296242,0.04613224416971207,0.0302993506193161,-0.12063772231340408,-0.1157560870051384,0.0781397894024849,0.0453047901391983,0.020871112123131752,0.023461777716875076,0.05022159963846207,0.06490723788738251,-0.13248899579048157,-0.12725496292114258,-0.05472730100154877,-0.005511221941560507,-0.007027158513665199,-0.004586212337017059,0.055285852402448654,0.07313214987516403,0.00932779535651207,0.054262932389974594,-0.0324392206966877,0.09377116709947586,-0.021530073136091232,-0.029005039483308792,-0.018485432490706444,-0.02723957598209381,-0.06981010735034943,-0.07802421599626541,-0.02297741360962391,-0.25216779112815857,-0.2725737690925598,-0.056838508695364,-0.1686064749956131,-0.21812275052070618,0.009034601971507072,0.002940861973911524,-0.005289284512400627,0.004510126542299986,0.032660841941833496,0.03139147162437439,-0.05768384784460068,-0.08421370387077332,-0.02753353677690029,0.001430247793905437,-0.03887373208999634,0.03268149867653847,-0.07913397997617722,-0.1984279304742813,-0.13967159390449524,-0.016038082540035248,-0.05063345283269882,-0.05440247431397438,-0.006114376708865166,-0.006531256251037121,-0.010428721085190773,-0.19034434854984283,-0.22958704829216003,-0.19101548194885254,0.08686087280511856,-0.002822553040459752,0.017851276323199272,0.120103619992733,0.13069546222686768,0.06885667890310287,-0.02556793764233589,-0.08822103589773178,0.010315044783055782,0.03660142794251442,0.03249616175889969,0.07967210561037064,0.05709780007600784,0.010014960542321205,-0.016124458983540535,-0.16172254085540771,-0.20485709607601166,-0.07555761933326721,-0.04570598155260086,-0.03795575723052025,-0.042000919580459595,0.0018449951894581318,-0.028858330100774765,-0.025980714708566666,-0.08856111764907837,-0.3361954391002655,-0.09910672158002853,0.02985568530857563,0.011495345272123814,0.01161112915724516,0.025681229308247566,0.0456726960837841,0.0013970369473099709,-0.00530125992372632,-0.21807827055454254,-0.1653110831975937,0.030278921127319336,-0.015940532088279724,-0.03126143664121628,0.025780927389860153,0.039999738335609436,0.03462914749979973,0.17330977320671082,0.10350453853607178,0.093623585999012,0.12511999905109406,0.12159305810928345,0.13672257959842682,0.026410335674881935,0.03321649879217148,0.09465336054563522,-0.032168641686439514,-0.1446515917778015,-0.1441628783941269,0.10212790220975876,-0.00045061792479828,-0.08452633023262024,0.06963621824979782,0.04741610959172249,-0.01895047351717949,0.0897296741604805,-0.08931022137403488,-0.10754171758890152,0.042210180312395096,0.048797737807035446,-0.011830015107989311,0.008193803019821644,0.02368384227156639,0.06375450640916824,0.07432210445404053,-0.017346566542983055,0.03666677325963974,0.07197832316160202,0.07809404283761978,-0.03979148343205452,-0.008463711477816105,0.027234124019742012,0.02776358835399151,0.018641700968146324,-0.06290365010499954,-0.08975914120674133,0.06970082968473434,0.0729694813489914,-0.0050382050685584545,-0.004942160565406084,-0.024877779185771942,0.039403703063726425,-0.1061197966337204,-0.1555212438106537,-0.1307758092880249,0.0860353335738182,0.027542736381292343,0.04185832291841507,0.07452896237373352,0.05539407581090927,0.04005434364080429,0.012170105241239071,-0.06237776204943657,-0.07451722025871277,0.1371060162782669,0.09643815457820892,0.11013982445001602,0.054587818682193756,0.05732858553528786,0.026842394843697548,-0.024766098707914352,-0.13420623540878296,-0.13784141838550568,0.04662130028009415,0.046509649604558945,0.00643065245822072,-0.0011230093659833074,0.02227131277322769,0.04242587089538574,-0.029413120821118355,0.038477350026369095,-0.016761915758252144,-0.006266407202929258,-0.010572894476354122,0.011047301813960075,-0.022901112213730812,-0.03532654792070389,-0.014857468195259571,0.004801759496331215,0.006676563527435064,-0.031053977087140083,-0.06657871603965759,0.03495720773935318,0.036519333720207214,-0.15944445133209229,0.015325287356972694,0.05403215065598488,-0.037594445049762726,0.045369796454906464,0.008729510940611362,-0.030954405665397644,0.0018865163438022137,0.014711929485201836,-0.24300003051757812,-0.05141577124595642,-0.004626965615898371,0.05262203887104988,0.0005195577396079898,-0.0043418146669864655,0.0283672958612442,-0.07941368222236633,-0.003107542870566249,-0.07650232315063477,-0.029905248433351517,-0.0008661961765028536,0.0060541280545294285,-0.004709932021796703,-0.03012937679886818,-0.021696150302886963,-0.06843417882919312,-0.026853542774915695,-0.07667217403650284,-0.10111016035079956,0.020458990707993507,-0.03665924817323685,-0.02177821658551693,-0.05774814635515213,0.034306176006793976,0.002177315764129162,0.009812281467020512,-0.00808300357311964,-0.04735864698886871,-0.009822430089116096,0.01322215422987938,0.0029633198864758015,-0.010870268568396568,-0.004949052352458239,-0.1268761157989502,0.04095516353845596,0.0007038248004391789,-0.012255704030394554,-0.018579026684165,-0.014270773157477379,0.019211148843169212,-0.02088324725627899,0.02269245684146881,0.02766282856464386,-0.01632564701139927,0.0543595552444458,-0.004507709760218859,0.014092737808823586,0.01019542571157217,0.013446059077978134,0.02768407203257084,0.027047807350754738,-0.036114249378442764,0.025328578427433968,0.08297982066869736,-0.06724980473518372,0.05652132257819176,-0.017705023288726807,0.024767456576228142,0.03068917989730835,-0.07566525042057037,-0.04992436617612839,-0.011725683696568012,-0.06215408071875572,-0.03879562392830849,-0.055527664721012115,0.005552531685680151,0.005378088913857937,-0.0012357364175841212,-0.02291037142276764,-0.02603713981807232,-0.009713348001241684,-0.017191041260957718,-0.036759715527296066,0.009906770661473274,-0.02136608585715294,0.010675127618014812,-0.029979223385453224,-0.011581692844629288,2.5247098164982162e-05,-0.012602564878761768,-0.04299392178654671,-0.2246253490447998,0.006146954372525215,-0.01736622303724289,0.061287932097911835,0.032596804201602936,-0.08144338428974152,0.017148099839687347,0.02463577128946781,-0.045312732458114624,0.0183249581605196,0.00870740320533514,0.007387413177639246,0.015475447289645672,0.0008036059443838894,-0.11442623287439346,0.025837022811174393,0.0335952453315258,-0.0682002380490303,-0.10253085196018219,0.020175600424408913,-0.031533777713775635,0.009315979667007923,-0.02976268343627453,-0.06908398121595383,0.044767264276742935,0.0023920584935694933,-0.11854696273803711,0.0627446249127388,0.01125738862901926,0.017139684408903122,-0.002572121564298868,3.6982385154260555e-07,-0.013305753469467163,0.02657017856836319,0.00872067455202341,-0.014325369149446487,-0.010303988121449947,0.027170898392796516,0.0086689917370677,-0.003331274725496769,0.00661547901108861,0.01984253153204918,0.0012018653796985745,0.021924374625086784,0.009878375567495823,-0.040157780051231384,-0.007040213327854872,-0.05085298418998718,-0.00012903576134704053,-0.03998739644885063,-0.004609385505318642,0.021694190800189972,-0.009571059606969357,-0.03796468675136566,0.05102504417300224,-0.019848262891173363,0.0012820546980947256,0.031093260273337364,0.012890150770545006,-0.006801252719014883,0.0018099953886121511,0.010730773210525513,0.003816267242655158,-0.026236487552523613,0.02518479712307453,-0.025011582300066948,-0.003811644157394767,-0.047764431685209274,-0.00315889623016119,0.08617115020751953,0.019916024059057236,-0.06180081143975258,-0.03828490898013115,-0.05628327652812004,0.007863781414926052,0.015114467591047287,-0.019248617812991142,-0.10049404203891754,-0.00043691316386684775,0.04902323707938194,-0.21443748474121094,0.01597745530307293,0.04083468019962311,-0.021694744005799294,0.016880545765161514,-0.007964417338371277,0.017921030521392822,0.018503684550523758,-0.02352035604417324,0.01728035882115364,-0.026687242090702057,-0.006028699688613415,-0.004237959627062082,-0.010636494494974613,-0.02488359622657299,-0.018446577712893486,0.009650789201259613,-0.015035014599561691,-0.053711336106061935,0.002717450028285384,-0.03468605875968933,0.03137040510773659,0.02641642838716507,-0.005505736451596022,0.04621899500489235,-0.02553780935704708,0.010404248721897602,-0.009323202073574066,-0.04969030246138573,0.041765306144952774,-0.00284293363802135,0.01863895170390606,-0.02614014782011509,0.010682341642677784,-0.0046148463152348995,-0.033857814967632294,0.01554191391915083,-0.02371075376868248,0.02374548278748989,-0.0008714795694686472,0.00363774667493999,0.013247925788164139,-0.020799873396754265,0.0013884241925552487,0.02285337634384632,-0.04983943700790405,-0.01091508287936449,0.01946992240846157,0.023296738043427467,0.016204768791794777,0.008332043886184692,-0.021243736147880554,0.008571219630539417,0.02744513377547264,-0.07035423815250397,-0.0312030129134655,0.0237111933529377,-0.05301674082875252,0.009681501425802708,-0.013145627453923225,0.028259065002202988,-0.058347154408693314,0.033170927315950394,0.037519387900829315,-0.05853024870157242,0.04511742666363716,-0.013792866840958595,0.018728991970419884,-0.018006514757871628,-0.02285611256957054,-0.006999498698860407,0.01993616111576557,-0.03812083974480629,-0.020530221983790398,0.026632288470864296,0.0037722892593592405,0.015219463966786861,0.02006027288734913,0.008041824214160442,0.010200128890573978,-0.013928358443081379,-0.020389501005411148,0.0076554943807423115,0.0018868034239858389,-0.004170526284724474,-0.016996372491121292,0.015173410065472126,0.006170410197228193,-0.01910172775387764,0.05415855348110199,0.002210971899330616,-0.01508249156177044,0.03274018317461014,-0.033665731549263,0.018800655379891396,0.017180755734443665,-0.026712285354733467,-3.674133404274471e-05,0.0237162783741951,-0.003450998803600669,0.011128718964755535,-0.09398717433214188,-0.01168819610029459,0.06829439103603363,-0.005360240116715431,0.0005078953690826893,0.11139724403619766,-0.0088594825938344,0.051638998091220856,-0.17782153189182281,0.06098431721329689,-0.04315175488591194,0.06031244248151779,-0.010682191699743271,-0.02104312740266323,0.08193153142929077,0.021780535578727722,0.006435010582208633,0.08452274650335312,0.03825322166085243,0.056196682155132294,-0.05545392259955406,-0.012430931441485882,0.057061634957790375,-0.2418515533208847,-9.006953041534871e-05,0.050996001809835434,-0.6349631547927856,-0.004885457456111908,-0.001660505193285644,0.03423723578453064,0.005824221298098564,0.020462533459067345,-0.08239516615867615,-0.026147015392780304,0.03609456121921539,-0.18211457133293152,0.003561242949217558,0.01642288826406002,0.014496170915663242,0.014937363564968109,0.043919313699007034,-0.12298997491598129,0.002890888601541519,0.0452205091714859,-0.2769874036312103,-0.040467292070388794,-0.0951465517282486,0.07455325871706009,0.010180196724832058,-0.07490824162960052,0.10548517853021622,-0.006008249241858721,-0.09610769152641296,-0.025882938876748085,-0.11923638731241226,-0.014294765889644623,0.03169999271631241,-0.01878000982105732,0.011749000288546085,-0.03324676305055618,0.005260335747152567,-0.014442610554397106,-0.08766460418701172,0.03265342116355896,0.026340603828430176,0.025984717532992363,0.012023776769638062,0.0264901053160429,0.06830984354019165,0.048125769942998886,0.02900085598230362,0.031045183539390564,0.001883483724668622,0.0039242934435606,0.016808781772851944,0.004495596047490835,-0.012444126419723034,0.056323371827602386,0.05370233952999115,-0.02308497577905655,0.1365521401166916,0.033771391957998276,-0.023658134043216705,-0.031867872923612595,0.0022233501076698303,-0.12718456983566284,-0.07680533826351166,-0.04481068253517151,-0.09978164732456207,-0.07379979640245438,-0.06642980128526688,0.027566952630877495,0.025152133777737617,0.03700592741370201,0.03632122650742531,-0.1811450719833374,0.06974665075540543,0.0317000076174736,-0.4332813322544098,0.06323125213384628,-0.02378752827644348,0.11199374496936798,-0.029780235141515732,-0.016387876123189926,-0.006081757135689259,0.01659882627427578,0.024489248171448708,-0.26646876335144043,0.029100418090820312,0.02788698300719261,-0.022807415574789047,0.025073513388633728,0.04730505868792534,-0.1982218325138092,0.07597467303276062,0.010006219148635864,-0.613017737865448,-0.0069469427689909935,0.0006312759942375124,0.003572930349037051,0.009937151335179806,0.02578800544142723,-0.12073635309934616,0.016179608181118965,0.005270017310976982,-0.23138941824436188,0.002568308264017105,-0.004903761669993401,0.0834476426243782,0.010599315166473389,-0.023130983114242554,0.07262924313545227,0.00966049637645483,-0.03624114394187927,-0.017719868570566177,0.042229220271110535,-0.012529895640909672,-0.0037650440353900194,-0.035494279116392136,-0.030159741640090942,-0.06345870345830917,-0.044946253299713135,-0.0032871097791939974,0.003020963864400983,0.03070741705596447,0.0021117855794727802,0.018848709762096405,-0.006261204835027456,0.023576349020004272,0.0010495578171685338,-0.030156977474689484,0.025690875947475433,-0.03497617691755295,0.004227227531373501,-0.059033531695604324,-0.007102941162884235,-0.03611927852034569,-0.09075888991355896,0.03696199879050255,-0.026067988947033882,-0.019905485212802887,0.14867667853832245,-0.019587408751249313,-0.03690365329384804,0.031590014696121216,-0.03331988677382469,-0.03302375599741936,0.08652915060520172,-0.029992738738656044,-0.00034387255436740816,0.0804455354809761,-9.076346032088622e-05,0.04237278178334236,-0.05415790155529976,-0.04935559257864952,0.071874238550663,0.05971110984683037,0.012699872255325317,-0.10853308439254761,-0.12690302729606628,-0.00834488682448864,-0.004342233762145042,0.01106544490903616,0.012178669683635235,0.020673828199505806,-0.17154601216316223,0.049569182097911835,0.026956485584378242,-0.2986365258693695,0.018618201836943626,0.0055782427079975605,0.04283399507403374,-0.01984940469264984,0.043966472148895264,0.02471533976495266,-0.004783261101692915,0.06319402158260345,-0.06939174979925156,0.029734719544649124,0.007540412247180939,0.1195838451385498,0.019606465473771095,0.00659366138279438,-0.1245647519826889,-0.0006803656578995287,-0.006319805979728699,-0.31708669662475586,-0.020197175443172455,0.023141084238886833,0.016621463000774384,0.003958628047257662,0.0010296024847775698,-0.06979440152645111,0.03049936704337597,0.006848285906016827,-0.15742127597332,0.052930671721696854,-0.05100366473197937,-0.02657638117671013,-0.021867435425519943,-0.0771033987402916,-0.024183206260204315,-0.06808724999427795,-0.020576132461428642,-0.05081838741898537,-0.06207948178052902,0.0632254034280777,0.03175020590424538,-0.04886222258210182,0.14887402951717377,-0.029629625380039215,-0.05302954465150833,0.11908557265996933,-0.042712170630693436,-0.05591987073421478,0.007048674859106541,-0.0020567697938531637,0.005361433606594801,0.01853863149881363,-0.05708984285593033,0.002291613956913352,0.006903387140482664,-0.3407416045665741,0.043654412031173706,-0.033916860818862915,-0.010826122015714645,0.008538917638361454,-0.010141158476471901,0.04768320545554161,0.007465641479939222,0.03081151843070984,0.06084313988685608,0.05524652823805809,0.008869881741702557,0.04325108230113983,0.0026281678583472967,-0.016463370993733406,-0.0008342097862623632,0.0070931510999798775,0.01961679384112358,0.020099816843867302,-0.015422188676893711,-0.020614394918084145,-0.028867945075035095,0.018715372309088707,-0.05767214670777321,-0.023938126862049103,0.06420880556106567,-0.06546371430158615,-0.027401262894272804,0.0679086297750473,0.0238509438931942,-0.04424721747636795,0.03944743052124977,0.009254292584955692,-0.07812093198299408,0.01860293745994568,-0.02045563980937004,-0.07688876241445541,-0.012022798880934715,0.030091077089309692,0.02362876944243908,0.0064780800603330135,0.04398228973150253,-0.28470879793167114,0.002581147477030754,0.054987162351608276,-0.5370039939880371,-0.0007231604540720582,0.05998620390892029,0.09211230278015137,0.07360859215259552,0.05457058548927307,0.06998052448034286,0.05819491297006607,-0.04012604057788849,-0.05046776682138443,-0.0052482811734080315,0.007120883092284203,0.0004856495070271194,0.016222253441810608,-0.042525917291641235,-0.02964460477232933,-0.012457980774343014,-0.02512216381728649,-0.03983389586210251,-0.005453485529869795,0.06648901104927063,0.11278586834669113,0.06181716173887253,0.04555022716522217,0.06711244583129883,0.05494679883122444,-0.012365369126200676,-0.06910324096679688,-0.04598883539438248,-0.004346889443695545,0.00628500385209918,0.021727465093135834,0.00048604735638946295,-0.00526795070618391,-0.01110989972949028,-0.042637523263692856,-0.1074337512254715,-0.07354599982500076,0.01822921633720398,0.019322987645864487,0.006688958965241909,-0.011710106395184994,0.0028106023091822863,-0.01738142780959606,-0.06802605092525482,-0.1039523109793663,-0.04532063007354736,-0.10649944841861725,-0.1827906221151352,-0.12402928620576859,-0.0030186905059963465,-0.039881668984889984,0.022464720532298088,0.07138537615537643,-0.035918135195970535,0.055253297090530396,0.0368112176656723,0.017542829737067223,0.000880921958014369,0.033583708107471466,0.04882648587226868,0.03460058197379112,-0.01716163009405136,0.006997580640017986,0.023899691179394722,-0.09232106804847717,-0.052548300474882126,-0.08036809414625168,-0.11507846415042877,-0.09600089490413666,-0.10463590919971466,-0.01866617053747177,0.037753500044345856,0.017343200743198395,-0.07596201449632645,-0.07635251432657242,-0.05521032586693764,-0.0853692814707756,-0.09206653386354446,-0.06018168479204178,-0.03896687179803848,0.002101279329508543,0.03467376157641411,-0.01550977397710085,0.04635084420442581,-0.004562822170555592,0.02882428467273712,0.0993371233344078,0.05309169739484787,-0.06386198848485947,-0.12402476370334625,-0.04269735515117645,0.026260584592819214,0.027669183909893036,0.028343988582491875,0.024655049666762352,0.04829283803701401,0.020939823240041733,-0.03474266082048416,-0.045980993658304214,-0.01768164150416851,0.021320173516869545,0.049520574510097504,0.028739411383867264,0.04699556156992912,0.07496626675128937,0.03594927117228508,-0.04928303882479668,-0.0705280750989914,-0.0453520305454731,0.022357698529958725,0.06315868347883224,0.05420582368969917,0.035184167325496674,0.05798233300447464,0.015099002979695797,-0.043368276208639145,-0.06431564688682556,-0.0036047615576535463,0.03629063069820404,0.025483038276433945,0.04319598153233528,-0.00718909315764904,0.021238265559077263,0.002361196791753173,-0.016145847737789154,-0.028186272829771042,-0.010658662766218185,-0.06896163523197174,-0.038485586643218994,-0.05106053873896599,-0.049047861248254776,0.022897979244589806,-0.03562400862574577,-0.04223135858774185,-0.0167682021856308,0.005061811301857233,-0.00956759974360466,0.0012769800378009677,-0.001166570233181119,-0.00036018312675878406,-0.00042796414345502853,0.025911970064044,-0.0017017039936035872,0.02414373680949211,0.04516584053635597,0.021522626280784607,0.02160656824707985,0.054644182324409485,0.026930177584290504,0.04127652570605278,0.046870261430740356,0.04009486734867096,0.06130877137184143,0.07173691689968109,-0.06393034756183624,-0.07425433397293091,-0.06690230220556259,-0.05372222140431404,-0.028545867651700974,-0.06409715861082077,0.07874142378568649,0.07404034584760666,-0.04648815467953682,-0.053703758865594864,-0.03750842809677124,-0.012805593200027943,-0.03372541442513466,-0.01732536219060421,-0.02089771442115307,-0.009339749813079834,-0.014058313332498074,-0.005973003339022398,-0.08310973644256592,-0.08447184413671494,-0.08675092458724976,0.016339709982275963,0.06554189324378967,0.006659293547272682,0.05726227909326553,0.08548051118850708,0.09462596476078033,0.0718078464269638,0.07622281461954117,0.021558567881584167,-0.001057900139130652,0.026288721710443497,0.024452166631817818,-0.09634710848331451,-0.13989856839179993,-0.06182095780968666,-0.06535616517066956,-0.05609923601150513,-0.03850691393017769,-0.06478546559810638,-0.07497578859329224,-0.07755083590745926,-0.07495987415313721,-0.13665832579135895,-0.11056409031152725,0.046572256833314896,0.11365881562232971,0.03522127866744995,0.020412031561136246,0.024248072877526283,0.024457111954689026,-0.04892149567604065,-0.08693640679121017,-0.051841527223587036,-0.01736430451273918,-0.0007073644665069878,0.01182421762496233,0.0038496223278343678,-0.004058715887367725,0.02561848796904087,-0.0201129000633955,-0.025849102064967155,-0.0001656742242630571,-0.033293381333351135,-0.012288169004023075,-0.01924140378832817,-0.1166359931230545,-0.10718882828950882,-0.06209240481257439,-0.08350101858377457,-0.05202525854110718,-0.06706462055444717,0.011964588426053524,0.0522262305021286,0.07800789922475815,0.00650779576972127,0.03423194959759712,0.040590979158878326,0.006302969995886087,-0.0720512866973877,-0.013365277089178562,0.032594528049230576,0.026494622230529785,0.01965348981320858,-0.0024580711033195257,0.0238778255879879,0.03822998329997063,-0.05328734964132309,-0.045882612466812134,0.028088172897696495,0.005916166584938765,0.013255471363663673,-0.003816047450527549,0.0009417347027920187,0.007889682427048683,0.010391835123300552,0.01783350110054016,0.042279038578271866,0.030192606151103973,0.008961313404142857,-0.040482550859451294,-0.016810571774840355,-0.0752820372581482,-0.07954884320497513,-0.06417608261108398,-0.057172711938619614,-0.09895634651184082,-0.08065575361251831,-0.0004950850852765143,0.05649954825639725,0.007804521359503269,0.00763477711006999,0.019014138728380203,-0.0043279933743178844,-0.06698531657457352,-0.0467398501932621,-0.03921045735478401,-0.08632143586874008,-0.05748625472187996,-0.07092707604169846,0.02321605384349823,0.04512373358011246,0.025143003091216087,0.07062754034996033,0.05907129496335983,0.05931977182626724,0.04567255079746246,0.08267758786678314,0.07259893417358398,0.05299081280827522,0.05391877889633179,0.06132473796606064,-0.011000179685652256,-0.0994650274515152,-0.0697547122836113,-0.05941229686141014,-0.04919048398733139,-0.007242660969495773,0.03154074028134346,0.039078760892152786,0.020865896716713905,0.029368402436375618,0.041758760809898376,0.052225034683942795,0.014514152891933918,-0.004943606443703175,0.008789650164544582,0.038008641451597214,-0.024988293647766113,-0.024905771017074585,0.03459502384066582,-0.045193400233983994,-0.013490376062691212,-0.2992022931575775,-0.3126889169216156,-0.10282688587903976,0.03378882631659508,-0.023365957662463188,-0.0426449328660965,0.05574731528759003,0.10205934941768646,0.07364775985479355,-0.11512159556150436,-0.07857468724250793,-0.0022602358367294073,0.10777830332517624,0.07173869758844376,-0.0005002336692996323,0.07402031123638153,0.04813776910305023,0.027466904371976852,-0.09448160231113434,-0.13031531870365143,-0.059512119740247726,0.06512013077735901,-0.01672707311809063,-0.05723634734749794,0.07622714340686798,0.0014518200187012553,-0.0013803018955513835,0.07692047953605652,-0.07879096269607544,-0.08306605368852615,-0.2630245089530945,-0.3303484618663788,-0.18143510818481445,0.0012317192740738392,0.11891870945692062,0.07482848316431046,-0.16532820463180542,-0.14064641296863556,0.0597071535885334,-0.04757813736796379,-0.0001660866109887138,-0.0005364434327930212,-0.008512825705111027,-0.022147228941321373,-0.004935166798532009,0.07267076522111893,0.027318883687257767,0.05614805221557617,0.0069555435329675674,-0.007112880237400532,0.05061420425772667,-0.0712377056479454,-0.06056627258658409,-0.014057661406695843,0.061621759086847305,0.07233772426843643,0.05009450763463974,-0.05046406760811806,0.014558778144419193,-0.025627892464399338,0.02259043976664543,-0.007617477793246508,-0.027191080152988434,-0.01348696369677782,0.030719252303242683,0.09435739368200302,-0.02938205935060978,-0.015252061188220978,-0.01826414093375206,-0.022028593346476555,-0.11511792242527008,-0.03992196545004845,-0.19656217098236084,-0.18847854435443878,-0.010140661150217056,-0.024595137685537338,0.020481551066040993,0.010405847802758217,0.0460699237883091,0.03732183203101158,0.022815557196736336,-0.29631420969963074,-0.34056663513183594,-0.0781477764248848,-0.14907370507717133,-0.05000285431742668,0.05098368972539902,0.002540821908041835,0.033140212297439575,0.07269023358821869,-0.07124166190624237,-0.09160192310810089,0.02526606246829033,0.1008828729391098,0.09512659162282944,0.04468357563018799,0.020312827080488205,0.047358494251966476,0.03593560308218002,-0.19129665195941925,-0.2233435958623886,-0.05176014453172684,-0.07689251005649567,0.007464581169188023,0.05406676605343819,0.018495788797736168,0.05148826166987419,0.05353744328022003,-0.06255801022052765,-0.07668020576238632,0.03525526821613312,-0.10932787507772446,-0.027229638770222664,0.040375687181949615,0.08895359933376312,0.03551655262708664,-0.023638876155018806,0.01042580883949995,0.1291368156671524,0.1246858611702919,0.06712761521339417,0.04981798678636551,-0.011571968905627728,-0.02232866920530796,0.005998136475682259,-0.030369626358151436,-0.0314573273062706,-0.022239824756979942,0.02978183701634407,-0.050803638994693756,-0.0899946317076683,-0.0384572297334671,-0.0459422804415226,-0.0275419931858778,0.003472850890830159,0.03835229203104973,-0.006661891471594572,0.04753658175468445,-0.15809500217437744,-0.1281781941652298,0.012497423216700554,-0.05246267840266228,-0.05008259788155556,-0.0459476038813591,0.06281331181526184,0.03366963565349579,0.006261270493268967,-0.00473363883793354,0.0022919471375644207,-0.045784760266542435,-0.011406631208956242,-0.027489377185702324,-0.01696821302175522,-0.0783870741724968,-0.05183258652687073,0.012641562148928642,-0.14534656703472137,0.096270352602005,0.022484352812170982,0.116374172270298,0.034015633165836334,-0.077083058655262,-0.21847423911094666,-0.18549959361553192,-0.07517360895872116,0.03221563249826431,0.020124703645706177,0.006478312890976667,0.09053848683834076,0.05668696388602257,0.036242902278900146,0.0610547810792923,0.0021913524251431227,-0.04225907474756241,0.010910050943493843,-0.018923049792647362,-0.03704587370157242,0.020706960931420326,0.009317359887063503,0.0025557861663401127,-0.40802201628685,-0.48119327425956726,-0.0742076113820076,0.00701824389398098,0.06401335448026657,0.01827557384967804,0.10705684125423431,0.09547755122184753,0.03770661726593971,-0.10112804174423218,-0.11071009188890457,0.045496098697185516,0.014828787185251713,0.09791658818721771,0.016582950949668884,0.04397591948509216,0.04416640102863312,0.024180123582482338,0.017558511346578598,-0.01893567107617855,0.029198696836829185,0.054094456136226654,0.021524282172322273,-0.03032122366130352,-0.0028768060728907585,-0.0011136345565319061,-0.008654091507196426,-0.07848262041807175,-0.07272729277610779,-0.033809199929237366,0.009539425373077393,-0.01257085707038641,-0.035251304507255554,-0.035391710698604584,-0.01068925205618143,-0.029642421752214432,-0.14907221496105194,-0.1428467035293579,0.02819219045341015,-0.10344305634498596,-0.004818509798496962,0.020803770050406456,0.002747426275163889,0.05987925082445145,0.029278680682182312,-0.09043160825967789,-0.006234852597117424,0.06793183833360672,-0.06743203103542328,0.006985843181610107,0.02466047927737236,-0.031022068113088608,-0.024431291967630386,-0.01433280948549509,-0.056695159524679184,-0.10831525176763535,-0.05496789142489433,-0.15926824510097504,-0.15735000371932983,-0.060309071093797684,-0.0037383935414254665,0.0594608411192894,0.07307587563991547,-0.02856162004172802,0.008628292009234428,0.07745075970888138,0.019387925043702126,0.06106147542595863,0.053443919867277145,0.021458443254232407,0.006149749271571636,0.022368397563695908,-0.1126694604754448,-0.13706183433532715,-0.034689467400312424,-0.0356188528239727,0.11004384607076645,0.07319111377000809,-0.029646942391991615,-0.03041989915072918,-0.03727639093995094,-0.10877539217472076,-0.20403453707695007,-0.20223213732242584,0.03092116117477417,0.05211499333381653,0.05353866517543793,0.015546666458249092,0.05093250423669815,0.05809464305639267,0.07390695810317993,0.04615824669599533,0.03833019733428955,-0.07145346701145172,0.04106036201119423,0.001792844501323998,-0.027316434308886528,0.03461773321032524,-0.023132512345910072,0.030684055760502815,-0.029917627573013306,-0.02352413348853588,0.0274798721075058,-0.06116713583469391,-0.03662735968828201,0.044331904500722885,-0.06353574246168137,0.001962596783414483,0.0350746288895607,0.11591441929340363,-0.0490722618997097,0.052306901663541794,0.19976186752319336,-0.07624049484729767,0.04673329368233681,0.131511390209198,-0.04355708137154579,-0.006886746734380722,0.04772860184311867,0.001409043907187879,0.02390209585428238,-0.012587598524987698,-0.025385066866874695,0.0430588573217392,-0.07445304840803146,0.010343301109969616,-0.003757843980565667,0.10324406623840332,0.014172043651342392,0.021257705986499786,0.04657672718167305,-0.04265819862484932,0.07879595458507538,0.004084985237568617,-0.012014228850603104,-0.07405230402946472,0.013804182410240173,0.056862667202949524,-0.08186426013708115,0.011561024934053421,0.05914105847477913,-0.05919547379016876,-0.015108129009604454,0.06545732915401459,-0.009823724627494812,-0.07465580850839615,0.0036820550449192524,-0.058169640600681305,-0.06725896894931793,0.010500662960112095,0.003345453878864646,0.06204770877957344,0.0036132140085101128,-0.06423453986644745,-0.037376996129751205,0.01946834661066532,0.008661189116537571,-0.010653167963027954,0.0714113861322403,-0.035169798880815506,-0.04688690975308418,0.059550199657678604,0.026650158688426018,-0.07651936262845993,0.04836636781692505,-0.004752684384584427,-0.11318627744913101,0.03163230046629906,-0.04884206876158714,-0.05555383116006851,0.031517740339040756,-0.014503251761198044,-0.07406933605670929,0.05937270447611809,-0.12115182727575302,-0.08980727940797806,0.07133924961090088,-0.0958426222205162,-0.06054369732737541,0.005031329579651356,-0.0029607992619276047,0.016810651868581772,0.017780933529138565,-0.018515300005674362,0.04099591076374054,-0.034150537103414536,0.015792066231369972,0.001849649241194129,-0.025750108063220978,0.044344138354063034,-0.01731289178133011,-0.04315269738435745,0.03363476321101189,-0.006127470172941685,0.0030850202310830355,0.04393483325839043,0.018799524754285812,-0.008091083727777004,-0.001520156511105597,0.011079240590333939,0.027601666748523712,-0.031060736626386642,0.016283858567476273,-0.03640366718173027,0.011920171789824963,0.02162959985435009,-0.0006697381031699479,0.02232968620955944,-0.01572071947157383,0.02973077818751335,-0.007774392608553171,-0.05527889356017113,0.0011713013518601656,-0.0645471066236496,-0.01379763800650835,-0.008954848162829876,0.012321792542934418,-0.05669127404689789,0.002790241502225399,-0.05506546050310135,-0.10223633795976639,0.08320063352584839,-0.05606056749820709,-0.09814465790987015,0.04186788946390152,-0.031095333397388458,0.0034720394760370255,-0.006542818620800972,-0.04662128537893295,-0.10289739072322845,-0.0309456717222929,0.022507257759571075,-0.11705193668603897,-0.005919840652495623,-0.012063141912221909,-0.034006811678409576,0.03516317903995514,0.024402737617492676,-0.04602058604359627,0.054459553211927414,0.04410393908619881,-0.05711125582456589,0.02128719724714756,-0.07905823737382889,-0.18260730803012848,0.0019119298085570335,-0.062129829078912735,-0.21057137846946716,0.12028748542070389,-0.0946643128991127,-0.10847966372966766,0.10364461690187454,-0.03803795203566551,0.015230925753712654,0.03649013862013817,-0.05787735804915428,-0.0862562283873558,0.06761736422777176,0.0035198857076466084,-0.06049901247024536,0.05021810531616211,0.031172966584563255,-0.008139532059431076,-0.02495865523815155,-0.002583540976047516,-0.01246689260005951,0.005288667045533657,-0.024432215839624405,-0.05997120589017868,-0.025132913142442703,0.05907560884952545,0.057104140520095825,-0.055396948009729385,0.06018868088722229,-0.03016624227166176,-0.03127027302980423,0.10686962306499481,0.008157948963344097,-0.046275973320007324,-0.0432729609310627,0.07774358987808228,0.03975100815296173,-0.12159263342618942,0.05970858410000801,0.013155621476471424,-0.022161932662129402,-0.019264686852693558,0.0019343328895047307,0.0234463382512331,-0.04225355014204979,-0.02358069084584713,0.0672181248664856,-0.038507405668497086,-0.022544797509908676,0.0581359826028347,-0.039294514805078506,-0.00031830198713578284,-0.001691707642748952,2.888964991143439e-05,0.028428351506590843,-0.013434725813567638,-0.03228576108813286,-0.011209111660718918,-0.004003728739917278,-0.0771193876862526,-0.004500100389122963,0.0035801827907562256,-0.005734998267143965,0.029337525367736816,0.010600394569337368,-0.001286945422179997,0.06294067949056625,-0.02788049727678299,-0.03392583131790161,0.06380783021450043,-0.01558008324354887,0.08229991048574448,0.008170384913682938,0.007277550175786018,0.0032873007003217936,-0.0006125224172137678,0.041706666350364685,-0.005099458619952202,-0.0028872305992990732,0.02449432946741581,-0.029295852407813072,0.05197479948401451,-0.0267645213752985,-0.03561678156256676,0.0179415512830019,-0.011087235063314438,-0.009170757606625557,-0.01599494367837906,0.012641044333577156,-0.04938628152012825,-0.014333435334265232,-0.022587304934859276,-0.10477389395236969,0.012294248677790165,-0.05406400188803673,-0.024854090064764023,0.057468049228191376,0.06214376911520958,-0.02718561887741089,-0.03479059413075447,0.03657809644937515,-0.1498527079820633,-0.0008669070084579289,-0.02944342792034149,-0.09568517655134201,0.028164034709334373,0.05677776411175728,0.0007006974774412811,0.03262174874544144,-0.0012160661863163114,-0.009867310523986816,0.007450792472809553,-0.002668909728527069,-0.0479867197573185,0.00996535923331976,0.02954205684363842,0.06567621231079102,-0.0065459562465548515,0.01887570507824421,0.06309810280799866,0.011343753896653652,0.024474691599607468,0.03906062990427017,-0.013103118166327477,0.0032214962411671877,0.07505875080823898,-0.005204756278544664,-0.10541681945323944,0.10066504031419754,-0.007171499542891979,-0.09261088073253632,0.09236765652894974,-0.0028538662008941174,-0.02427583374083042,-0.008630038239061832,0.010642536915838718,-0.05010214075446129,-0.005903466604650021,0.031072525307536125,-0.025370076298713684,-0.009900514967739582,0.007879987359046936,0.01366619672626257,0.004819931928068399,0.010446357540786266,-0.004481019917875528,-0.010548610240221024,-0.054487425833940506,-0.0021622581407427788,-0.02874457836151123,-0.03133596107363701,0.027606835588812828,0.023992592468857765,-0.022629734128713608,0.028379688039422035,0.04515910893678665,0.014735747128725052,0.034584496170282364,0.0570596344769001,0.0452103465795517,0.03732672333717346,0.016718627884984016,-0.006416356191039085,0.03542899340391159,0.020224928855895996,-0.029523050412535667,-0.018688270822167397,-0.01498162280768156,-0.019510041922330856,0.013708740472793579,-0.027108334004878998,-0.03931869566440582,0.022766374051570892,-0.0016917739994823933,-0.0013428967213258147,-0.02325255796313286,-0.012825394980609417,0.020339740440249443,0.02321891486644745,0.05735677853226662,0.0027603674679994583,-0.003564352635294199,-0.008618212305009365,-0.005811401642858982,-0.03454231098294258,-0.03931942209601402,-0.07667019963264465,-0.06177283450961113,-0.02799508161842823,0.0007041263743303716,-0.019387831911444664,-0.03906911984086037,0.023121627047657967,0.05387817695736885,0.03098290041089058,0.00268388818949461,-0.03810497000813484,-0.04130985960364342,-0.030260568484663963,-0.053959593176841736,-0.13122305274009705,-0.139664888381958,-0.05898522213101387,-0.16076186299324036,-0.10737354308366776,-0.027465609833598137,-0.03061661869287491,-0.028289558365941048,-0.0349171981215477,-0.16072776913642883,-0.1459576040506363,0.01516119297593832,-0.11275637149810791,-0.08467265963554382,0.022634027525782585,0.005430754739791155,0.0077147711999714375,0.004223971161991358,-0.04982118308544159,-0.03228095546364784,0.03130083903670311,-0.038177333772182465,-0.14206604659557343,0.03786000236868858,0.01999565027654171,-0.017094630748033524,0.04709339886903763,0.045693278312683105,0.03191407024860382,0.014801926910877228,0.012907782569527626,0.04557884484529495,-0.01402229629456997,-0.019846417009830475,-0.028859974816441536,0.009878596290946007,0.004930433351546526,-0.0021713178139179945,0.05564625561237335,-0.009009983390569687,-0.016286110505461693,0.02674427069723606,0.05792676657438278,0.06008925288915634,0.06551779806613922,0.07495152205228806,0.029808929190039635,0.0487050823867321,0.030539710074663162,0.04145408049225807,-0.0166369266808033,0.03234737738966942,0.06340602785348892,0.03270333260297775,0.053095124661922455,0.08068018406629562,0.051377952098846436,0.037543635815382004,0.00849907100200653,0.10090981423854828,0.09297426789999008,0.06355587393045425,0.03018220327794552,0.05549800395965576,0.0710986778140068,-0.0026992037892341614,9.534425043966621e-05,0.04348457232117653,0.022005610167980194,-0.012537659145891666,-0.02487984672188759,-0.03101959265768528,-0.06033170968294144,-0.05900612100958824,-0.02101418375968933,-0.08263227343559265,0.0009519956074655056,0.010371353477239609,0.01785575971007347,-0.0103206941857934,-0.02682374231517315,-0.0201736930757761,-0.04098839685320854,-0.030677489936351776,-0.12494277954101562,-0.014298737049102783,-0.04792480915784836,-0.04227185994386673,-0.008487080223858356,0.009567171335220337,-0.0921790599822998,-0.03802916035056114,-0.03588047996163368,-0.11197393387556076,-0.08261384814977646,-0.014013742096722126,0.004247558303177357,-0.01127262320369482,-0.049077995121479034,-0.11858316510915756,-0.07360866665840149,-0.04447206109762192,-0.13267986476421356,-0.05095311254262924,-0.02545703575015068,-0.06786362826824188,-0.0857144221663475,-0.08064963668584824,-0.11198993772268295,-0.06189662218093872,-0.0867142304778099,-0.13139332830905914,-0.027521740645170212,-0.0012871320359408855,0.01871650665998459,0.053621429949998856,0.009363367222249508,0.047276150435209274,0.04309365525841713,-0.0009637451148591936,0.02976395934820175,0.00881914608180523,0.010110688395798206,-0.0363973043859005,-0.047974757850170135,-0.027628138661384583,-0.049884263426065445,-0.04619491100311279,-0.03519608452916145,-0.0913185253739357,-0.05504561960697174,0.02238078974187374,-0.012778607197105885,-0.004921899642795324,0.021331334486603737,0.0069378274492919445,-0.0019366403575986624,0.02194354683160782,-0.0013500541681423783,-0.022539064288139343,0.005343832075595856,0.04046474024653435,0.0323525033891201,0.030642643570899963,0.02861746959388256,0.00460020499303937,-0.014506544917821884,-0.0010250138584524393,-0.013801226392388344,-0.10881698876619339,-0.13322649896144867,-0.04766371473670006,-0.054633550345897675,-0.1674128621816635,-0.09310674667358398,-0.07950147986412048,-0.14590488374233246,-0.05013572797179222,-0.00029949264717288315,-0.02672472596168518,-0.01580492965877056,-0.07720907032489777,-0.15368124842643738,-0.09411552548408508,-0.14478453993797302,-0.194126158952713,-0.1209261417388916,-0.016683565452694893,0.014423085376620293,0.06619193404912949,0.02752361074090004,0.03955860063433647,0.052694130688905716,0.040235117077827454,0.01759481430053711,-0.005335567053407431,0.0026997828390449286,0.0146223995834589,0.017846282571554184,-0.024094607681035995,-0.055347103625535965,-0.030613789334893227,-0.014112299308180809,-0.11968863010406494,-0.07830441743135452,-0.026669159531593323,0.008973158895969391,0.08574894815683365,-0.006706836633384228,-0.013407460413873196,0.03889717906713486,-0.006312355864793062,-0.02261793427169323,-0.01780112087726593,0.048260655254125595,-0.005815515760332346,-0.0504692904651165,-0.10037011653184891,-0.1122007668018341,-0.028796318918466568,-0.12379292398691177,-0.14037832617759705,-0.04030262678861618,0.10598523169755936,0.10994681715965271,0.12172208726406097,0.07917287945747375,0.07889347523450851,0.12048831582069397,0.05461765080690384,0.05433792620897293,0.09730437397956848,-0.0033322609961032867,0.00826908927410841,0.025375107303261757,-0.0019792092498391867,0.0433521494269371,0.036850761622190475,-0.011772450990974903,-0.008080678060650826,-0.019767196848988533,0.1754823923110962,0.08033643662929535,0.008352333679795265,-0.15129409730434418,0.07505732774734497,-0.03897064924240112,0.06902837008237839,0.0660911276936531,0.03323790058493614,0.1126888245344162,0.00012399708793964237,-0.022710036486387253,0.13798008859157562,0.003540599485859275,-0.019717860966920853,-0.018918152898550034,-0.019233884289860725,-0.03143176808953285,0.03125482052564621,0.07139864563941956,0.07505426555871964,-0.5226447582244873,-0.2337399572134018,-0.006040417123585939,-0.004027007147669792,-0.024141155183315277,0.003231517504900694,-0.02523636259138584,-0.005731341429054737,-0.007032820954918861,-0.43940362334251404,-0.13526900112628937,-0.029761387035250664,0.020723579451441765,-0.02435665763914585,-0.028606707230210304,-0.03688788041472435,-0.01030152291059494,0.0017403877573087811,-0.26888415217399597,-0.1335098147392273,-0.03852745518088341,-0.0192854180932045,-0.004024358931928873,0.006916686426848173,0.20906609296798706,0.04967928305268288,0.09585289657115936,-0.055693402886390686,-0.15642690658569336,0.01184631884098053,0.12515075504779816,-0.024279365316033363,0.049032703042030334,0.06326340138912201,-0.03829320892691612,-0.035818252712488174,-0.01126371044665575,-0.01852104440331459,0.037863027304410934,-0.0007147449068725109,0.026808828115463257,0.014248372055590153,0.009253798983991146,0.016513938084244728,0.02871560864150524,0.021003535017371178,0.0665704607963562,0.06066609174013138,-0.028326967731118202,-0.057148974388837814,0.058904681354761124,-0.02410278469324112,-0.020828213542699814,0.003985773306339979,-0.013337615877389908,0.01329611986875534,0.07513409107923508,-0.009382523596286774,0.011509035713970661,0.013932616449892521,-0.07022446393966675,-0.010231759399175644,0.061972279101610184,-0.06786778569221497,0.023354800418019295,0.07087460905313492,-0.038528624922037125,0.017733275890350342,0.06363768130540848,-0.028633028268814087,0.04732942208647728,0.03842264786362648,-0.6162619590759277,-0.06060115993022919,0.01591113768517971,-0.07266324013471603,0.029286818578839302,0.030540630221366882,0.04482697695493698,0.03113328106701374,-0.0006620145286433399,-0.38333043456077576,-0.08004672080278397,0.02800033427774906,0.00570851843804121,0.04157264158129692,0.026977192610502243,-0.04329591616988182,0.04833240807056427,0.005363390315324068,-0.4739280939102173,-0.13491827249526978,-0.00906740128993988,0.06321655213832855,0.05531967431306839,0.022459162399172783,0.04347987845540047,0.011273447424173355,0.010407968424260616,-0.299498975276947,-0.03460424393415451,0.024735724553465843,-0.012539377436041832,0.003872118890285492,0.03193209692835808,0.08849772065877914,0.08608207106590271,0.012371093034744263,-0.08449918031692505,0.08712057769298553,-0.025815442204475403,0.03747272118926048,0.04164000600576401,0.001434512552805245,-0.04467838257551193,0.031008854508399963,-0.007270056754350662,0.008438237942755222,0.027296502143144608,0.02013307251036167,0.029138514772057533,0.02285236120223999,-0.0383894108235836,0.07877153158187866,0.006723575294017792,0.041935548186302185,-0.04435405135154724,0.00808112695813179,0.04425327852368355,-0.02778892032802105,-0.0332888662815094,-0.003116647945716977,-0.010171039029955864,-0.028225494548678398,-0.009349391795694828,-0.0017419792711734772,0.137664794921875,0.007062358316034079,-0.07965709269046783,-0.00044712895760312676,0.006939190439879894,-0.022347932681441307,-0.007200965192168951,-0.0017152358777821064,-0.05448785796761513,-0.026403483003377914,0.045777827501297,0.01636817865073681,-0.01535406056791544,-0.013544123619794846,0.1200728490948677,0.07347109913825989,-0.00936105940490961,-0.5906808972358704,-0.4885742664337158,-0.0847841203212738,0.030890777707099915,0.07724496722221375,0.047157131135463715,0.03823936730623245,0.04863401874899864,0.03566978499293327,-0.25700876116752625,-0.04044745862483978,0.0010004544164985418,0.10006467252969742,0.05692928284406662,0.00010425271466374397,0.012701524421572685,-0.025690510869026184,-0.008847132325172424,-0.054377082735300064,-0.09477449953556061,-0.03365784138441086,0.017894595861434937,-0.03553947061300278,-0.07464836537837982,0.0028300147969275713,0.07032294571399689,0.04060356691479683,-0.7021806240081787,-0.13471485674381256,-0.02313227578997612,0.10383700579404831,0.013295287266373634,-0.013867788948118687,0.03214013949036598,0.03822273388504982,0.023463688790798187,-0.34428688883781433,-0.04942970350384712,-0.0023902435787022114,-0.043440401554107666,-0.03637484461069107,-0.02778097428381443,-0.07411806285381317,-0.059194985777139664,0.00041602112469263375,-0.053120020776987076,-0.012549880892038345,0.01167229749262333,0.02519133687019348,0.0059821996837854385,0.10705213248729706,-0.07131411880254745,-0.03693300485610962,0.024420348927378654,-0.11392645537853241,-0.06042914092540741,0.009708283469080925,-0.024978170171380043,-0.05012991651892662,-0.00236131832934916,0.03687402233481407,-0.011409926228225231,-0.005007789004594088,-0.1639733463525772,0.02385096810758114,0.012307052500545979,-0.07378827780485153,0.006177674978971481,0.027168678119778633,0.010451395995914936,-0.033553626388311386,-0.03351930156350136,0.03289533033967018,0.08151645958423615,0.06548675894737244,0.00019838442676700652,0.012008985504508018,0.031215602532029152,0.010619711130857468,0.02084418572485447,0.004493919666856527,0.007897313684225082,0.026826636865735054,0.001596555346623063,0.03912153095006943,0.007213156204670668,-0.008919073268771172,-0.048917654901742935,0.060119230300188065,0.10350475460290909,-0.04389102756977081,0.06834249198436737,0.10917976498603821,0.006796088069677353,0.06257458031177521,0.11000049859285355,-0.05178794637322426,0.017286425456404686,0.06597291678190231,-0.21665015816688538,-0.16255144774913788,0.024455983191728592,0.05435137450695038,0.060089111328125,0.04429711773991585,0.011960468254983425,-0.0034888670779764652,0.05178438499569893,-0.2953134775161743,-0.17062781751155853,-0.05928463861346245,0.13404613733291626,0.05509418249130249,0.036446936428546906,0.007398465182632208,0.05201549828052521,0.014473463408648968,-0.02626337669789791,0.04691588506102562,0.05163992941379547,-0.058110561221838,0.0015047998167574406,0.02292168326675892,0.03465014323592186,0.013983706012368202,0.018442358821630478,-0.006066330708563328,-0.12001161277294159,-0.05370677635073662,0.007097514346241951,-0.10723856836557388,-0.07097269594669342,0.013948265463113785,-0.012169401161372662,0.005583556368947029,0.020763050764799118,0.0739121288061142,0.0569927915930748,0.031372807919979095,0.11874164640903473,0.07491914182901382,0.04281815513968468,0.007465269882231951,-0.020904673263430595,-0.041173338890075684,-0.08476241677999496,-0.06444153189659119,-0.1240304708480835,-0.06158304214477539,-0.008329139091074467,-0.01838092878460884,-0.04576922953128815,-0.06829896569252014,-0.026516348123550415,-0.027804357931017876,-0.0755181834101677,-0.03570279851555824,0.009452532045543194,0.015708614140748978,-0.035232432186603546,-0.04673438519239426,-0.07234545797109604,-0.028665047138929367,-0.025496095418930054,-0.004655894357711077,-0.08892293274402618,-0.05488492175936699,-0.019012322649359703,0.007167541887611151,0.019340554252266884,0.006671653129160404,-0.054423119872808456,-0.05174277722835541,-0.03489316627383232,-0.06327355653047562,-0.06348394602537155,-0.03947759419679642,0.024613400921225548,0.0011259005405008793,0.00856021512299776,0.1807962954044342,0.12560391426086426,0.035813432186841965,0.14226305484771729,0.10572617501020432,0.023604782298207283,0.042351074516773224,0.04033704102039337,0.010559683665633202,-0.031572118401527405,-3.094529529334977e-05,0.0013193183112889528,-0.04066215455532074,-0.04194135591387749,-0.02577689103782177,0.015811050310730934,0.0041176024824380875,0.03313234820961952,-0.026325782760977745,-0.08132574707269669,-0.011883918195962906,-0.004375668708235025,-0.0444999597966671,0.016360454261302948,0.013281871564686298,0.004973498173058033,-0.001979713561013341,-0.18329858779907227,-0.13315722346305847,-0.03314172849059105,-0.2064102292060852,-0.12095453590154648,-0.02463006041944027,0.009293458424508572,0.012985577806830406,0.002994979964569211,0.015993347391486168,0.09127502143383026,0.030444825068116188,-0.07066068053245544,-0.04619571194052696,-0.013247828930616379,-0.04197182133793831,-0.01132077444344759,0.0171283520758152,-0.12852753698825836,-0.13844634592533112,-0.12734951078891754,-0.09493057429790497,-0.09559239447116852,-0.059303268790245056,-0.0045609488151967525,0.05316069349646568,0.03369170054793358,-0.22027920186519623,-0.13509374856948853,-0.02685803733766079,-0.22173793613910675,-0.19577044248580933,-0.11134891957044601,-0.05424947291612625,0.016581231728196144,0.032371535897254944,-0.0710902065038681,-0.012700384482741356,0.029673399403691292,-0.07912865281105042,-0.03247485309839249,-0.009291271679103374,-0.019394109025597572,-0.014915695413947105,0.00015616889868397266,0.038365334272384644,-0.006759996060281992,-0.0339864119887352,0.11177147924900055,0.0932280495762825,0.013487644493579865,0.07932014018297195,0.0660189837217331,0.04043678566813469,0.10583154857158661,0.10938424617052078,0.08873967826366425,0.06551121175289154,0.049787331372499466,0.051238104701042175,-0.053791824728250504,-0.006304115056991577,-0.01185267511755228,-0.1872585564851761,-0.20845210552215576,-0.12056305259466171,-0.11353104561567307,-0.07944463938474655,-0.019229304045438766,0.040230318903923035,0.010264106094837189,0.04780031740665436,-0.12626290321350098,-0.20511886477470398,-0.1190643236041069,-0.21715325117111206,-0.18607573211193085,-0.1608530879020691,-0.04991985857486725,-0.06423409283161163,-0.004329088609665632,0.0361056849360466,0.06400059908628464,0.020713716745376587,-0.06138978898525238,-0.12140347063541412,-0.06366142630577087,-0.06071663275361061,-0.011840241961181164,0.023205047473311424,0.03404558449983597,0.053709059953689575,0.02331697940826416,0.09608433395624161,0.07567079365253448,0.06230558454990387,0.03022712655365467,-0.017634445801377296,-0.029249848797917366,0.06338375061750412,0.030779171735048294,-0.040332354605197906,0.04900659620761871,0.014720406383275986,-0.01541891973465681,-0.04330429062247276,0.004241695161908865,0.0005163358873687685,-0.1617475301027298,-0.0662972554564476,-0.03368920087814331,-0.08628454804420471,0.020651353523135185,0.019635966047644615,0.04256553575396538,0.06985006481409073,0.06460122764110565,-0.0946032702922821,-0.1636219471693039,-0.06425846368074417,-0.170411616563797,-0.17214533686637878,-0.11292649060487747,-0.01686936430633068,-0.013381972908973694,-0.0003751597832888365,0.05342695489525795,0.010884864255785942,-0.00979685503989458,0.04467442259192467,0.029955539852380753,-0.04470771551132202,0.05298806354403496,-0.025539357215166092,0.001954310806468129,0.0322054959833622,-0.04608995467424393,-0.059437934309244156,0.04233049973845482,-0.043014541268348694,-0.057744100689888,0.021985117346048355,0.07251725345849991,0.039230335503816605,-0.23091796040534973,-0.14135779440402985,-0.02557205967605114,-0.21084658801555634,-0.22749193012714386,-0.07478927820920944,0.026678210124373436,0.04350585490465164,0.04354667291045189,0.05789223313331604,0.04463205859065056,-0.0021131690591573715,0.012670985423028469,0.013439858332276344,-0.06109195947647095,-0.04790326580405235,-0.00034464977215975523,0.015845853835344315,-0.049648482352495193,0.007387898396700621,-0.014631366357207298,-0.009639564901590347,-0.017518676817417145,-0.06406034529209137,0.007379519287496805,0.02714581973850727,0.09514308720827103,-0.06256520003080368,-0.0275178924202919,0.0647783875465393,-0.05364348739385605,-0.03457173332571983,0.01994134858250618,0.026331007480621338,0.020589469000697136,-0.00559141905978322,-0.009082773700356483,-0.009297710843384266,0.02978489361703396,-0.06769575923681259,-0.0704868957400322,-0.040935028344392776,-0.005979445297271013,0.007024598773568869,0.031727276742458344,-0.012492789886891842,0.015678897500038147,0.03792062774300575,0.06391426175832748,0.04291875287890434,0.03615281730890274,-0.10438992828130722,0.0224368404597044,-0.011080106720328331,-0.15061204135417938,0.047123465687036514,-0.033606644719839096,-0.07143476605415344,0.017802417278289795,-0.006970158778131008,0.0385788194835186,-0.1033945232629776,0.04930421710014343,0.027705438435077667,-0.1589927077293396,0.04011807590723038,0.014772522263228893,-0.1315930187702179,0.007740186993032694,-0.01267501711845398,-0.02293860912322998,-0.014012251980602741,0.01875981315970421,-0.07098031044006348,0.0018405107548460364,0.0012344553833827376,-0.011694291606545448,0.001265048049390316,-0.023847101256251335,-0.024478968232870102,-0.006758291739970446,0.021727973595261574,-0.07065878808498383,-0.009062224999070168,0.018158020451664925,-0.0401802621781826,-0.00665621692314744,-0.010912502184510231,-0.012345281429588795,0.0025492107961326838,-0.048950985074043274,-0.03052925318479538,0.0442984402179718,-0.014039458706974983,-0.050643179565668106,0.018205802887678146,-0.11398039758205414,-0.09876766055822372,-0.05629029870033264,-0.08661104738712311,-0.06964550912380219,0.004870714619755745,-0.09032683819532394,-0.03769594058394432,0.004915792960673571,0.005070569459348917,-0.013041717931628227,-0.006189997307956219,-0.04418902471661568,-0.0013088209088891745,-0.03936187922954559,-0.007966003380715847,-0.002563315210863948,0.011801821179687977,0.02621578797698021,0.011121544055640697,0.012454885058104992,0.011369273997843266,-0.012165677733719349,0.006044689100235701,0.026693401858210564,0.029658349230885506,0.00375552149489522,0.025069711729884148,0.02178739570081234,0.02587972953915596,-0.001968435710296035,0.02156122960150242,0.01592065766453743,-0.002461047377437353,0.061027225106954575,0.014672222547233105,-0.04490893706679344,-0.0426766611635685,0.030108220875263214,-0.0613672137260437,-0.05048583075404167,0.03554217889904976,-0.036260005086660385,-0.03680858388543129,0.012404803186655045,0.013781951740384102,-0.013480529189109802,-0.012073153629899025,-0.0007559302030131221,-0.033286966383457184,2.8322885555098765e-05,-0.001129767159000039,-0.008019328117370605,0.011083321645855904,-0.008096728473901749,0.0031916138250380754,0.009622575715184212,0.01580243557691574,0.056960683315992355,0.04878260940313339,-0.00214492529630661,0.02126765064895153,0.008116716518998146,0.016577355563640594,-0.06007043644785881,0.005090663209557533,-0.012831446714699268,0.006968941073864698,-0.01142184715718031,0.004847411531955004,0.0009183428483083844,-0.008214032277464867,0.0019342036684975028,-0.043776798993349075,-0.002960342913866043,-0.0002751076244749129,-0.05590223893523216,-0.0036746952682733536,-0.021575432270765305,0.006839950103312731,0.002698134630918503,-0.01721481792628765,-0.05471433699131012,-0.01343383640050888,0.02740340679883957,-0.03409762680530548,0.016535790637135506,0.03228653222322464,-0.029691331088542938,0.03262549638748169,0.053347114473581314,-0.04566400498151779,0.03136715665459633,0.05878874659538269,-0.11277883499860764,0.028903620317578316,0.025137508288025856,-0.027118775993585587,-0.0005603083991445601,0.013652586378157139,-0.006091006100177765,-0.004888642579317093,-0.0040819598361849785,-0.024241086095571518,-0.0068294573575258255,-0.0006564285722561181,0.0009068054496310651,-0.0015306648565456271,-6.949363887542859e-05,-0.01028616912662983,-0.009447390213608742,-0.005734538193792105,0.023139841854572296,-0.010661596432328224,0.027449944987893105,-0.001212171628139913,-0.02541343681514263,0.022417323663830757,0.015906544402241707,0.013044087216258049,0.015811309218406677,0.0023039099760353565,0.002183417323976755,0.00496576027944684,-0.00610189326107502,0.0020102199632674456,-0.07265166938304901,0.028603367507457733,-0.12788298726081848,-0.09261353313922882,0.07713622599840164,-0.1569751501083374,-0.05832764506340027,0.027826255187392235,-0.11714485287666321,0.019613375887274742,-0.1187758594751358,0.0015168413519859314,0.024913957342505455,-0.13138797879219055,0.0017780800117179751,0.0006337140221148729,-0.07389625906944275,0.006421452853828669,-0.02797948569059372,0.004715995397418737,-0.06657737493515015,-0.054972946643829346,0.001518015400506556,-0.09927713871002197,-0.014499953016638756,0.0021712833549827337,-0.05348587408661842,0.03077966719865799,-0.015746913850307465,-0.01828884519636631,0.10159316658973694,0.01749478653073311,-0.013884867541491985,0.045961685478687286,-0.0053812600672245026,0.000386980565963313,-0.022961489856243134,-0.0006286791758611798,-0.022386176511645317,-0.05112471804022789,-0.023776033893227577,0.009041680954396725,0.005302191711962223,-0.03594681993126869,0.01843637228012085,0.01099679060280323,0.0057068788446486,0.01007535494863987,-0.012998802587389946,-0.02203815057873726,0.02557438611984253,0.011494213715195656,0.008388066664338112,0.020511195063591003,-0.0036354027688503265,-0.0657794252038002,0.009024572558701038,0.017916548997163773,-0.030544310808181763,0.017718957737088203,0.04175499454140663,0.005894746631383896,0.021988220512866974,-0.01595376431941986,0.004599613603204489,-0.016915159299969673,-0.01893785409629345,-0.04525081813335419,-0.013100673444569111,-0.011057686060667038,-0.02880186215043068,0.011446625925600529,0.044831886887550354,0.027745796367526054,-0.002114764181897044,-0.014497456140816212,0.02915773168206215,-0.019586266949772835,-0.005871541798114777,0.026921501383185387,-0.0009483788162469864,0.021567365154623985,-0.03084840439260006,-0.02548847906291485,-0.006400351878255606,-0.07344941049814224,0.0002159768482670188,-0.008636525832116604,0.0022766930051147938,-0.015470144338905811,-0.017747357487678528,-0.0015448385383933783,0.0016588902799412608,0.007638077717274427,0.010997232981026173,0.02033480815589428,0.0025081713683903217,-0.0024685892276465893,0.03935827687382698,-0.008603464812040329,0.02477201446890831,0.006626881659030914,0.0007981814560480416,0.030148951336741447,-0.005574717652052641,0.001652269158512354,-0.005773086566478014,-0.01190575398504734,-0.10732468217611313,0.019529705867171288,-0.1957997828722,-0.1259557604789734,0.027239149436354637,-0.2503435015678406,-0.03995436429977417,-0.012028854340314865,-0.083890900015831,0.04785897582769394,0.053638119250535965,0.06242880970239639,-0.00814025942236185,-0.053661853075027466,-0.052804913371801376,-0.023148322477936745,-0.01997813582420349,0.02315519191324711,-0.03198889270424843,-0.018162313848733902,-0.019028397276997566,-0.06024423986673355,-0.045100949704647064,-0.00862943660467863,0.03992289677262306,0.05931205302476883,0.03421812132000923,0.05126385763287544,0.05682511627674103,0.06373468041419983,0.03367381915450096,0.010178964585065842,0.008225499652326107,-0.0005044657154940069,-0.004531379323452711,-0.0017983412835747004,-0.032142508774995804,-0.01751154661178589,-0.012196918949484825,-0.014263848774135113,-0.020097969099879265,-0.033417485654354095,0.03678086772561073,-0.012742748484015465,-0.03644007816910744,-0.029564369469881058,-0.0008548669284209609,0.015461261384189129,-0.008868277072906494,-0.005922836717218161,-0.020274898037314415,0.012614062987267971,-0.009924921207129955,-0.012145468033850193,-0.09085333347320557,-0.08426260203123093,-0.09758618474006653,-0.027706237509846687,-0.07406143099069595,-0.09522203356027603,-0.026568403467535973,-0.0994800478219986,-0.08236932009458542,0.03321127966046333,-0.006298968568444252,-0.019041385501623154,0.004130660556256771,0.04809391126036644,0.011617605574429035,-0.1360759437084198,-0.13870646059513092,-0.05430203303694725,-0.1282539814710617,-0.04871879518032074,-0.1023353710770607,0.02516421675682068,0.04690587893128395,0.013335652649402618,0.07067045569419861,0.06822537630796432,0.09209756553173065,-0.030002444982528687,-0.059103403240442276,-0.08275169134140015,0.050618987530469894,0.10628454387187958,0.08462657779455185,0.009955006651580334,0.0137727539986372,0.004636480938643217,0.008946762420237064,-0.05174608156085014,-0.026615697890520096,0.05481329932808876,0.052598219364881516,0.07281965017318726,-0.11632417142391205,-0.09268926084041595,-0.06362181156873703,0.04265980049967766,0.04186777397990227,0.03913125768303871,0.018407288938760757,0.013824895024299622,0.015921488404273987,0.05741874873638153,0.028827698901295662,-0.0034208721481263638,0.027930336073040962,0.008998109959065914,0.031078524887561798,0.0059991818852722645,-0.013226281851530075,-0.010274617932736874,0.0032849323470145464,0.02698640525341034,0.04610299691557884,-0.0071709370240569115,0.019855469465255737,0.006326520815491676,0.008213472552597523,0.01152619905769825,0.0038785082288086414,0.02626710757613182,0.013861914165318012,0.005996964871883392,-0.0028499076142907143,-0.026846257969737053,-0.03911817446351051,0.011529117822647095,-0.011520050466060638,-0.03257787600159645,-0.01287426333874464,0.006366816349327564,0.022364959120750427,-0.01784651353955269,-0.04444674775004387,-0.03758030757308006,-0.04390837997198105,-0.057077258825302124,-0.03001786395907402,0.0034512009005993605,0.0211948212236166,0.017573371529579163,0.07178181409835815,0.04912039265036583,0.055990006774663925,0.013819139450788498,0.024975167587399483,0.04501347243785858,-0.066671222448349,-0.08252952247858047,-0.10014015436172485,0.043601278215646744,0.046782758086919785,0.01852487213909626,0.04346652701497078,0.0949687585234642,0.05931524932384491,-0.0518285408616066,-0.037141766399145126,-0.10678348690271378,0.0021765425335615873,-0.053438082337379456,-0.02805604599416256,0.01060284860432148,0.03394294157624245,0.02284199371933937,0.009074287489056587,0.006137545220553875,0.024653978645801544,-0.07937542349100113,-0.060162536799907684,-0.05989221855998039,-0.005312449298799038,-0.05625664070248604,-0.06573392450809479,0.010495409369468689,-0.010499628260731697,-0.0319468230009079,-0.05879766494035721,-0.08755531162023544,-0.08257681876420975,0.09011974185705185,-0.002419198863208294,-0.0027464176528155804,-0.10081367939710617,-0.07005888223648071,-0.05663209781050682,0.01296661701053381,0.002134348265826702,-0.01616504415869713,-0.01855577901005745,-0.032111912965774536,-0.01624193973839283,0.013609455898404121,0.023056644946336746,-0.00857740081846714,-0.12177322804927826,-0.09135030955076218,-0.05718716233968735,-0.04136546328663826,-0.04344000294804573,-0.052194397896528244,0.049307018518447876,0.008337912149727345,0.03670593723654747,0.03368276357650757,0.005623798351734877,0.012376056052744389,-0.00963975302875042,-0.005202684085816145,0.01282743364572525,0.0037827189080417156,-0.002736198715865612,0.0003254246839787811,-0.01632584258913994,-0.043504782021045685,-0.08171288669109344,0.016479134559631348,0.007204209454357624,-0.024100759997963905,0.03322147950530052,0.023777518421411514,-0.02549138106405735,-0.05066629499197006,-0.016947148367762566,-0.06894561648368835,0.04998578131198883,0.07674916088581085,0.046954087913036346,0.006845626514405012,-0.016919495537877083,-0.012659946456551552,0.02332872524857521,-0.0037783230654895306,-0.0015748123405501246,0.0029867119155824184,-0.03191906586289406,-0.0011781506473198533,0.009983286261558533,-0.014618451707065105,-0.05101509764790535,0.021236784756183624,-0.015003709122538567,-0.06396911293268204,0.008118338882923126,-0.012211055494844913,-0.020659707486629486,-0.049479562789201736,-0.010854586027562618,0.0331479087471962,-0.015877313911914825,-0.031101400032639503,-0.040301673114299774,0.05457641929388046,0.055344805121421814,0.029315458610653877,0.024987738579511642,0.07186689972877502,0.047238290309906006,-0.011699838563799858,-0.04379960149526596,-0.10501699894666672,0.0198983121663332,-0.00432628346607089,-0.027532540261745453,-0.013719826005399227,0.027164380997419357,0.030156131833791733,-0.01911049522459507,0.024250376969575882,0.013211190700531006,-0.004064067732542753,-0.0675172507762909,-0.04340200871229172,-0.01644860953092575,-0.03730178624391556,-0.013482986949384212,-0.00876469723880291,-0.01237869169563055,-0.03668062388896942,0.0753069743514061,0.0379079133272171,0.037177592515945435,-0.045107558369636536,-0.011875036172568798,-0.019407205283641815,0.042844485491514206,0.044886622577905655,0.020343992859125137,0.026712050661444664,-0.006333803292363882,-0.03031066246330738,-0.008807981386780739,-0.004800694063305855,0.020037513226270676,0.06401866674423218,0.020497331395745277,0.03240570053458214,-0.010794292204082012,-0.09350452572107315,-0.030786719173192978,0.02895197458565235,0.014601137489080429,0.013194603845477104,-0.010141769424080849,-0.0710395872592926,-0.05758281797170639,-0.006334313657134771,0.01754157617688179,0.04649611935019493,0.001358067849650979,0.074739009141922,0.0546705424785614,0.039229970425367355,0.07340837270021439,0.05421236529946327,0.011463087983429432,-0.02534143254160881,-0.003000339725986123,0.03544984385371208,0.012599514797329903,0.018517684191465378,-0.034028343856334686,-0.0897623747587204,-0.03326188027858734,-0.03420957922935486,-0.07713834941387177,-0.001988794421777129,-0.005005454178899527,-0.007258659228682518,-0.004509930498898029,-0.01922972872853279,-0.05275323614478111,0.012125816196203232,0.02372073009610176,0.04630149528384209,0.022837303578853607,0.03265377879142761,0.03561804071068764,0.04610050469636917,-0.11743301153182983,-0.13614700734615326,-0.15756402909755707,-0.056209828704595566,-0.0045106722973287106,0.02756054326891899,-0.01210523396730423,0.016914619132876396,0.04347597062587738,-0.02998282201588154,-0.040540728718042374,-0.008063415996730328,0.04613429307937622,0.015327267348766327,-0.005032729357481003,0.007339748553931713,0.043972648680210114,0.06203201785683632,-0.0662473663687706,-0.057951223105192184,-0.04520602524280548,-0.0028799769934266806,0.03770391643047333,0.03833460807800293,-0.1415875405073166,-0.237098827958107,-0.17404761910438538,-0.017575612291693687,-0.15148289501667023,-0.1623084992170334,0.056766077876091,0.08105531334877014,0.06785551458597183,0.04190269112586975,0.11150961369276047,0.0935986116528511,-0.09203758835792542,-0.08321322500705719,-0.06793412566184998,-0.03166081756353378,-0.019438235089182854,0.004763359669595957,-0.033721521496772766,-0.007177309598773718,0.002325449138879776,0.007334033492952585,-0.0471348837018013,-0.0005627442733384669,-0.022843265905976295,-0.028350966051220894,0.006405295338481665,-0.025750065222382545,-0.019193317741155624,0.019787464290857315,0.056573547422885895,0.05796107277274132,-0.018457263708114624,0.007726485840976238,0.013087050057947636,0.008103009313344955,-0.014646102674305439,0.014627140015363693,0.031472090631723404,-0.020982438698410988,-0.14502142369747162,-0.07715987414121628,-0.07193431258201599,-0.11032240837812424,-0.0097591457888484,-0.014016736298799515,-0.0035515266936272383,0.035605620592832565,-0.03943341225385666,-0.04575387388467789,0.019729197025299072,-0.04733433946967125,-0.047153353691101074,0.00411851704120636,0.026099279522895813,0.005443246103823185,-0.04553886502981186,0.0071897078305482864,-0.0161142461001873,-0.017566218972206116,-0.016449114307761192,0.01626494899392128,0.0030516774859279394,0.026912804692983627,0.012007808312773705,-0.009084771387279034,0.05170037969946861,0.04916365072131157,0.023113451898097992,-0.04768984019756317,-0.1328185349702835,-0.09377866983413696,0.01884419471025467,0.027923723682761192,0.022053608670830727,0.015190149657428265,0.0330868735909462,0.03132195025682449,-0.028671668842434883,-0.11930225789546967,-0.12006048858165741,0.02725154161453247,0.010634806007146835,0.010960339568555355,-0.004697643220424652,-0.0776800587773323,-0.007536374498158693,-0.07008885592222214,-0.07103656977415085,-0.06638183444738388,0.012170887552201748,0.008246991783380508,-0.026840690523386,0.05527752265334129,0.1953132003545761,0.08746784180402756,0.041269149631261826,0.12597142159938812,0.05572892725467682,-0.027412496507167816,-0.13998952507972717,-0.0972796380519867,-0.0811886340379715,-0.09553062170743942,-0.07103116810321808,0.058021895587444305,0.10209114104509354,0.025472069159150124,0.05653062462806702,0.0661105215549469,-0.0031075244769454002,0.0036090805660933256,-0.06205836683511734,-0.012062625028192997,-0.035492703318595886,0.005770904012024403,0.03997258096933365,-0.024179348722100258,-0.04289674758911133,-0.009468055330216885,-0.01140174176543951,-0.037201132625341415,-0.037018902599811554,0.02483983524143696,0.04878541827201843,0.06400448828935623,-0.022220227867364883,-0.034827299416065216,-0.03246020898222923,0.04089727625250816,0.032789185643196106,0.022740939632058144,0.02271955832839012,0.033714987337589264,0.023609863594174385,0.021792441606521606,0.04715658724308014,0.027231760323047638,-0.013537396676838398,-0.03197493776679039,-0.03324947878718376,-0.006254431325942278,-0.040762342512607574,-0.07085369527339935,-0.03713307902216911,-0.03324989229440689,-0.016751332208514214,-0.04966512322425842,-0.04839795455336571,-0.07322284579277039,0.043105196207761765,0.05408380925655365,0.02368040196597576,-0.02333449013531208,-0.019904373213648796,-0.015157838352024555,0.01687450334429741,-0.03537389263510704,-0.021370483562350273,-0.04461877420544624,-0.033133748918771744,-0.007345936261117458,0.02632811665534973,0.024535859003663063,0.012210712768137455,-0.04398321732878685,-0.05250399559736252,-0.018546918407082558,-0.0013092337176203728,-0.021828200668096542,-0.017397409304976463,0.006512319203466177,-0.019628355279564857,-0.012673125602304935,-0.013786219991743565,-0.028609802946448326,-0.009175551123917103,-0.0680098608136177,-0.12673433125019073,-0.0864994153380394,-0.002854412654414773,0.002894192934036255,0.0014904708368703723,-0.0065510510466992855,0.04588991031050682,0.03220636025071144,0.0005146568291820586,0.029916364699602127,0.017263343557715416,-0.03273216634988785,-0.10740012675523758,-0.1049879863858223,0.0006774426437914371,-0.01951223984360695,-0.014644400216639042,0.05439937859773636,0.040021199733018875,0.02176252193748951,0.0432049036026001,0.03291986882686615,0.019250113517045975,-0.01007708441466093,-0.00927960965782404,-0.00454048253595829,0.0032206361647695303,0.02028718590736389,0.002539923647418618,-0.04098634049296379,-0.039018649607896805,-0.04435837268829346,-0.012788340449333191,-0.046104300767183304,-0.016099030151963234,0.002161084208637476,-0.026429912075400352,-0.032273922115564346,-0.01036390382796526,-0.031775638461112976,-0.0002656888391356915,-0.002616927493363619,0.006626826245337725,-0.022676289081573486,-0.004770449362695217,-0.023183830082416534,-0.048755254596471786,0.0020245295017957687,-0.011446735821664333,0.011165661737322807,0.0005225619534030557,-0.012808655388653278,-0.011091670021414757,0.0037342249415814877,-0.007965591736137867,-0.009895102120935917,0.047345131635665894,0.05677202716469765,0.047105710953474045,0.034540753811597824,0.08303073793649673,0.024277810007333755,0.015933658927679062,0.04581744968891144,0.0166183952242136,-0.014422694221138954,-0.02953851968050003,-0.021700454875826836,0.0019056606106460094,0.003299698233604431,0.02016877569258213,-0.029448460787534714,-0.004141226876527071,0.02961374633014202,-0.019403476268053055,-0.011178502812981606,0.02606125734746456,0.008112037554383278,0.044607631862163544,0.06387529522180557,0.002304171910509467,0.03690766915678978,0.06682796031236649,-0.019594844430685043,0.00976717472076416,0.06707156449556351,-0.11587677896022797,-0.1095653846859932,-0.04468169063329697,-0.07038328796625137,-0.03514138236641884,-0.0038300540763884783,-0.009878238663077354,0.025184402242302895,0.022288335487246513,-0.021292882040143013,-0.08209675550460815,-0.05161741375923157,-0.02585720457136631,-0.06932509690523148,-0.08049149811267853,-0.002301606349647045,-0.05248799920082092,-0.058895356953144073,-0.00230932654812932,0.028622526675462723,0.07146859169006348,0.016040632501244545,0.027225974947214127,0.06456742435693741,0.02242630161345005,0.032977957278490067,0.058515727519989014,-0.01731395162642002,-0.028502071276307106,-0.02120557799935341,0.0060498337261378765,-0.00948028452694416,0.008819852024316788,0.07783329486846924,0.09238386899232864,0.07684662938117981,0.007058632560074329,-0.04485165700316429,-0.04152890294790268,0.004106728360056877,-0.03340333700180054,-0.026213139295578003,0.017555011436343193,0.005136508960276842,-0.028115693479776382,0.027118084952235222,0.024188708513975143,0.026040008291602135,0.03801548108458519,0.0206289105117321,0.0375172458589077,0.003504697000607848,-0.008392050862312317,0.009419921785593033,-0.0038003167137503624,-0.03682826831936836,-0.029961716383695602,0.012551708146929741,0.0010157068027183414,-0.010537701658904552,0.0370030403137207,0.025937063619494438,0.006443362683057785,0.0400480180978775,0.06164710596203804,0.05672944709658623,0.05027466267347336,0.041772983968257904,0.025081316009163857,-0.014295928180217743,-0.046240873634815216,-0.041032399982213974,0.0050954739563167095,0.00013460678746923804,-0.007234638556838036,0.043968237936496735,0.02716369554400444,-0.0017820424400269985,0.010710617527365685,0.014979523606598377,-0.015560505911707878,0.041067179292440414,0.020163409411907196,-0.014586606994271278,0.047291968017816544,0.021266043186187744,-0.0038063256070017815,